-8.331155776977539062e-02
-4.157293215394020081e-02
-6.540963798761367798e-02
-3.403862193226814270e-02
5.316594615578651428e-02
1.251153051853179932e-01
5.408963561058044434e-02
-4.260404035449028015e-03
-1.547322049736976624e-02
1.957591809332370758e-02
-9.855823218822479248e-02
2.857923321425914764e-02
9.285097569227218628e-02
-3.926311433315277100e-02
-4.424866754561662674e-03
1.150880679488182068e-01
-7.630523294210433960e-02
2.383729815483093262e-02
1.107638254761695862e-01
5.963840708136558533e-02
-1.405695639550685883e-02
1.135968565940856934e-01
-5.840480700135231018e-02
9.199643880128860474e-02
-1.710855588316917419e-02
8.161723613739013672e-02
-6.179473549127578735e-02
1.167720854282379150e-01
1.197391301393508911e-01
-7.615461945533752441e-02
7.953020930290222168e-02
2.502962388098239899e-02
1.282296925783157349e-01
2.506279014050960541e-02
1.466676145792007446e-01
2.706041187047958374e-02
3.570492938160896301e-02
1.235377490520477295e-01
3.676672279834747314e-02
7.405412197113037109e-02
-3.097419254481792450e-02
-1.078445911407470703e-01
7.154849171638488770e-02
1.183369196951389313e-02
8.160457760095596313e-02
3.857909888029098511e-02
1.281642764806747437e-01
1.187184825539588928e-01
-2.440060256049036980e-03
7.737262547016143799e-02
-2.575056068599224091e-02
3.609220311045646667e-02
-5.324844736605882645e-03
-3.556929156184196472e-02
-4.975251853466033936e-02
4.384792409837245941e-03
4.448107257485389709e-02
1.756930947303771973e-01
6.368441879749298096e-02
-2.308745123445987701e-02
-3.002087585628032684e-02
-6.884106434881687164e-03
5.339726433157920837e-02
-3.622915595769882202e-02
1.281090676784515381e-01
-5.302593857049942017e-02
-4.291137307882308960e-02
1.634813994169235229e-01
-5.377623438835144043e-02
2.333428943529725075e-03
9.105441719293594360e-02
-3.238032013177871704e-02
3.830752894282341003e-02
-4.950607568025588989e-02
2.425954444333910942e-03
-3.354343026876449585e-02
-7.151120901107788086e-02
4.013235121965408325e-02
1.431207638233900070e-02
6.958026438951492310e-02
-1.093940958380699158e-01
-4.105283413082361221e-03
-1.388157811015844345e-02
7.656291872262954712e-02
7.975375652313232422e-02
-6.683554500341415405e-02
6.449894607067108154e-02
-4.296939447522163391e-02
-4.221340641379356384e-02
-3.254339098930358887e-02
1.146876588463783264e-01
6.427589803934097290e-03
-3.238802030682563782e-02
-1.855611987411975861e-02
4.626867547631263733e-02
1.117221042513847351e-01
-6.292592734098434448e-02
-1.175065431743860245e-02
-1.052332967519760132e-01
-5.183500796556472778e-02
1.330439746379852295e-01
-6.320307496935129166e-03
1.155055686831474304e-01
-5.423061922192573547e-02
-3.312686830759048462e-02
4.223318397998809814e-02
7.733119279146194458e-02
1.020552776753902435e-02
6.883924826979637146e-03
1.249030753970146179e-01
7.923944294452667236e-02
2.255208231508731842e-02
2.299225144088268280e-02
-6.614895164966583252e-02
1.519344300031661987e-01
1.299110613763332367e-02
-5.555620882660150528e-03
1.061358023434877396e-02
2.587602287530899048e-02
-2.265596017241477966e-02
