2.069352716207504272e-01 1.083256378769874573e-01 1.769448257982730865e-02 -3.542790934443473816e-02 -1.367020793259143829e-02 -5.902449041604995728e-02 -1.351882666349411011e-01 -2.145095467567443848e-01 6.145962979644536972e-03 4.226460680365562439e-02 -1.340662389993667603e-01 -1.663447320461273193e-01 2.079859748482704163e-02 8.498661220073699951e-02 -1.161830574274063110e-01 -1.248451694846153259e-01 -4.966328665614128113e-02 6.010090000927448273e-04 -1.136507838964462280e-01 1.874973624944686890e-02 1.119086891412734985e-01 -6.610099971294403076e-02 -1.803140044212341309e-01 -5.741465464234352112e-02 5.789436399936676025e-02 -1.980593502521514893e-01 -1.677274554967880249e-01 -8.613651990890502930e-02 3.845988959074020386e-02 2.150727063417434692e-01 -1.231902390718460083e-01 -1.071501597762107849e-01 3.093820251524448395e-02 -3.892787732183933258e-03 -9.909626841545104980e-02 -8.216964453458786011e-02 9.858419187366962433e-03 1.604501903057098389e-02 -2.310118079185485840e-01 -6.518457084894180298e-02 1.418719291687011719e-01 -1.282152533531188965e-01 -8.805873245000839233e-02 5.111701041460037231e-02 -5.353835225105285645e-02 -4.691382125020027161e-02 9.320142865180969238e-02 2.181485295295715332e-02 2.229642868041992188e-02 -6.994096934795379639e-02 -1.656174659729003906e-01 -6.370671093463897705e-02 -4.060526937246322632e-02 -8.279981464147567749e-02 -1.275071315467357635e-02 4.084957763552665710e-03 -6.043333932757377625e-02 -1.312315165996551514e-01 1.388952732086181641e-01 -6.055673584342002869e-02 -5.980104953050613403e-02 -1.133807748556137085e-01 1.287313401699066162e-01 9.414537996053695679e-02 -1.991650909185409546e-01 3.714544698596000671e-02 7.247667014598846436e-02 -3.126987442374229431e-02 6.059409677982330322e-02 4.648849740624427795e-02 -2.209812775254249573e-02 -7.266656309366226196e-02 1.563933119177818298e-02 6.039447709918022156e-02 -1.416502706706523895e-02 -1.206034421920776367e-01 7.854347117245197296e-03 9.157861024141311646e-02 1.845687627792358398e-02 -1.741794049739837646e-01 -4.248450510203838348e-03 2.563928961753845215e-01 7.242310047149658203e-02 -3.881452605128288269e-02 9.059338271617889404e-02 1.789778321981430054e-01 5.638651922345161438e-02 -5.310003086924552917e-02 9.846344590187072754e-02 5.231176316738128662e-02 -1.517631560564041138e-01 -6.019225344061851501e-02 1.668038070201873779e-01 -4.929677583277225494e-03 -2.274428457021713257e-01 -1.043892577290534973e-01 1.026289835572242737e-01 4.759172722697257996e-02 -7.398045808076858521e-02 -1.022993773221969604e-01 1.013857778161764145e-02 3.557433560490608215e-02 -1.596569456160068512e-02 2.702510450035333633e-03 1.627179421484470367e-02 -8.112221956253051758e-03 1.852701976895332336e-02 -2.089565433561801910e-02 3.351086005568504333e-02 3.395750001072883606e-02 1.665445603430271149e-02 -6.645828485488891602e-03 1.873499131761491299e-03 -3.016399219632148743e-02 -2.177543751895427704e-02 -3.458480909466743469e-02 -3.695607301779091358e-04 -9.227693080902099609e-03 -3.110756911337375641e-02 3.732416778802871704e-02 3.704856708645820618e-02 2.348588779568672180e-02 -1.127457595430314541e-03 2.255973219871520996e-02 -1.907621137797832489e-02 -2.617900073528289795e-02 -3.867429913952946663e-03 -5.602248758077621460e-02 -4.248181357979774475e-02 5.472588539123535156e-02 -1.790987700223922729e-02 9.609265625476837158e-02 4.253013432025909424e-02 3.528741002082824707e-02 -6.350437551736831665e-02 1.543744700029492378e-03 -3.995579108595848083e-02 4.673657938838005066e-02 5.740332230925559998e-02 3.354808315634727478e-02 -1.169992387294769287e-01 -6.221488118171691895e-02 3.104139119386672974e-02 6.469120737165212631e-03 -2.318862825632095337e-02 -3.563857078552246094e-02 -6.847081240266561508e-03 -2.073659934103488922e-02 -1.060878112912178040e-01 -4.880299419164657593e-02 -3.721921518445014954e-02 9.944130666553974152e-03 -1.654528379440307617e-01 6.158985570073127747e-02 2.088672518730163574e-01 -9.103078395128250122e-02 -2.007835954427719116e-01 1.029434893280267715e-02 5.768128484487533569e-02 7.564835995435714722e-02 -1.507979929447174072e-01 1.239345315843820572e-02 1.436179224401712418e-02 -1.195493564009666443e-01 4.457764793187379837e-03 8.894787728786468506e-02 6.816081702709197998e-02 -7.133430987596511841e-02 -1.355211585760116577e-01 -9.920710325241088867e-02 2.673174627125263214e-02 4.615918919444084167e-02 -1.152579411864280701e-01 -1.477357596158981323e-01 -3.169971331954002380e-02 2.830154299736022949e-01 1.008408069610595703e-01 5.850922316312789917e-03 -3.967715799808502197e-02 -6.022827327251434326e-02 5.821384117007255554e-02 -4.818173125386238098e-03 1.327181700617074966e-02 -6.627869606018066406e-02 1.556786475703120232e-03 -1.820868998765945435e-01 -4.120040312409400940e-02 4.800193384289741516e-02 1.169476509094238281e-01 -2.494212985038757324e-02 -9.481393545866012573e-02 1.537328511476516724e-01 1.880460232496261597e-01 -1.239736154675483704e-01 -1.442942172288894653e-01 5.820745974779129028e-02 1.216136291623115540e-02 -8.461344242095947266e-02 -1.873154751956462860e-02 -9.588515013456344604e-02 -1.408581715077161789e-02 -8.770659565925598145e-03 -1.126268357038497925e-01 2.582824528217315674e-01 1.056833341717720032e-01 -1.741621941328048706e-01 -1.906592100858688354e-01 -5.471358448266983032e-02 1.926509737968444824e-01 1.948391944169998169e-01 -1.778970360755920410e-01 -4.950339719653129578e-02 -1.190680861473083496e-01 -1.470369547605514526e-01 1.779350824654102325e-02 3.271374478936195374e-02 -1.142972633242607117e-01 -2.447387874126434326e-01 -2.587295472621917725e-01 -2.569337487220764160e-01 9.283497184514999390e-02 -1.608489602804183960e-01 -1.289030313491821289e-01 -1.174660101532936096e-01 -4.107134789228439331e-02 -1.284283697605133057e-01 -2.086059376597404480e-02 -2.434604465961456299e-01 -4.326016828417778015e-02 8.703363686800003052e-02 -1.230133473873138428e-01 -1.811157166957855225e-01 -4.762314632534980774e-02 1.053535100072622299e-02 6.258826702833175659e-02 -1.158471107482910156e-01 -7.150817662477493286e-02 -6.576988846063613892e-02 -1.349503099918365479e-01 -1.319030821323394775e-01 2.884441427886486053e-02 3.585351258516311646e-02 -2.125403285026550293e-01 -2.086421549320220947e-01 -9.264925122261047363e-02 1.417094767093658447e-01 -8.241024799644947052e-03 -5.917308852076530457e-02 -1.711144745349884033e-01 -1.946004331111907959e-01 3.438301384449005127e-02 1.268784631974995136e-03 -2.282020077109336853e-02 8.554856479167938232e-02 -4.628259316086769104e-02 -3.660185635089874268e-02 -8.473727107048034668e-02 2.474831342697143555e-01 5.749912932515144348e-03 -1.514719426631927490e-01 -1.192675605416297913e-01 1.571288406848907471e-01 1.853886060416698456e-02 -1.410897970199584961e-01 -6.464704126119613647e-02 1.005685329437255859e-01 -3.941327705979347229e-02 -6.229495629668235779e-04 -6.032202020287513733e-02 -1.030339524149894714e-01 1.115068420767784119e-02 7.594519853591918945e-02 7.798439264297485352e-02 -1.504374444484710693e-01 -1.872838139533996582e-01 -5.933293327689170837e-02 -2.174945175647735596e-01 -1.273963600397109985e-01 1.373343821614980698e-02 7.947053015232086182e-02 -1.120812743902206421e-01 -6.994239985942840576e-02 1.908790618181228638e-01 7.280469685792922974e-02 -1.747403293848037720e-01 -4.558997601270675659e-02 6.409399211406707764e-02 1.095502823591232300e-01 -1.624305397272109985e-01 -6.210679188370704651e-02 1.174547150731086731e-01 -3.820384666323661804e-02 5.732061713933944702e-02 5.534268915653228760e-02 1.020908877253532410e-01 -2.975967898964881897e-02 -7.185152918100357056e-02 1.097989231348037720e-01 3.083825856447219849e-02 1.163865905255079269e-03 3.770043700933456421e-02 1.228370293974876404e-01 8.287255465984344482e-02 4.797560721635818481e-02 -4.930133745074272156e-02 4.692043364048004150e-02 1.624635905027389526e-01 1.226280182600021362e-01 9.264428913593292236e-02 -9.600838646292686462e-03 -9.510011970996856689e-02 -4.825598746538162231e-02 5.488790199160575867e-02 1.274158433079719543e-02 -2.562866359949111938e-02 -8.526127785444259644e-02 -7.492468506097793579e-02 5.235671252012252808e-02 -7.716670166701078415e-03 -7.947921752929687500e-03 -3.330565989017486572e-02 -2.272608689963817596e-02 -1.539706718176603317e-02 -5.990313366055488586e-02 -3.904017806053161621e-02 1.407680362462997437e-01 1.105074658989906311e-01 2.602543495595455170e-02 1.319166272878646851e-01 9.785105474293231964e-03 -1.444541364908218384e-01 -1.208330690860748291e-01 -1.669050157070159912e-01 -9.144972264766693115e-02 2.032014913856983185e-02 -1.941282451152801514e-01 -1.543469578027725220e-01 -1.032780855894088745e-01 6.774327484890818596e-04 -3.388487920165061951e-02 -7.297717034816741943e-02 -1.526846829801797867e-02 -1.163375657051801682e-02 -2.213403768837451935e-02 -1.582565605640411377e-01 -6.708064116537570953e-03 -1.142194587737321854e-02 -1.412639617919921875e-01 -6.363696604967117310e-02 -4.918697103857994080e-02 3.145483136177062988e-02 -2.736017480492591858e-02 -5.714952945709228516e-02 3.295444324612617493e-02 1.048380732536315918e-01 -1.360168904066085815e-01 -1.665246486663818359e-01 -1.081679984927177429e-01 -1.362871751189231873e-02 7.580885291099548340e-02 -1.523040086030960083e-01 -5.597281083464622498e-02 -6.414582580327987671e-02 -1.441399455070495605e-01 -1.424072980880737305e-01 -3.416165011003613472e-03 -2.931919507682323456e-02 -1.503624171018600464e-01 -2.485536932945251465e-01 -1.325220018625259399e-01 1.365857571363449097e-01 7.099178433418273926e-02 -3.792858868837356567e-02 -5.634037777781486511e-02 -9.045752137899398804e-02 2.018172759562730789e-03 3.559215366840362549e-02 -2.037027478218078613e-02 -1.001778393983840942e-01 3.840009868144989014e-02 -7.802999019622802734e-02 -1.575338840484619141e-01 3.619839251041412354e-02 -8.100973814725875854e-02 -8.859182707965373993e-03 -1.451197713613510132e-01 -1.282970160245895386e-01 3.654884546995162964e-02 -1.818552762269973755e-01 -2.291508018970489502e-01 1.921336911618709564e-02 -3.825116669759154320e-03 -5.774503946304321289e-02 -2.293558269739151001e-01 -1.380036771297454834e-01 5.850146338343620300e-02 6.853073369711637497e-03 5.137927457690238953e-02 -1.222377344965934753e-01 -6.845129281282424927e-02
-2.526423893868923187e-02 -3.192650910932570696e-04 8.333168923854827881e-03 3.609139239415526390e-03 -3.209210187196731567e-02 -5.130905658006668091e-02 -7.046794053167104721e-04 7.903698831796646118e-03 -1.813232433050870895e-03 -1.523780636489391327e-02 -4.290368035435676575e-02 2.696853317320346832e-02 -4.594602063298225403e-02 5.566911771893501282e-03 -4.897236824035644531e-03 3.316638246178627014e-02 -3.878239169716835022e-02 -2.727035805583000183e-02 -1.199890300631523132e-02 3.191840834915637970e-03 1.329587493091821671e-02 7.661539129912853241e-03 -2.139142341911792755e-02 -2.083208411931991577e-02 3.398346155881881714e-02 -6.076778471469879150e-02 1.579014584422111511e-02 -4.286139458417892456e-02 -6.130693107843399048e-02 -4.789473488926887512e-02 1.648114062845706940e-02 3.466900065541267395e-02 -5.641399323940277100e-02 -5.687306076288223267e-02 4.420390725135803223e-02 -4.818522557616233826e-02 2.790687792003154755e-02 -6.947407871484756470e-02 -4.191729798913002014e-02 2.714170515537261963e-02 -1.962872408330440521e-02 2.242839895188808441e-02 1.351076085120439529e-02 -2.788012148812413216e-03 -2.271314151585102081e-02 -2.118474990129470825e-02 1.811105944216251373e-02 -1.232420280575752258e-02 5.333478096872568130e-03 -2.085236646234989166e-02 2.271301858127117157e-02 -4.103525355458259583e-02 -7.126749306917190552e-02 -7.019023597240447998e-02 1.641235128045082092e-02 -3.508162498474121094e-02 1.851943694055080414e-02 2.073260582983493805e-02 2.993602771311998367e-03 -6.476878374814987183e-02 -2.489461749792098999e-02 -5.403070151805877686e-02 -5.052941665053367615e-02 -2.390632405877113342e-02 -3.167935088276863098e-02 -5.512587726116180420e-03 2.675226144492626190e-02 -9.760698303580284119e-03 1.355108339339494705e-02 -3.499075770378112793e-02 -5.405769497156143188e-02 2.431678958237171173e-02 -3.181015700101852417e-02 -2.708840183913707733e-02 -5.118903936818242073e-04 3.423078730702400208e-02 2.856666781008243561e-02 -4.453714564442634583e-02 -3.947019949555397034e-02 -7.341874763369560242e-03 -9.419276379048824310e-03 3.059102222323417664e-02 3.940024971961975098e-02 -4.643001034855842590e-02 -6.861115992069244385e-02 -3.254164755344390869e-02 2.384440787136554718e-02 -2.257731556892395020e-02 -4.592203721404075623e-02 -4.086486622691154480e-02 2.529519982635974884e-02 2.362815663218498230e-03 -5.414041504263877869e-02 -1.300862617790699005e-02 1.639465219341218472e-03 3.002144163474440575e-03 2.915398776531219482e-02 -4.488239809870719910e-02 -5.084814131259918213e-02 -3.817426040768623352e-02 2.349259331822395325e-02 3.012916445732116699e-02 1.111614145338535309e-02 -4.672553017735481262e-02 4.905489832162857056e-02 -4.456449300050735474e-02 3.642584756016731262e-02 1.462088804692029953e-02 2.119022607803344727e-02 -7.415354251861572266e-03 -7.932133041322231293e-03 3.570163389667868614e-03 -4.498344287276268005e-02 3.424549102783203125e-02 3.929919004440307617e-02 -1.314865984022617340e-02 -1.148593425750732422e-02 -4.476525261998176575e-02 -3.952020406723022461e-02 -1.126277493312954903e-03 6.292224279604852200e-04 -2.464676462113857269e-02 -1.288467086851596832e-02 4.648897796869277954e-02 4.724438861012458801e-02 1.416047010570764542e-02 1.370443217456340790e-02 -1.518208626657724380e-02 -5.657379329204559326e-02 -3.020093217492103577e-02 -1.022702828049659729e-02 1.003356743603944778e-02 2.492206543684005737e-02 9.305691346526145935e-03 -4.435598105192184448e-02 -5.330949276685714722e-02 -2.619043178856372833e-02 -2.245876379311084747e-02 1.855795644223690033e-02 -6.439568847417831421e-02 2.352511137723922729e-02 -1.351177413016557693e-02 4.156022891402244568e-02 -1.165378931909799576e-02 1.910638622939586639e-02 -6.078025698661804199e-02 1.278081536293029785e-02 3.339252248406410217e-02 2.727877534925937653e-02 -1.802588999271392822e-02 2.303922548890113831e-03 -6.362777203321456909e-02 2.492533763870596886e-03 -5.435768887400627136e-02 3.903166577219963074e-02 6.835041102021932602e-03 4.025585576891899109e-02 -6.430199742317199707e-02 -4.563428461551666260e-03 1.024562865495681763e-02 -6.050495430827140808e-03 -2.339934464544057846e-03 3.601627796888351440e-02 -1.785345934331417084e-02 -4.077506437897682190e-02 -5.103085562586784363e-02 -4.536167532205581665e-02 3.592095151543617249e-02 -3.461260721087455750e-02 -4.107218980789184570e-02 -2.161586843430995941e-02 -4.808169603347778320e-02 1.492062583565711975e-02 -8.863667957484722137e-03 -2.321071689948439598e-03 4.745902866125106812e-02 5.346521735191345215e-02 1.457552518695592880e-02 -4.715876281261444092e-02 -4.572415351867675781e-02 3.275454789400100708e-02 1.441827788949012756e-02 -2.624744735658168793e-02 1.134460046887397766e-02 -5.023112520575523376e-02 3.305184468626976013e-02 -5.163070186972618103e-02 1.464519742876291275e-02 -2.646963112056255341e-03 1.423777826130390167e-02 -5.517474934458732605e-02 9.358525276184082031e-03 1.342950947582721710e-02 -2.227915078401565552e-02 -1.833042502403259277e-02 2.025232836604118347e-02 1.176282949745655060e-02 3.145035356283187866e-02 1.042753737419843674e-02 -2.012530341744422913e-02 5.697867833077907562e-03 1.686545461416244507e-02 -1.991832256317138672e-02 -4.614721611142158508e-02 -3.226108849048614502e-02 -6.328677386045455933e-02 -3.359996899962425232e-02 1.955557800829410553e-02 3.661256283521652222e-02 1.334121171385049820e-02 3.451504558324813843e-02 -2.151737175881862640e-02 -5.282669141888618469e-02 -3.894770517945289612e-02 -3.951056301593780518e-02 -4.959379509091377258e-02 3.073448128998279572e-02 3.108411328867077827e-03 -5.000835284590721130e-02 9.965099394321441650e-03 4.393317177891731262e-02 -4.779675975441932678e-02 -2.591150812804698944e-02 1.567142433486878872e-03 -5.468272604048252106e-03 -1.722301915287971497e-02 -1.019918452948331833e-02 -1.331313978880643845e-02 -4.029532521963119507e-02 -3.968734666705131531e-02 -3.625350445508956909e-02 -5.596604943275451660e-02 -2.390484884381294250e-02 1.911729574203491211e-02 -5.279897898435592651e-02 2.313598059117794037e-02 -1.140150427818298340e-02 1.823181286454200745e-02 -2.259109169244766235e-02 1.822862401604652405e-02 1.967587135732173920e-02 6.381812971085309982e-03 -4.143850877881050110e-03 -9.077584370970726013e-03 -3.753000125288963318e-02 -4.673845320940017700e-02 -1.493514794856309891e-02 9.663951583206653595e-03 -8.721874095499515533e-03 2.103930339217185974e-02 -3.264513611793518066e-02 -3.569176886230707169e-03 -1.421850873157382011e-03 -3.418171778321266174e-02 6.656429730355739594e-03 -3.909033909440040588e-02 -4.271370172500610352e-02 1.416906248778104782e-02 -4.409270361065864563e-02 3.440101072192192078e-02 2.814070694148540497e-02 1.634683459997177124e-02 -2.393537387251853943e-02 -1.072966586798429489e-02 -3.716269135475158691e-02 -5.630985647439956665e-02 1.339075993746519089e-02 -4.080787301063537598e-02 -3.577747195959091187e-02 -1.144331321120262146e-02 -5.606621876358985901e-02 1.155956275761127472e-02 4.453678056597709656e-02 2.813390642404556274e-02 -3.267164528369903564e-02 2.623438602313399315e-03 -4.436548799276351929e-02 8.853683248162269592e-03 4.868330899626016617e-03 -6.962080486118793488e-03 1.898657530546188354e-02 -4.535653442144393921e-02 3.992189839482307434e-02 4.374991985969245434e-04 -1.741340011358261108e-02 1.848180592060089111e-02 -4.589718580245971680e-02 -1.338866353034973145e-02 -3.337227925658226013e-02 -4.010517150163650513e-02 5.564951337873935699e-03 -7.097388152033090591e-03 -3.066221438348293304e-02 1.685682684183120728e-02 -7.288487628102302551e-03 4.029388725757598877e-02 -4.571973904967308044e-02 -3.534632921218872070e-02 -5.028592050075531006e-02 1.786794327199459076e-02 1.819704845547676086e-02 -4.723524209111928940e-03 3.003106266260147095e-02 2.619115076959133148e-02 -3.471188619732856750e-02 -3.008957765996456146e-02 5.815200973302125931e-03 2.430097199976444244e-02 1.909541897475719452e-02 3.282960504293441772e-02 2.784487791359424591e-02 -1.921159029006958008e-02 -6.958053261041641235e-02 -1.246558502316474915e-02 -3.099710680544376373e-02 -6.095648277550935745e-03 -5.600234493613243103e-02 -3.589797765016555786e-02 -5.427336785942316055e-03 -6.242401897907257080e-03 -1.063128095120191574e-02 -2.646245807409286499e-02 -1.549558062106370926e-02 -5.716227367520332336e-02 -2.363634295761585236e-02 -7.054328307276591659e-05 8.749802596867084503e-03 -1.231803931295871735e-02 -8.690496906638145447e-03 2.260305918753147125e-02 -6.451181322336196899e-02 -4.312460869550704956e-02 -5.293847993016242981e-02 -6.101045385003089905e-02 -3.105112724006175995e-02 -1.862652227282524109e-02 -3.511654958128929138e-02 -5.467020720243453979e-02 -2.076082676649093628e-02 -5.497163161635398865e-02 -2.124061994254589081e-02 1.864797994494438171e-02 -4.241612181067466736e-02 -5.887231975793838501e-02 -2.843128889799118042e-02 -7.920636795461177826e-03 9.384520235471427441e-04 -5.949511379003524780e-02 -1.907500997185707092e-02 -4.855490475893020630e-02 5.174094345420598984e-03 2.289477363228797913e-02 3.138992236927151680e-03 -4.248434305191040039e-02 -1.401168946176767349e-02 1.811358518898487091e-02 -2.011133357882499695e-02 -1.932683959603309631e-02 2.377667278051376343e-02 -2.500787936151027679e-02 3.106861002743244171e-02 -1.209323480725288391e-02 -1.619023457169532776e-02 -1.476752199232578278e-02 -1.957085542380809784e-02 -2.500936202704906464e-02 -4.069720581173896790e-02 -1.341523975133895874e-02 -5.339198745787143707e-03 -4.745233058929443359e-02 -3.545592725276947021e-02 -4.151206091046333313e-02 -6.582177430391311646e-02 2.154008857905864716e-02 -2.795736771076917648e-03 -1.565894670784473419e-02 -1.090858504176139832e-02 -5.501192435622215271e-02 7.867318578064441681e-03 -5.690443888306617737e-02 3.357214108109474182e-02 -6.328073143959045410e-02 -4.970521852374076843e-02 -2.502259425818920135e-02 2.515452355146408081e-02 7.781523279845714569e-03 -2.484530210494995117e-03 -3.934520110487937927e-02 -6.155048310756683350e-02 3.073811531066894531e-02 -4.535397887229919434e-02 -5.086809024214744568e-02 7.262143772095441818e-03 -3.749615326523780823e-02 9.559694677591323853e-03 -3.102778457105159760e-02 3.948157653212547302e-02 5.704695358872413635e-03 2.311955206096172333e-02 1.934576779603958130e-02
2.561520226299762726e-02 1.551154162734746933e-02 -2.124421671032905579e-02 -2.461737953126430511e-03 -4.838715493679046631e-02 -3.702432662248611450e-02 -4.616460204124450684e-02 2.463136613368988037e-02 -1.187426131218671799e-02 -2.730046398937702179e-02 -3.209274262189865112e-02 -4.587735608220100403e-02 4.547922872006893158e-03 -5.236722156405448914e-02 -8.123377338051795959e-03 -2.963490784168243408e-02 3.167093498632311821e-03 7.508098613470792770e-03 -2.097352407872676849e-02 -1.924807392060756683e-02 -1.081292890012264252e-02 -4.257167503237724304e-02 2.373007312417030334e-02 1.181566249579191208e-02 -1.095495652407407761e-02 -6.463379412889480591e-02 5.111621227115392685e-03 -4.116776399314403534e-03 -2.225090377032756805e-02 -1.429962087422609329e-02 -1.103316061198711395e-02 -2.446668036282062531e-02 -4.282398615032434464e-03 -5.863418802618980408e-03 -6.204512342810630798e-02 2.705314569175243378e-02 4.102256149053573608e-03 -5.391724407672882080e-02 1.517709530889987946e-02 -2.682019025087356567e-02 -2.036044001579284668e-02 -6.125522404909133911e-02 -4.020638298243284225e-03 -3.462681919336318970e-02 3.205146873369812965e-03 -6.635352224111557007e-02 -3.643751144409179688e-02 -4.737368971109390259e-02 -3.475335985422134399e-02 -2.736680023372173309e-02 -4.028153792023658752e-02 -4.871997237205505371e-02 -6.548352539539337158e-02 2.053339965641498566e-02 -2.399525046348571777e-02 -1.471234112977981567e-02 9.750794619321823120e-03 -4.733142629265785217e-02 -6.509670615196228027e-02 -1.402495242655277252e-02 -6.068155169486999512e-02 -4.797485098242759705e-02 1.117107085883617401e-02 -5.672806128859519958e-02 -6.679094582796096802e-02 -1.963783055543899536e-02 -1.035693194717168808e-02 -4.520352184772491455e-02 -3.403607383370399475e-02 3.603912889957427979e-03 1.326918229460716248e-02 -5.775356292724609375e-02 -1.674148440361022949e-02 -5.117428302764892578e-02 2.200342901051044464e-02 3.221179591491818428e-03 -1.897388836368918419e-03 -5.999574810266494751e-02 -5.872297659516334534e-02 -5.260621756315231323e-02 -3.560413792729377747e-02 1.113581843674182892e-02 -4.965293407440185547e-02 -3.603942319750785828e-02 -1.193444430828094482e-02 -4.810025542974472046e-02 8.830965496599674225e-03 -8.693814743310213089e-04 -3.219824284315109253e-02 -5.558995902538299561e-02 -3.400544449687004089e-02 -5.133833736181259155e-02 -5.348261818289756775e-02 -2.328366972506046295e-02 -2.222823165357112885e-02 2.501004189252853394e-02 -4.947122186422348022e-03 -1.195187494158744812e-02 -1.417749561369419098e-03 -4.608628898859024048e-02 2.620165422558784485e-02 2.984526753425598145e-02 -1.678155176341533661e-02 -2.931135892868041992e-02 -3.721026703715324402e-02 -3.792252019047737122e-02 -2.370200119912624359e-02 -2.782484889030456543e-02 2.509631030261516571e-02 2.039178088307380676e-02 -4.267907235771417618e-03 -4.542575404047966003e-02 3.013002313673496246e-02 -1.406881865113973618e-02 2.132475376129150391e-02 3.665602300316095352e-03 -4.122400190681219101e-03 -3.981027007102966309e-02 -1.478258986026048660e-02 3.311795741319656372e-02 -1.243008393794298172e-02 -3.849698230624198914e-02 2.688041888177394867e-02 1.277565956115722656e-02 3.668654011562466621e-03 -5.684486776590347290e-02 -4.506028071045875549e-02 -4.193350207060575485e-03 1.361627131700515747e-02 8.446488529443740845e-03 -1.079383213073015213e-02 2.462653815746307373e-02 2.516415342688560486e-02 5.031099542975425720e-03 2.545386925339698792e-02 1.146386936306953430e-02 1.079320255666971207e-02 -5.589168146252632141e-02 1.549535803496837616e-02 1.255025807768106461e-02 -3.651427477598190308e-02 -5.928407981991767883e-02 1.079412759281694889e-03 -5.036346614360809326e-02 -3.441261127591133118e-02 -5.573768541216850281e-02 -6.981839239597320557e-02 3.298811614513397217e-02 -4.597674310207366943e-02 1.635276339948177338e-02 -6.422062404453754425e-03 -3.419653326272964478e-02 -4.731625318527221680e-02 3.130622580647468567e-02 -6.122061610221862793e-02 -5.487025529146194458e-02 2.903371490538120270e-02 -2.760691940784454346e-02 -5.710326507687568665e-02 2.945174276828765869e-02 -7.138012908399105072e-03 -1.051212567836046219e-02 -3.727228939533233643e-02 -4.119253903627395630e-02 -3.325614333152770996e-02 -2.776107005774974823e-02 -5.008029565215110779e-02 -5.187832191586494446e-02 9.370167390443384647e-04 -3.364975750446319580e-02 3.049427643418312073e-03 1.356479153037071228e-02 -8.068123832345008850e-03 -3.090167231857776642e-02 2.199638634920120239e-02 4.316170234233140945e-03 -6.421275436878204346e-02 2.898421697318553925e-02 -2.426021173596382141e-02 -3.837612271308898926e-02 -4.496872797608375549e-02 -3.743950650095939636e-02 1.335826981812715530e-02 2.178965508937835693e-02 2.729016356170177460e-03 -4.999963194131851196e-02 -7.592917233705520630e-02 2.021267823874950409e-02 -2.125000581145286560e-02 -9.639876661822199821e-04 4.625032190233469009e-03 9.181300178170204163e-03 -2.338956808671355247e-03 5.392002873122692108e-03 -4.745721234939992428e-04 -3.310858830809593201e-02 1.806497946381568909e-02 -3.361066430807113647e-02 2.841770276427268982e-02 -6.030848249793052673e-02 -4.719657823443412781e-03 3.622241783887147903e-03 -2.431304752826690674e-02 -6.054570525884628296e-02 1.982582919299602509e-02 -1.037289574742317200e-02 -4.908529669046401978e-02 -3.655945882201194763e-02 3.249266371130943298e-02 2.219954878091812134e-02 -4.088336601853370667e-02 3.548048064112663269e-02 -4.069403931498527527e-02 -2.759020403027534485e-02 1.985967345535755157e-02 -5.544215068221092224e-02 -3.209648281335830688e-02 -6.388545036315917969e-02 -7.784501649439334869e-03 -2.999442163854837418e-03 -1.827997341752052307e-02 -4.670913517475128174e-02 1.305560674518346786e-02 -7.139650639146566391e-03 1.876003853976726532e-02 7.602634839713573456e-03 -2.001991495490074158e-03 1.027214713394641876e-02 -3.011661954224109650e-02 1.740694604814052582e-02 -1.891847886145114899e-02 -1.901783794164657593e-02 -5.261300131678581238e-02 1.830739341676235199e-02 -2.741445787250995636e-02 -5.381907895207405090e-02 3.974741324782371521e-03 -1.189904380589723587e-02 -3.075119294226169586e-02 -5.719260871410369873e-02 -6.218511238694190979e-02 3.126563504338264465e-02 1.205830136314034462e-03 -6.226937472820281982e-02 -5.853862315416336060e-02 -2.722315862774848938e-02 -1.832134649157524109e-02 -5.604857951402664185e-02 9.798966348171234131e-04 6.802002433687448502e-03 -5.384862422943115234e-03 -1.782845146954059601e-02 -2.607006765902042389e-02 7.447980460710823536e-04 -2.010897174477577209e-02 1.520064659416675568e-02 -4.283526912331581116e-02 -1.933860592544078827e-02 -4.955705255270004272e-02 -5.863763764500617981e-02 -6.919518858194351196e-02 -1.371289417147636414e-02 -3.778172284364700317e-02 2.132259123027324677e-02 2.420154772698879242e-02 -2.895769663155078888e-02 -6.862545758485794067e-02 -1.021357160061597824e-02 -2.709158137440681458e-02 -6.457941979169845581e-02 2.752427384257316589e-02 1.214592717587947845e-02 -9.429614059627056122e-03 6.603551562875509262e-03 -2.251877821981906891e-02 -3.649123013019561768e-02 -3.088387660682201385e-02 4.558644723147153854e-03 -5.048380047082901001e-02 -1.253048609942197800e-02 1.729383133351802826e-02 -1.745931617915630341e-02 -2.953890524804592133e-02 1.182657666504383087e-02 -5.343143641948699951e-02 2.265356108546257019e-02 -5.416570603847503662e-02 2.626994997262954712e-02 -4.516480118036270142e-02 -5.138111487030982971e-02 -5.182064324617385864e-02 -1.906026713550090790e-02 -4.742063581943511963e-02 -4.275234043598175049e-02 -4.103630036115646362e-02 -2.118944562971591949e-02 2.402314357459545135e-02 -4.386333376169204712e-02 2.785015292465686798e-02 -9.728030301630496979e-03 3.024396114051342010e-02 -4.952695593237876892e-02 1.110662799328565598e-02 5.237010773271322250e-03 -4.369996488094329834e-02 3.301314264535903931e-02 -3.296440839767456055e-02 1.708404719829559326e-02 3.061095997691154480e-02 -3.560143709182739258e-02 -5.294240266084671021e-02 7.181429304182529449e-03 2.568705566227436066e-02 -5.605770274996757507e-02 2.967649884521961212e-02 -3.254413977265357971e-02 -4.226067289710044861e-02 -4.346881061792373657e-02 2.555933222174644470e-02 -1.694269292056560516e-02 1.947048492729663849e-02 3.217566525563597679e-03 -1.659209839999675751e-02 -6.109088286757469177e-02 1.927909441292285919e-02 -2.203220501542091370e-02 3.269558027386665344e-02 -7.564894040115177631e-04 -3.178100660443305969e-02 -5.104571580886840820e-02 -6.490588188171386719e-02 -9.983129566535353661e-04 -8.860147558152675629e-03 -8.919295854866504669e-03 -1.047773472964763641e-02 1.657379791140556335e-02 2.449923008680343628e-02 2.433057129383087158e-02 -1.621442660689353943e-02 -3.040440939366817474e-02 -1.688138954341411591e-02 -5.122970789670944214e-02 1.147096324712038040e-02 1.326490845531225204e-02 -2.161791361868381500e-02 -2.580180577933788300e-02 -6.454256176948547363e-02 -3.392617031931877136e-02 3.215245902538299561e-02 -6.813327223062515259e-02 -7.885168306529521942e-03 -6.015141308307647705e-02 -5.511093884706497192e-02 -3.961413726210594177e-02 -3.081876412034034729e-02 -4.838806390762329102e-02 -4.457133263349533081e-02 6.902134045958518982e-04 -2.543070353567600250e-03 -5.016353912651538849e-03 7.199296727776527405e-03 -4.542972892522811890e-03 -6.313695013523101807e-02 -2.526613324880599976e-02 -3.703945130109786987e-02 2.027915045619010925e-02 -4.452140256762504578e-02 -4.918359592556953430e-02 1.806478947401046753e-02 -4.436450824141502380e-02 2.501758560538291931e-02 -6.265772134065628052e-02 -1.576516032218933105e-02 2.303897589445114136e-02 2.786438912153244019e-03 2.479046769440174103e-02 -3.789712907746434212e-03 -4.974963143467903137e-03 -2.111120894551277161e-02 3.714783815667033195e-04 -4.176171869039535522e-02 -2.069623023271560669e-02 -3.748089447617530823e-02 -4.809499159455299377e-02 -4.337602853775024414e-02 -6.914125382900238037e-02 -4.343182221055030823e-02 2.238008007407188416e-02 -6.440138071775436401e-02 -4.358514025807380676e-02 2.427520230412483215e-02 -9.008456952869892120e-03 -1.048803608864545822e-02 -7.016538083553314209e-02 2.650422044098377228e-02 -6.566143035888671875e-02 -4.436790011823177338e-03 -2.717098221182823181e-02 9.283025749027729034e-03 -4.177705198526382446e-02
8.061347901821136475e-02 7.979778945446014404e-02 4.626734298653900623e-04 2.553181163966655731e-02 3.977594152092933655e-02 -6.233211606740951538e-02 2.047364413738250732e-02 -5.514708161354064941e-02 2.944492734968662262e-02 2.467717975378036499e-02 -1.695509403944015503e-01 -5.865531042218208313e-02 5.855506286025047302e-02 1.952991820871829987e-02 2.026538737118244171e-02 -1.245806962251663208e-01 -2.613896876573562622e-02 5.389707535505294800e-02 -6.642194837331771851e-02 -3.872618451714515686e-02 5.036496743559837341e-02 -6.690861284732818604e-02 8.130061626434326172e-02 -2.574662910774350166e-03 -6.925050169229507446e-02 -1.257247179746627808e-01 4.366010893136262894e-03 -1.489522773772478104e-02 -1.877866499125957489e-02 1.274718251079320908e-02 -6.422378867864608765e-02 -8.331239968538284302e-02 -6.615043152123689651e-03 -2.351070381700992584e-02 2.147830463945865631e-02 -9.000530093908309937e-02 -2.168097905814647675e-02 2.015932835638523102e-02 -4.261677712202072144e-02 4.867324314545840025e-04 1.840556971728801727e-02 -5.173274874687194824e-02 2.511390112340450287e-02 1.005936935544013977e-01 -7.083977758884429932e-02 5.792846530675888062e-02 -7.078566402196884155e-02 5.854186043143272400e-02 -2.422756142914295197e-02 1.482818461954593658e-02 3.328692540526390076e-02 -6.335238367319107056e-02 2.445180527865886688e-02 -1.382783148437738419e-02 -4.009460285305976868e-02 -1.677850261330604553e-02 2.820825029630213976e-04 1.315798517316579819e-02 3.763511078432202339e-03 -4.406819865107536316e-02 -9.787349030375480652e-03 5.039389058947563171e-02 2.067912369966506958e-02 1.355312615633010864e-01 7.561946660280227661e-02 2.841130644083023071e-02 1.283277124166488647e-01 7.104469835758209229e-02 -5.005614366382360458e-04 7.796922326087951660e-02 -4.663871228694915771e-02 9.681049734354019165e-03 4.506833106279373169e-02 -1.893394812941551208e-02 1.509808897972106934e-01 9.559559077024459839e-02 1.443219464272260666e-02 5.201930180191993713e-02 -1.038850378245115280e-02 -7.484141737222671509e-02 4.173986241221427917e-02 7.065021246671676636e-02 -3.673983737826347351e-03 -3.053288720548152924e-02 -7.182006957009434700e-04 8.087792247533798218e-02 -2.761436626315116882e-02 2.478988841176033020e-02 1.573262810707092285e-01 3.052319027483463287e-02 -8.930109441280364990e-03 4.510135203599929810e-02 -1.276705041527748108e-02 1.103847846388816833e-01 2.033345773816108704e-02 -8.688750118017196655e-02 1.006603166460990906e-01 -1.113689914345741272e-01 -4.242669045925140381e-02 -5.407577753067016602e-02 6.114574894309043884e-02 2.822790108621120453e-02 -4.169579595327377319e-02 -2.337073720991611481e-02 3.605247661471366882e-02 -4.254627600312232971e-02 7.584867533296346664e-03 -1.615202985703945160e-02 -4.335182532668113708e-02 -3.340369090437889099e-02 3.733544424176216125e-02 3.996080160140991211e-02 -1.255654729902744293e-02 -9.146714583039283752e-03 -1.412671804428100586e-02 -3.240999206900596619e-02 -1.788193010725080967e-03 -2.715559676289558411e-02 3.618269786238670349e-02 -3.696801140904426575e-02 2.630382589995861053e-02 1.664227806031703949e-02 4.029906913638114929e-02 2.164077712222933769e-03 3.049697726964950562e-02 -1.324286218732595444e-02 1.257672458887100220e-01 2.360591739416122437e-01 1.183382868766784668e-01 3.261973615735769272e-03 6.930891424417495728e-02 1.649840474128723145e-01 1.457565426826477051e-01 3.861164674162864685e-02 -5.379281193017959595e-02 1.160545647144317627e-01 1.101750209927558899e-01 4.165264219045639038e-02 -5.538801848888397217e-02 -3.508835658431053162e-02 5.425340309739112854e-02 7.532186061143875122e-02 -4.723502695560455322e-02 -3.778090327978134155e-02 -3.779558464884757996e-02 -2.697456441819667816e-02 4.366780165582895279e-03 -6.152595207095146179e-02 -6.589075177907943726e-02 1.546194497495889664e-02 1.242938730865716934e-02 -3.552689775824546814e-02 5.551098287105560303e-02 -1.171725243330001831e-01 -1.394734680652618408e-01 -8.200170099735260010e-02 -7.738837599754333496e-02 -6.832154933363199234e-03 -1.386262476444244385e-02 1.816382259130477905e-02 -9.198918193578720093e-02 5.458706617355346680e-02 2.906771562993526459e-02 -8.821806311607360840e-02 -3.771942341700196266e-03 5.032612383365631104e-02 -3.491209819912910461e-02 -3.628302132710814476e-03 1.974615966901183128e-03 -4.120686650276184082e-02 1.050660386681556702e-01 8.269211649894714355e-02 -6.150008365511894226e-02 -1.562643609941005707e-02 2.939236350357532501e-02 4.554681479930877686e-01 1.139232218265533447e-01 -1.271558180451393127e-02 -1.065298542380332947e-02 -3.650229796767234802e-02 1.612209528684616089e-01 -5.003924295306205750e-02 -7.318469882011413574e-02 -1.860249973833560944e-02 -3.205928951501846313e-02 6.698406487703323364e-02 -3.372812643647193909e-02 -1.672232449054718018e-01 2.604362182319164276e-02 -7.689618319272994995e-02 -3.319769725203514099e-02 2.067942917346954346e-02 -1.167484074831008911e-01 1.997215673327445984e-02 -1.479919161647558212e-02 6.803616136312484741e-02 5.508723109960556030e-02 7.508856058120727539e-02 4.983539506793022156e-02 2.284204401075839996e-02 -1.372696310281753540e-01 -2.933419495820999146e-02 1.232003793120384216e-02 3.739263862371444702e-02 2.951847575604915619e-02 -1.567730903625488281e-01 -9.018210321664810181e-02 -2.073036693036556244e-02 5.729214102029800415e-02 -9.226006269454956055e-02 -1.349274963140487671e-01 7.491982076317071915e-03 9.992812760174274445e-03 -5.462407320737838745e-02 -2.554337084293365479e-01 -2.409227192401885986e-02 -2.491733990609645844e-02 3.643124550580978394e-02 7.896963506937026978e-02 1.020183935761451721e-01 -4.770348966121673584e-02 -7.452179677784442902e-03 -9.097778052091598511e-02 5.493164062500000000e-03 6.041951477527618408e-02 -1.890619099140167236e-02 -5.647471174597740173e-02 -1.532090734690427780e-02 2.839907770976424217e-03 -9.270145557820796967e-03 -8.687771856784820557e-02 -6.709640473127365112e-02 -5.382722243666648865e-02 -3.779700770974159241e-02 1.095345430076122284e-02 -1.924164444208145142e-01 -9.575964882969856262e-03 6.054664030671119690e-02 5.108831450343132019e-03 -4.498395696282386780e-02 2.113852649927139282e-02 -8.745928853750228882e-02 3.478237986564636230e-02 1.022400427609682083e-02 -4.299191385507583618e-02 5.825157836079597473e-02 1.054601296782493591e-01 1.162781659513711929e-02 1.481465846300125122e-01 1.276517212390899658e-01 -4.983015730977058411e-02 4.821937158703804016e-02 6.285545229911804199e-02 2.378338761627674103e-02 1.165455766022205353e-02 1.328629851341247559e-01 -1.783219864591956139e-03 -3.591293096542358398e-02 1.796678407117724419e-03 3.521826863288879395e-02 -1.289017219096422195e-02 -1.994265057146549225e-02 3.961908165365457535e-03 9.072623401880264282e-02 3.640906885266304016e-02 3.043476939201354980e-01 -1.893637701869010925e-03 -6.456670165061950684e-02 1.107139885425567627e-01 -5.623793974518775940e-02 1.952798813581466675e-01 1.716515980660915375e-02 -2.701242826879024506e-02 1.154113337397575378e-01 4.915870353579521179e-02 -9.804929792881011963e-02 1.945997215807437897e-02 2.684807218611240387e-02 -5.833791196346282959e-02 -4.295294359326362610e-02 -2.740116603672504425e-02 1.261825673282146454e-02 1.627047210931777954e-01 6.369032710790634155e-02 -3.775139898061752319e-02 7.140719890594482422e-02 3.642476722598075867e-02 6.015505641698837280e-02 6.478279829025268555e-02 7.189024705439805984e-03 1.463405489921569824e-01 5.902165919542312622e-02 6.882072985172271729e-02 3.749764338135719299e-02 1.777183637022972107e-02 2.814075946807861328e-01 1.621769815683364868e-01 9.940979629755020142e-02 -1.592946797609329224e-01 -4.371666535735130310e-02 8.445314317941665649e-02 1.931385099887847900e-01 1.448890715837478638e-01 6.635210663080215454e-02 -3.597642108798027039e-02 2.263488993048667908e-02 4.847954958677291870e-02 8.151926845312118530e-02 1.145568862557411194e-01 1.211116649210453033e-02 2.365169301629066467e-02 4.713368788361549377e-02 1.206279844045639038e-01 3.422377258539199829e-02 -9.786068648099899292e-02 -2.051272056996822357e-02 5.147147178649902344e-02 1.020654216408729553e-01 -1.069708392024040222e-01 -8.724749088287353516e-02 -3.523358842357993126e-03 -6.182536948472261429e-03 6.146324798464775085e-03 2.435065805912017822e-02 -5.381245911121368408e-02 1.100802570581436157e-01 1.166465133428573608e-01 9.370970726013183594e-02 4.604794550687074661e-03 3.346774354577064514e-02 1.914658397436141968e-02 -2.857294864952564240e-02 6.012856587767601013e-02 5.313559621572494507e-02 5.577345192432403564e-02 4.256389569491147995e-03 1.460066065192222595e-02 -4.772775992751121521e-02 -3.086072951555252075e-02 4.048851132392883301e-02 -7.602918148040771484e-02 -2.574752643704414368e-02 3.468970581889152527e-02 -9.024864993989467621e-03 -6.519760936498641968e-02 1.574735529720783234e-02 -2.108656987547874451e-02 6.172309443354606628e-02 -1.492633391171693802e-02 -7.967539876699447632e-02 -4.094996675848960876e-02 -7.006982713937759399e-02 -3.939774259924888611e-02 -4.509464371949434280e-03 1.601568423211574554e-02 -8.144675940275192261e-02 -4.783898591995239258e-02 -1.255945954471826553e-02 -2.894431725144386292e-02 -7.374685257673263550e-03 -4.038987681269645691e-02 -1.769838668406009674e-02 -2.264540642499923706e-02 -2.496346645057201385e-02 -2.358041005209088326e-03 -2.442478202283382416e-02 -5.249054729938507080e-02 1.388091873377561569e-02 8.398514240980148315e-02 3.499098494648933411e-02 4.537261649966239929e-02 -2.903260663151741028e-02 2.776032872498035431e-02 1.659025810658931732e-02 2.255302667617797852e-02 -5.338723212480545044e-02 -6.877533346414566040e-02 5.591126903891563416e-02 6.026231870055198669e-02 2.445900440216064453e-02 -1.884452300146222115e-03 -3.624455258250236511e-02 -1.789064519107341766e-02 5.870989989489316940e-03 -6.079820916056632996e-02 -5.940977483987808228e-02 -1.026488188654184341e-02 2.122115343809127808e-02 -1.549270655959844589e-02 -2.391611598432064056e-02 8.955878019332885742e-02 5.688294023275375366e-02 -5.896848440170288086e-02 5.396636202931404114e-02 1.978933624923229218e-02 4.560478776693344116e-02 5.888062715530395508e-02 1.215219404548406601e-02 6.773737818002700806e-02 7.127162069082260132e-02
6.351636257022619247e-03 1.411211024969816208e-02 -7.885240763425827026e-02 -4.632228054106235504e-03 5.365856364369392395e-02 1.096072494983673096e-01 5.637490376830101013e-02 -3.701329603791236877e-02 -2.703509991988539696e-03 -5.243192240595817566e-02 4.353065788745880127e-02 4.495119675993919373e-02 -6.583151966333389282e-02 -3.171619027853012085e-03 -1.353458780795335770e-02 -1.382786333560943604e-01 -5.768672376871109009e-02 -9.473740309476852417e-02 5.681997910141944885e-02 -5.829163268208503723e-02 -7.291177660226821899e-02 4.742119088768959045e-02 7.635276298969984055e-03 -6.546558439731597900e-02 4.105640202760696411e-02 1.465860307216644287e-01 5.822976306080818176e-02 -3.505549952387809753e-02 -1.697156578302383423e-01 8.470849692821502686e-02 3.033300302922725677e-02 6.959070265293121338e-02 3.465023264288902283e-02 3.314189380034804344e-03 8.526873588562011719e-02 -3.624898567795753479e-02 -1.200154796242713928e-02 -1.656150072813034058e-02 1.721823588013648987e-02 -3.364861384034156799e-02 -1.158145591616630554e-01 1.753624156117439270e-02 -1.336869001388549805e-01 -8.956601470708847046e-02 4.223104100674390793e-03 -1.480058431625366211e-01 -1.098460033535957336e-01 2.018078789114952087e-02 3.488119319081306458e-02 -2.382859215140342712e-02 6.147510185837745667e-02 3.034732118248939514e-02 -5.150623619556427002e-02 2.234444953501224518e-03 3.148569911718368530e-02 -1.191957946866750717e-02 4.535018280148506165e-02 1.260772198438644409e-01 1.004353687167167664e-01 1.155009940266609192e-01 -1.777556724846363068e-02 1.101293973624706268e-02 1.305249612778425217e-02 2.078760601580142975e-02 -4.860191047191619873e-02 1.026592403650283813e-02 4.482607543468475342e-02 1.830864138901233673e-02 7.028730586171150208e-03 -4.668736830353736877e-02 -1.399408727884292603e-01 -1.566871255636215210e-01 -2.455028891563415527e-02 -4.768204316496849060e-02 1.821199059486389160e-01 3.553902357816696167e-02 7.434471696615219116e-02 -5.835219752043485641e-03 6.983065605163574219e-02 1.621943339705467224e-02 -1.208886355161666870e-01 8.071469515562057495e-02 3.250340744853019714e-02 6.575788557529449463e-02 -7.973128929734230042e-03 -1.115342155098915100e-01 7.176946382969617844e-03 3.946828842163085938e-02 -2.326871268451213837e-02 -4.736486822366714478e-02 5.085493251681327820e-02 6.965379416942596436e-02 1.979164592921733856e-02 1.188017576932907104e-01 -4.374801740050315857e-02 8.516134321689605713e-02 -7.058805972337722778e-02 1.970862746238708496e-01 3.107080468907952309e-03 -5.982602760195732117e-02 9.836379438638687134e-03 -2.683557942509651184e-02 5.743884295225143433e-02 -1.728275977075099945e-02 2.850415743887424469e-02 1.127893198281526566e-02 3.180954977869987488e-02 -2.702968195080757141e-02 1.649727858603000641e-02 -4.425690695643424988e-02 -1.028838451020419598e-03 -3.849125001579523087e-03 4.622181132435798645e-02 1.801106333732604980e-02 -3.003805875778198242e-02 4.525050893425941467e-02 1.838710345327854156e-02 3.120480850338935852e-02 -6.434691138565540314e-03 -2.675929106771945953e-02 1.088508404791355133e-02 4.234639555215835571e-02 -1.638561487197875977e-02 -2.734431065618991852e-02 3.166979178786277771e-02 -9.962327778339385986e-02 -2.564742928370833397e-03 8.077782392501831055e-02 5.973398685455322266e-03 1.326523721218109131e-01 -1.347326934337615967e-01 7.990989834070205688e-02 9.846259839832782745e-03 8.701571822166442871e-02 1.294728964567184448e-01 1.848599500954151154e-02 2.039014101028442383e-01 1.534880101680755615e-01 -1.337423361837863922e-02 1.605670452117919922e-01 1.325328648090362549e-01 7.923409342765808105e-02 -3.898655623197555542e-02 -5.195948854088783264e-02 1.328372210264205933e-02 -1.737407222390174866e-02 -8.929374814033508301e-02 -1.037675663828849792e-01 -9.290304034948348999e-02 -3.153944015502929688e-02 2.781809307634830475e-02 2.089868672192096710e-02 5.815526470541954041e-02 1.582393795251846313e-02 6.485398858785629272e-02 2.509874850511550903e-02 1.524110734462738037e-01 -7.783760875463485718e-02 -9.041183441877365112e-02 -4.852644726634025574e-02 -7.524953782558441162e-02 7.684679329395294189e-02 -3.141811117529869080e-02 2.295914664864540100e-02 -3.886865824460983276e-02 -5.987310409545898438e-02 9.862568974494934082e-02 -1.020956188440322876e-01 -7.368773221969604492e-02 -1.084173098206520081e-02 -5.077452212572097778e-02 -6.505514029413461685e-03 5.120764672756195068e-02 2.726087719202041626e-02 -1.983389444649219513e-02 -3.206754028797149658e-01 2.551177442073822021e-01 1.874796152114868164e-01 -9.892062097787857056e-02 -5.273051559925079346e-02 -4.930328577756881714e-02 -1.035049110651016235e-01 1.307353973388671875e-01 4.412759840488433838e-02 -6.092324107885360718e-02 1.945879906415939331e-01 -5.535567179322242737e-03 -6.842372566461563110e-02 7.000134140253067017e-02 1.462462358176708221e-02 5.224442109465599060e-02 -2.361846417188644409e-01 -6.180879846215248108e-02 1.021232828497886658e-02 -7.830140739679336548e-02 -1.731902733445167542e-02 -6.633126735687255859e-02 -8.617877960205078125e-02 -3.898708894848823547e-02 -5.881564691662788391e-03 1.387200206518173218e-01 -9.448709338903427124e-02 -2.240748107433319092e-01 -3.267024755477905273e-01 2.366315014660358429e-02 6.823248416185379028e-02 2.011947892606258392e-02 -1.042257249355316162e-01 -2.337751537561416626e-01 -1.421411037445068359e-01 3.593359515070915222e-02 5.112124234437942505e-02 2.007860131561756134e-02 7.091241329908370972e-02 1.391813755035400391e-01 -4.980694875121116638e-02 -2.299223467707633972e-02 -3.084303997457027435e-02 -4.821667447686195374e-02 -4.033182188868522644e-02 -7.579591125249862671e-02 1.953278481960296631e-02 5.830254871398210526e-03 -1.033872812986373901e-01 4.207187891006469727e-02 8.060321211814880371e-03 5.196035373955965042e-03 -9.088395535945892334e-02 -1.559073626995086670e-01 -1.008759662508964539e-01 9.608611464500427246e-02 1.259247772395610809e-03 -1.975713111460208893e-02 -1.083040907979011536e-01 -8.023419976234436035e-02 -4.524775221943855286e-02 5.613967403769493103e-02 -6.209183111786842346e-02 -5.415168032050132751e-02 -3.479804471135139465e-02 -1.230517923831939697e-01 -1.730183698236942291e-02 -2.723645418882369995e-02 -1.034951880574226379e-01 -2.209509536623954773e-02 -4.960428457707166672e-03 -3.632465377449989319e-02 1.494293473660945892e-02 3.530959784984588623e-02 1.305337995290756226e-01 2.665896527469158173e-02 -8.764314651489257812e-02 8.652640506625175476e-03 -4.853016510605812073e-02 2.445663791149854660e-03 -6.655731052160263062e-02 1.434481143951416016e-01 1.285018175840377808e-01 -3.880110383033752441e-02 -8.857665583491325378e-03 -1.475636065006256104e-01 2.695121988654136658e-02 1.986774951219558716e-01 -1.218744590878486633e-01 -2.119683194905519485e-03 1.556163877248764038e-01 -6.758918613195419312e-02 -3.530473913997411728e-03 -1.050216844305396080e-03 1.386788953095674515e-02 6.592837721109390259e-02 -3.821947053074836731e-02 -1.481648534536361694e-02 1.652849465608596802e-01 -1.307052969932556152e-01 1.731102541089057922e-02 2.075373753905296326e-02 1.729061082005500793e-02 1.936986111104488373e-02 1.286357194185256958e-01 -1.012433022260665894e-01 7.051649689674377441e-02 5.718931928277015686e-02 -1.644342951476573944e-02 1.169940754771232605e-01 -1.190073639154434204e-01 -3.091142773628234863e-01 -7.335571944713592529e-02 1.463356241583824158e-02 -7.921184413135051727e-03 1.232225596904754639e-01 4.898760095238685608e-02 2.184301242232322693e-02 -4.151110723614692688e-02 1.439184881746768951e-02 9.301334619522094727e-02 7.495242357254028320e-02 -1.370794177055358887e-01 8.023631572723388672e-02 -3.462873771786689758e-02 -1.055539920926094055e-01 4.861626401543617249e-02 6.920261681079864502e-02 2.914875149726867676e-01 2.858071029186248779e-01 -4.244104959070682526e-03 -6.370800733566284180e-02 -6.811159849166870117e-02 7.013774663209915161e-02 2.232130467891693115e-01 5.916514247655868530e-02 1.296144872903823853e-01 5.836647003889083862e-02 1.078447028994560242e-01 7.336965203285217285e-02 3.935886174440383911e-02 3.839480504393577576e-02 6.284227967262268066e-02 -1.683136634528636932e-02 -8.933120965957641602e-02 -3.112746030092239380e-02 -7.095358520746231079e-02 -6.224364414811134338e-02 -1.400898545980453491e-01 -1.741851866245269775e-02 -1.002898812294006348e-01 6.014099717140197754e-02 -4.333439469337463379e-02 -6.383915245532989502e-02 2.899630926549434662e-02 1.060395464301109314e-01 9.434191137552261353e-02 -7.516923546791076660e-02 4.114929586648941040e-02 -4.856717586517333984e-02 1.618038266897201538e-01 1.618476808071136475e-01 -1.014652699232101440e-01 -4.710037261247634888e-02 -4.687302559614181519e-02 -9.937219321727752686e-02 -1.315018832683563232e-01 -1.729672998189926147e-01 3.200127556920051575e-02 -9.286881238222122192e-02 -1.092696189880371094e-01 -4.076591506600379944e-02 1.951030828058719635e-02 -2.332869358360767365e-02 -4.927034303545951843e-02 3.704021871089935303e-02 2.918342873454093933e-02 -6.180757284164428711e-02 -1.013023257255554199e-01 -7.878618687391281128e-02 1.347113102674484253e-01 1.170387044548988342e-01 -5.065131932497024536e-02 -4.652665555477142334e-02 -7.660860661417245865e-03 1.939946599304676056e-02 2.427172102034091949e-02 -1.194265484809875488e-02 -1.323307026177644730e-02 -4.640768468379974365e-02 -1.148173138499259949e-01 -1.564531587064266205e-02 -7.500047236680984497e-02 -3.521733358502388000e-02 -5.623291805386543274e-02 -1.715618222951889038e-01 -3.551897779107093811e-02 -9.472541511058807373e-03 -1.537616923451423645e-02 4.259866476058959961e-02 1.456343531608581543e-01 -4.540612921118736267e-02 -8.002062141895294189e-02 -1.154785677790641785e-01 9.325094521045684814e-03 3.986765816807746887e-02 9.046107530593872070e-02 4.296618327498435974e-02 2.946815639734268188e-02 5.945948511362075806e-02 -1.071380749344825745e-01 9.140123426914215088e-02 -1.336475834250450134e-02 -1.630461961030960083e-02 -9.836927987635135651e-03 -5.425221845507621765e-02 -5.023041367530822754e-02 2.122964896261692047e-02 -2.317854389548301697e-02 -1.098796129226684570e-01 -5.405754595994949341e-02 -1.104271784424781799e-02 -6.586343050003051758e-02 -9.932314604520797729e-02 9.139315783977508545e-02
2.219678759574890137e-01 6.868798285722732544e-02 6.482920795679092407e-02 5.789911746978759766e-02 -2.151105366647243500e-02 -5.677607655525207520e-02 3.198519721627235413e-02 -3.194341063499450684e-02 9.921713732182979584e-03 5.274640768766403198e-02 7.763367146253585815e-02 -6.166937947273254395e-02 1.285127550363540649e-01 3.055877611041069031e-02 2.108815759420394897e-01 -4.762130230665206909e-02 1.040303558111190796e-01 2.526644989848136902e-02 -1.519820988178253174e-01 -3.680630773305892944e-02 4.291476681828498840e-02 1.179116666316986084e-01 -4.938821122050285339e-02 7.546827197074890137e-02 -5.520470440387725830e-04 -1.994149573147296906e-02 -7.096050679683685303e-02 -9.340217709541320801e-02 -2.873821370303630829e-02 9.194497764110565186e-02 -4.271470010280609131e-02 1.142445951700210571e-01 1.453005373477935791e-01 -5.796032398939132690e-02 -3.260476142168045044e-02 6.283108890056610107e-02 5.934357643127441406e-02 2.152772620320320129e-03 -1.354931574314832687e-02 -1.981927007436752319e-01 6.977974623441696167e-02 -2.144319564104080200e-02 2.963779494166374207e-02 6.396434456110000610e-02 3.960883244872093201e-02 -1.210111156105995178e-01 1.667094528675079346e-01 1.709759533405303955e-01 1.121935471892356873e-01 -2.083983272314071655e-02 -1.462501585483551025e-01 -8.271434158086776733e-02 -1.080656647682189941e-01 -6.059888377785682678e-02 -3.345519304275512695e-02 -4.213704727590084076e-03 6.937623769044876099e-02 9.809767827391624451e-03 1.119773611426353455e-01 9.318944811820983887e-02 -2.683318220078945160e-02 2.149706892669200897e-02 -2.123882807791233063e-02 2.858040854334831238e-02 -3.682511299848556519e-02 -1.078334748744964600e-01 6.275850534439086914e-02 -7.965072244405746460e-02 -4.008057340979576111e-02 1.763208955526351929e-01 8.078764379024505615e-02 5.864276364445686340e-02 -6.594770401716232300e-02 -7.161750458180904388e-03 -2.175840437412261963e-01 3.671122714877128601e-02 -1.304962951689958572e-02 1.686208397150039673e-01 6.117055565118789673e-02 6.347665190696716309e-02 -1.681591421365737915e-01 -5.731435492634773254e-02 1.238931864500045776e-01 1.108921021223068237e-01 6.754232943058013916e-02 6.054459512233734131e-02 -2.674480527639389038e-02 -5.555122718214988708e-02 1.134333163499832153e-01 1.136002913117408752e-01 -1.454530805349349976e-01 -9.838408976793289185e-02 9.405144304037094116e-02 8.925132453441619873e-02 1.739434897899627686e-01 -1.748629212379455566e-01 -4.378151297569274902e-01 -1.033008098602294922e-01 6.492190808057785034e-02 5.651338957250118256e-03 2.480877377092838287e-02 -1.009987387806177139e-02 3.214512392878532410e-02 -3.567272052168846130e-02 3.536492586135864258e-02 5.433505401015281677e-02 -4.740948788821697235e-03 4.975828155875205994e-02 -2.154933847486972809e-02 -2.603751420974731445e-02 -2.562159858644008636e-02 -4.979049041867256165e-02 3.987770900130271912e-02 2.925155870616436005e-02 1.666459441184997559e-02 1.306067313998937607e-02 -4.228749498724937439e-02 -4.584195092320442200e-02 -1.871480979025363922e-02 -4.047692939639091492e-02 -2.429581061005592346e-02 -1.899272762238979340e-02 1.116138766519725323e-03 -1.296237763017416000e-02 2.109641954302787781e-02 -4.839851520955562592e-03 -4.530207440257072449e-02 -1.527101965621113777e-03 4.116129130125045776e-03 1.487094461917877197e-01 -6.233408302068710327e-02 -6.257003545761108398e-02 1.763552986085414886e-02 1.112919533625245094e-03 7.075362652540206909e-02 6.196920946240425110e-02 -1.048438325524330139e-01 2.602258697152137756e-02 6.300780922174453735e-02 1.929811388254165649e-02 -1.474741846323013306e-01 -2.155648916959762573e-01 4.457907006144523621e-02 3.855294361710548401e-02 -1.562825962901115417e-02 -9.166856110095977783e-02 -3.467227146029472351e-02 6.702939420938491821e-02 2.016099356114864349e-02 8.939836919307708740e-02 -2.183928340673446655e-01 2.971582859754562378e-02 -4.959738999605178833e-02 1.349052935838699341e-01 9.093628264963626862e-03 -7.476770132780075073e-02 4.222356900572776794e-02 1.388979554176330566e-01 -1.003545895218849182e-02 -7.348509132862091064e-02 -5.012236163020133972e-02 1.140261068940162659e-01 7.739915698766708374e-02 -3.679220750927925110e-02 -2.317947447299957275e-01 -9.194150567054748535e-02 -1.875134184956550598e-02 6.949760019779205322e-02 -2.942564897239208221e-02 5.212131515145301819e-02 -2.302759140729904175e-01 6.376385688781738281e-02 2.425304353237152100e-01 -6.769170612096786499e-02 -1.276851892471313477e-01 -9.465532749891281128e-02 3.102727048099040985e-02 2.087519317865371704e-02 1.023740740492939949e-03 2.282591722905635834e-02 -7.748259603977203369e-02 3.846139588858932257e-04 -4.159178212285041809e-02 1.126576885581016541e-01 -1.017109081149101257e-01 -2.427799440920352936e-02 -2.163954675197601318e-01 1.863158792257308960e-01 6.320192664861679077e-02 7.802473753690719604e-02 -9.442021697759628296e-02 -1.752000600099563599e-01 -6.969992816448211670e-02 -3.638084977865219116e-02 -6.133008375763893127e-02 2.913214638829231262e-02 -1.218147575855255127e-02 8.987184613943099976e-02 7.342229783535003662e-02 4.036086797714233398e-02 8.964718878269195557e-02 9.238229691982269287e-02 1.490572467446327209e-02 -1.309526860713958740e-01 -2.854737639427185059e-01 2.450841665267944336e-02 3.270683065056800842e-02 1.236752327531576157e-02 -2.124138772487640381e-01 -8.387854322791099548e-03 1.980551704764366150e-02 8.884330838918685913e-02 8.579471148550510406e-03 -2.132216542959213257e-01 -4.503209888935089111e-02 5.870698019862174988e-02 1.085414662957191467e-01 3.457209467887878418e-02 -1.458784639835357666e-01 -4.493403807282447815e-02 -2.036713762208819389e-03 9.137003123760223389e-02 9.120036661624908447e-02 3.730226680636405945e-02 -3.164328262209892273e-02 -1.290983334183692932e-02 7.351971417665481567e-02 -2.127637527883052826e-02 -3.125339373946189880e-02 -3.302496671676635742e-02 1.096394211053848267e-01 -3.108909819275140762e-03 7.234448194503784180e-02 -5.410320311784744263e-02 6.702658534049987793e-02 2.283116057515144348e-02 7.564635574817657471e-02 4.814384505152702332e-02 -5.780060216784477234e-02 -1.955445297062397003e-02 1.070416718721389771e-01 6.964238733053207397e-02 1.360412780195474625e-02 4.467369243502616882e-02 -7.980755716562271118e-02 -1.637893617153167725e-01 -2.512348070740699768e-02 -2.246138267219066620e-02 7.951814681291580200e-02 -4.021751135587692261e-02 -1.196256279945373535e-02 -5.886212736368179321e-02 -4.869466181844472885e-03 2.083142101764678955e-02 1.973297595977783203e-01 -1.388809680938720703e-01 -1.962660625576972961e-02 1.480930596590042114e-01 7.142795715481042862e-03 8.895563893020153046e-03 -1.816667988896369934e-02 4.793877899646759033e-02 -1.625500060617923737e-02 -2.651972137391567230e-02 -1.128566712141036987e-01 1.176123972982168198e-02 -5.939013510942459106e-02 2.295452356338500977e-02 4.268607497215270996e-02 -4.009998403489589691e-03 -2.291437536478042603e-01 -2.912367284297943115e-01 2.027693763375282288e-02 -1.608273200690746307e-02 1.102708131074905396e-01 -3.745258599519729614e-02 -2.680074796080589294e-02 -5.793274194002151489e-02 1.674121022224426270e-01 1.911471486091613770e-01 -5.406812578439712524e-02 -1.036095619201660156e-01 1.344336569309234619e-01 1.362881511449813843e-01 -3.776138648390769958e-02 -1.532360166311264038e-01 1.176324039697647095e-01 7.953351736068725586e-02 -1.374038308858871460e-01 1.255792528390884399e-01 4.163726046681404114e-02 -1.549360603094100952e-01 -8.485656231641769409e-02 1.074583455920219421e-01 1.946129277348518372e-02 -1.296305060386657715e-01 -2.679670155048370361e-01 -1.296362578868865967e-01 -8.252195268869400024e-02 7.998539507389068604e-02 3.986426815390586853e-02 -4.441839084029197693e-02 4.179542139172554016e-02 1.976043581962585449e-01 2.234193980693817139e-01 -8.060463704168796539e-03 9.629257954657077789e-03 -1.018764600157737732e-01 -1.321133691817522049e-02 1.740451306104660034e-01 2.559644170105457306e-02 -2.647801302373409271e-02 -8.022573590278625488e-02 1.713286526501178741e-02 2.958852648735046387e-01 -2.325135841965675354e-02 -6.134154647588729858e-02 -2.214225381612777710e-02 4.644385725259780884e-02 6.337492167949676514e-02 3.089968301355838776e-02 5.524256080389022827e-02 7.518687052652239799e-04 3.383825346827507019e-02 -2.452875114977359772e-02 -6.087014824151992798e-02 1.580660976469516754e-02 -7.020156830549240112e-03 -4.211746528744697571e-02 -2.056959643959999084e-02 -2.770423423498868942e-03 5.633467063307762146e-02 5.015658214688301086e-02 -3.222676739096641541e-02 2.761632949113845825e-02 -3.294562175869941711e-02 -1.135290712118148804e-01 9.388229809701442719e-03 -1.480829995125532150e-02 4.686003178358078003e-02 -1.838979274034500122e-01 -6.159643456339836121e-02 8.075752854347229004e-02 -1.221681013703346252e-01 -1.092349067330360413e-01 8.408060669898986816e-02 1.628992110490798950e-01 6.172935664653778076e-02 -7.429971825331449509e-03 6.487022340297698975e-02 -3.474276140332221985e-02 -4.436596855521202087e-02 -2.641778253018856049e-02 -1.292616724967956543e-01 -2.120875008404254913e-02 -2.405162155628204346e-02 -5.142938345670700073e-02 -2.246262878179550171e-02 -1.051248833537101746e-01 -7.659829221665859222e-03 -6.315500289201736450e-02 2.708270680159330368e-03 -4.470012709498405457e-02 2.281062677502632141e-02 -6.165492534637451172e-02 1.640773378312587738e-02 2.577733993530273438e-02 8.198689669370651245e-02 -2.392992004752159119e-02 -1.059309989213943481e-01 7.661868352442979813e-03 9.647642821073532104e-02 -1.795516232959926128e-03 1.585156843066215515e-02 1.754331588745117188e-02 -9.929881431162357330e-03 -7.346887141466140747e-02 -3.032986447215080261e-02 -8.914697915315628052e-02 -1.237290166318416595e-02 1.754200085997581482e-02 -5.177574232220649719e-02 -5.107056722044944763e-02 -7.677745074033737183e-02 8.846650272607803345e-02 -5.272893607616424561e-02 -1.574434153735637665e-02 4.329764470458030701e-02 4.023794457316398621e-02 -5.038508772850036621e-02 1.649810820817947388e-01 6.469941139221191406e-02 -4.054745286703109741e-02 1.548069342970848083e-02 -1.455563120543956757e-02 -1.573749035596847534e-01 -2.369514703750610352e-01 -2.652296796441078186e-02 8.194448053836822510e-02 1.148301661014556885e-01
5.489678308367729187e-02 -3.036096505820751190e-02 -9.637112170457839966e-02 4.505401104688644409e-02 3.964318707585334778e-02 -6.290271878242492676e-02 -3.416840359568595886e-02 -4.587558098137378693e-03 -1.742642186582088470e-02 4.449032712727785110e-03 -5.673167482018470764e-02 3.350415825843811035e-02 -6.276533240452408791e-04 3.478110209107398987e-02 -1.071203587343916297e-04 1.179491877555847168e-01 9.400448948144912720e-02 -1.212678267620503902e-03 -4.443515092134475708e-02 3.449543565511703491e-02 6.107505783438682556e-02 1.176169291138648987e-01 -5.964859202504158020e-02 4.527323693037033081e-02 -2.618177793920040131e-02 -7.846084423363208771e-03 5.047122389078140259e-02 -6.768151652067899704e-03 -9.452029317617416382e-02 -5.174047499895095825e-02 -5.026666447520256042e-02 1.499746292829513550e-01 2.138772979378700256e-02 -3.604945912957191467e-02 -7.434164732694625854e-02 9.394772350788116455e-02 1.453957855701446533e-01 1.212334781885147095e-01 -7.690147962421178818e-03 3.329879418015480042e-02 -7.012972980737686157e-02 -9.443569183349609375e-02 6.133989896625280380e-03 4.651200398802757263e-02 1.731324382126331329e-02 -1.015171110630035400e-01 1.347823590040206909e-01 5.091742798686027527e-02 5.896876007318496704e-02 -1.467985194176435471e-02 -9.093710780143737793e-02 -1.301826257258653641e-02 -2.479327470064163208e-02 1.933282427489757538e-02 1.379252132028341293e-02 5.665859580039978027e-02 1.795722395181655884e-01 9.550470113754272461e-02 -1.906525139929726720e-04 4.426432028412818909e-02 4.367270320653915405e-02 -7.216006517410278320e-03 6.176956743001937866e-02 1.798873543739318848e-01 5.524567514657974243e-02 -3.441091626882553101e-02 9.780806489288806915e-03 -1.421845704317092896e-01 -8.111274242401123047e-02 8.082383871078491211e-02 3.959225490689277649e-03 6.944043189287185669e-02 -6.643080711364746094e-02 -7.909706979990005493e-02 4.053544625639915466e-02 -5.685736984014511108e-02 -1.813599914312362671e-01 -7.756131142377853394e-02 -1.975148217752575874e-03 1.066260784864425659e-02 -6.431557238101959229e-02 -8.463107980787754059e-03 7.865267805755138397e-03 1.087785437703132629e-01 -4.481838271021842957e-02 -1.131523624062538147e-01 -2.221738994121551514e-01 8.691584318876266479e-02 2.379058450460433960e-01 5.026801303029060364e-02 -2.086050109937787056e-03 9.615756571292877197e-02 1.051041781902313232e-01 6.690774112939834595e-03 2.403216250240802765e-02 -2.051001489162445068e-01 -1.839781850576400757e-01 -5.564734339714050293e-02 2.899590507149696350e-02 -2.609542571008205414e-02 7.831641472876071930e-03 5.471675097942352295e-02 -3.237736970186233521e-02 -4.080793261528015137e-02 -3.226221352815628052e-02 5.109419580549001694e-03 5.301603116095066071e-03 -1.929554343223571777e-02 8.853966370224952698e-03 -2.175670862197875977e-02 3.259415179491043091e-02 1.219741161912679672e-02 4.170792922377586365e-02 4.330651089549064636e-02 4.355607554316520691e-02 -7.826765999197959900e-03 -4.305839684093371034e-05 -1.805015280842781067e-02 1.748138666152954102e-02 -3.082525171339511871e-02 -1.278682518750429153e-02 4.501304030418395996e-02 4.595234617590904236e-02 4.122732952237129211e-02 -2.330356463789939880e-02 -1.458124518394470215e-01 -6.010705255903303623e-04 -9.630917757749557495e-02 -2.595006301999092102e-02 7.491992786526679993e-03 -3.631556034088134766e-02 4.400873929262161255e-02 7.689379900693893433e-02 8.524908125400543213e-02 1.434156000614166260e-01 -8.246642351150512695e-02 4.818947613239288330e-02 1.918282508850097656e-01 6.624168902635574341e-02 1.615589708089828491e-01 -1.809911876916885376e-01 -6.939041614532470703e-02 1.527822315692901611e-01 1.408517658710479736e-01 3.264398127794265747e-02 -1.466437578201293945e-01 6.456543225795030594e-03 6.395852565765380859e-02 4.893438890576362610e-03 1.237645223736763000e-01 -2.245445400476455688e-01 6.221637129783630371e-02 1.316858176141977310e-02 -1.686333864927291870e-02 -1.024593133479356766e-02 -2.661627717316150665e-02 9.473960101604461670e-02 1.172652840614318848e-01 -3.995021805167198181e-02 -1.791955977678298950e-01 5.160701274871826172e-02 7.570679485797882080e-02 5.068236216902732849e-02 -2.444147616624832153e-01 -1.471246927976608276e-01 -9.071121364831924438e-02 7.477668672800064087e-02 7.302921265363693237e-02 1.003810763359069824e-01 -4.808107018470764160e-02 -2.930425852537155151e-02 1.620266288518905640e-01 4.190415516495704651e-02 8.581584319472312927e-03 -1.375598460435867310e-01 -6.037552654743194580e-02 -1.101378630846738815e-02 -6.364190578460693359e-02 -6.162209436297416687e-02 8.201666059903800488e-04 -8.527942746877670288e-02 -2.631024420261383057e-01 -5.328618455678224564e-03 6.855994462966918945e-02 -1.088982671499252319e-01 9.417738765478134155e-02 6.250093877315521240e-02 2.137182652950286865e-01 1.611257158219814301e-02 -1.230323240160942078e-01 -1.952398195862770081e-02 -3.541563078761100769e-02 1.887788437306880951e-02 -3.638192266225814819e-02 -2.324753906577825546e-03 1.288855075836181641e-02 -5.220364779233932495e-02 9.866092354059219360e-03 -3.811230883002281189e-02 -3.373495861887931824e-02 8.624187856912612915e-02 4.082322865724563599e-02 5.889096646569669247e-04 -3.618991971015930176e-01 -1.064695864915847778e-01 -9.098945185542106628e-03 7.389438897371292114e-02 -1.218672692775726318e-01 -1.810795664787292480e-01 -1.919550895690917969e-01 4.236055910587310791e-02 1.689578890800476074e-01 -7.183295488357543945e-02 -2.680965662002563477e-01 -1.610545665025711060e-01 7.530023902654647827e-02 1.033224910497665405e-01 5.413133278489112854e-02 -1.296395808458328247e-02 3.456725180149078369e-02 8.703611791133880615e-02 2.137128449976444244e-02 -3.847315907478332520e-02 -3.390306606888771057e-03 1.179767400026321411e-01 -9.598760306835174561e-02 7.687941659241914749e-03 7.226815447211265564e-03 -5.526478588581085205e-02 -7.445932924747467041e-02 -7.753141224384307861e-02 -3.335871919989585876e-02 -3.949928656220436096e-02 -1.175999864935874939e-01 -4.949325323104858398e-02 6.164187937974929810e-02 1.023615598678588867e-01 2.259367145597934723e-02 -1.237952560186386108e-01 2.632483374327421188e-03 4.449189454317092896e-02 3.005625121295452118e-02 1.514602638781070709e-02 2.941296435892581940e-02 1.027946472167968750e-01 -1.083867996931076050e-01 1.789563708007335663e-02 -6.054328009486198425e-02 4.455825313925743103e-02 4.239003174006938934e-03 -6.060530990362167358e-02 -5.837080534547567368e-03 2.568696811795234680e-02 7.056032866239547729e-02 2.086511403322219849e-01 -2.420039102435112000e-02 -1.395038366317749023e-01 -2.143205516040325165e-02 -8.366917073726654053e-02 4.178538918495178223e-02 2.304054945707321167e-01 -6.541233509778976440e-02 5.262586474418640137e-02 -8.143397420644760132e-02 -8.004885911941528320e-02 -8.908401429653167725e-02 -4.031740128993988037e-01 -4.221519827842712402e-02 1.612892188131809235e-02 2.919764257967472076e-02 -1.784494370222091675e-01 -5.979555100202560425e-02 -2.904817648231983185e-02 -6.156717240810394287e-02 3.683121874928474426e-02 -1.069804057478904724e-01 -1.212103199213743210e-02 3.876847028732299805e-02 6.729759275913238525e-02 1.768330335617065430e-01 2.688780613243579865e-02 -4.230706021189689636e-02 2.235473319888114929e-02 -4.534139111638069153e-02 6.279924511909484863e-02 1.473696082830429077e-01 8.282802253961563110e-02 4.062767326831817627e-02 -8.604791015386581421e-02 2.074644565582275391e-01 -4.607171565294265747e-02 -8.255432546138763428e-02 -8.150981366634368896e-02 1.360365003347396851e-01 -5.833134427666664124e-02 -7.619265466928482056e-02 -6.853497028350830078e-02 -7.884968072175979614e-02 -4.596125707030296326e-02 2.877930551767349243e-02 -7.232301682233810425e-02 -4.499632865190505981e-02 -9.302011877298355103e-02 1.285764276981353760e-01 1.323514878749847412e-01 -2.382330223917961121e-02 -8.856310695409774780e-02 -1.153884804807603359e-03 1.022460162639617920e-01 3.021359443664550781e-01 -6.736478209495544434e-02 6.163816526532173157e-02 -5.571014434099197388e-02 2.570152468979358673e-02 2.243828028440475464e-01 -6.091783568263053894e-02 9.309286624193191528e-02 4.118777438998222351e-02 4.221159964799880981e-02 -1.853482984006404877e-02 2.830168232321739197e-02 -1.039511337876319885e-02 -1.393129862844944000e-02 3.026033006608486176e-02 8.348716050386428833e-02 -1.946994960308074951e-01 7.888720184564590454e-02 2.082443982362747192e-02 2.390293031930923462e-02 4.061712697148323059e-02 1.243525370955467224e-01 1.399599611759185791e-01 6.754033267498016357e-02 4.298048838973045349e-02 3.450859710574150085e-02 -6.393601000308990479e-02 2.483508363366127014e-02 2.725022286176681519e-02 -6.432079523801803589e-02 1.343583688139915466e-02 -1.014537438750267029e-01 1.780713722109794617e-02 6.851008534431457520e-02 -6.241226196289062500e-02 6.094587501138448715e-03 1.423177123069763184e-01 5.359945818781852722e-02 -2.487412653863430023e-03 1.510411268100142479e-03 4.718427360057830811e-02 -3.083495981991291046e-02 6.731713656336069107e-03 2.622114121913909912e-02 -6.673455238342285156e-02 -9.135515429079532623e-03 1.600381918251514435e-02 9.108694642782211304e-02 -2.082503587007522583e-02 -1.331605166196823120e-01 -5.002646893262863159e-02 -1.995046157389879227e-03 6.136963516473770142e-02 7.024380564689636230e-02 7.072810083627700806e-02 -2.972440421581268311e-02 4.884003847837448120e-02 1.574013009667396545e-02 -7.690191268920898438e-03 1.357837673276662827e-02 5.666635930538177490e-02 -2.170289307832717896e-02 8.661837130784988403e-02 1.280131936073303223e-02 -1.060973946005105972e-02 -1.367951091378927231e-02 6.220332160592079163e-02 -1.981044746935367584e-02 -8.971561491489410400e-02 1.184571348130702972e-02 2.836140058934688568e-02 -7.985595613718032837e-02 5.081473849713802338e-03 -2.275509200990200043e-02 -3.854176960885524750e-03 -9.412208572030067444e-03 9.292180091142654419e-02 1.263715028762817383e-01 1.401184350252151489e-01 1.131307035684585571e-01 8.639120310544967651e-02 7.053307443857192993e-02 -1.385870575904846191e-01 -6.031501665711402893e-02 8.234342932701110840e-02 1.349636614322662354e-01 -9.680025279521942139e-02 -4.683493450284004211e-02 9.758935309946537018e-03 2.898755297064781189e-02 -4.671792034059762955e-03
1.187796937301754951e-03 -7.126180082559585571e-02 4.425577819347381592e-02 -6.844392418861389160e-02 1.150713711977005005e-01 4.073406755924224854e-02 2.494751475751399994e-02 3.362879157066345215e-02 1.782472245395183563e-02 6.833186000585556030e-02 -2.517737746238708496e-01 -1.882194578647613525e-01 -6.778719276189804077e-02 -4.789642989635467529e-02 -1.401493549346923828e-01 -6.926450133323669434e-02 -1.547127310186624527e-02 1.411719322204589844e-01 -1.245205383747816086e-02 -9.857318550348281860e-02 -5.396112799644470215e-03 2.760390751063823700e-02 -8.930310606956481934e-02 -2.932216785848140717e-02 -8.875331841409206390e-03 4.202735424041748047e-02 3.732014447450637817e-02 4.881573375314474106e-03 1.408147364854812622e-01 7.885643839836120605e-02 -1.278880685567855835e-01 -1.100851967930793762e-01 -4.660034552216529846e-02 -1.294779330492019653e-01 -3.188051283359527588e-01 -8.806719630956649780e-02 9.610439836978912354e-02 1.093498542904853821e-01 8.746477216482162476e-02 1.146950125694274902e-01 2.343078143894672394e-02 -1.446394324302673340e-01 -1.190902069211006165e-01 4.018434882164001465e-02 -1.058397293090820312e-01 9.442627429962158203e-03 8.124249055981636047e-03 1.204213723540306091e-01 -1.926847547292709351e-02 4.978631436824798584e-02 8.474771678447723389e-02 8.205150067806243896e-02 2.420557290315628052e-02 -2.336834929883480072e-02 2.421369589865207672e-02 -7.062970101833343506e-02 -1.779394969344139099e-02 -5.494717881083488464e-02 -1.118764728307723999e-01 1.044957488775253296e-01 2.393799833953380585e-02 -2.103019692003726959e-02 3.709246963262557983e-02 2.427783310413360596e-01 6.539967656135559082e-02 4.764157161116600037e-02 1.598115861415863037e-01 3.595209121704101562e-02 -1.512172073125839233e-01 3.228620067238807678e-02 -4.553810879588127136e-02 1.164280227385461330e-03 -2.300719544291496277e-02 -8.371397107839584351e-02 -2.768210172653198242e-01 -7.675169408321380615e-02 4.501453042030334473e-02 -1.911533251404762268e-02 -7.623289525508880615e-02 -5.282983556389808655e-02 -1.925756335258483887e-01 -7.250919938087463379e-02 4.777971655130386353e-02 -3.228104859590530396e-02 6.014534831047058105e-02 -1.671206951141357422e-02 -8.996539562940597534e-02 -1.767797917127609253e-01 1.043131873011589050e-01 1.957470178604125977e-01 1.127495989203453064e-01 -2.040035426616668701e-01 3.272818028926849365e-02 -6.436377763748168945e-02 7.692648470401763916e-02 -1.939309835433959961e-01 -7.014398276805877686e-02 -1.545637752860784531e-02 4.992295429110527039e-02 -1.638575345277786255e-01 2.351481094956398010e-02 -5.959070101380348206e-02 -4.217712208628654480e-02 2.426640503108501434e-02 1.684215664863586426e-02 -2.484929747879505157e-03 4.413208365440368652e-02 3.819885849952697754e-02 4.219391942024230957e-02 6.492889020591974258e-03 5.376571416854858398e-02 -2.836389653384685516e-02 -1.558766420930624008e-02 6.929755210876464844e-03 2.528758160769939423e-02 1.947328262031078339e-02 3.332309052348136902e-02 4.501020908355712891e-02 -3.975923731923103333e-02 3.697830485180020332e-03 3.710234537720680237e-02 -2.927688322961330414e-02 4.419327899813652039e-02 -4.791760351508855820e-03 9.347318671643733978e-03 7.624283432960510254e-02 7.546173781156539917e-02 7.966835796833038330e-02 5.141986906528472900e-02 5.395195633172988892e-02 5.644597113132476807e-02 1.130128353834152222e-01 2.175468020141124725e-02 -3.691020235419273376e-02 5.685437470674514771e-02 2.322822362184524536e-01 4.346638917922973633e-02 1.795800961554050446e-02 4.474698379635810852e-02 4.258329421281814575e-02 -6.253354996442794800e-02 -1.434688121080398560e-01 7.446659356355667114e-02 1.689609140157699585e-01 5.846901983022689819e-02 -3.878839313983917236e-02 5.232454463839530945e-02 9.648990631103515625e-02 5.081420391798019409e-02 -6.224704906344413757e-02 -9.216700494289398193e-02 -5.795393511652946472e-02 -2.205266244709491730e-02 3.410288691520690918e-02 4.546499624848365784e-02 2.440812438726425171e-02 -1.160282492637634277e-01 -6.542910356074571609e-03 4.190186411142349243e-02 -1.841046959161758423e-01 -8.710116147994995117e-02 5.257187411189079285e-02 3.217139095067977905e-02 2.166497334837913513e-02 -1.393714845180511475e-01 1.653406172990798950e-01 -1.016356945037841797e-01 1.417189277708530426e-02 8.093012124300003052e-02 -1.131615489721298218e-01 1.808922365307807922e-02 7.648548483848571777e-02 -2.925006672739982605e-02 -3.200332075357437134e-02 -7.634108513593673706e-02 3.832077085971832275e-01 -1.085479259490966797e-01 3.756728023290634155e-02 5.623627454042434692e-02 -5.633202847093343735e-03 1.272107362747192383e-01 -1.548446118831634521e-01 -8.489174395799636841e-02 2.331761084496974945e-02 2.525442279875278473e-02 5.998401343822479248e-02 -2.269328087568283081e-01 -1.163421347737312317e-01 -8.840318024158477783e-02 -5.401593819260597229e-02 -2.072114944458007812e-01 3.968847543001174927e-02 2.973282709717750549e-02 4.730277881026268005e-02 2.646760782226920128e-03 3.216426819562911987e-02 2.960345521569252014e-02 -3.348494693636894226e-02 -1.704280078411102295e-02 -9.676078706979751587e-02 -3.770817443728446960e-02 -2.437117509543895721e-02 -4.095804691314697266e-02 -9.863460063934326172e-02 2.210547327995300293e-01 3.669378533959388733e-02 2.854951098561286926e-02 4.138040915131568909e-02 2.729012817144393921e-02 -2.417212873697280884e-01 -1.875875145196914673e-01 2.522301301360130310e-02 3.475465625524520874e-02 -1.801365613937377930e-01 -2.813827693462371826e-01 -9.884374588727951050e-02 3.845364972949028015e-02 6.800733506679534912e-02 1.079761087894439697e-01 3.274468705058097839e-02 -1.474482566118240356e-02 2.048503793776035309e-02 -1.033002883195877075e-01 7.442376762628555298e-02 -3.927265480160713196e-02 -1.121401861310005188e-01 1.218987070024013519e-02 2.740349993109703064e-02 9.830244816839694977e-03 4.384986311197280884e-02 -4.485157504677772522e-02 -3.915992751717567444e-02 -9.707379154860973358e-03 8.057652413845062256e-02 -6.623008847236633301e-02 -2.213111668825149536e-01 -1.448467522859573364e-01 4.099580273032188416e-02 4.881429020315408707e-03 -2.230599969625473022e-01 4.349222406744956970e-02 6.508084386587142944e-02 9.606823325157165527e-02 3.931783512234687805e-02 2.520395442843437195e-02 -6.840386427938938141e-03 -7.129962742328643799e-02 -1.939167529344558716e-01 -9.389673918485641479e-02 9.287021309137344360e-02 -4.250396974384784698e-03 1.118411193601787090e-03 8.334133774042129517e-02 3.852900862693786621e-02 2.985660172998905182e-02 6.465780735015869141e-02 1.703281551599502563e-01 -4.793256986886262894e-03 4.285935685038566589e-02 -8.804971724748611450e-02 1.845964640378952026e-01 2.978271804749965668e-02 -3.476329892873764038e-02 1.136261299252510071e-01 -5.262347310781478882e-02 3.405666649341583252e-01 -1.118683628737926483e-02 2.753619104623794556e-02 3.560751676559448242e-02 -1.463953219354152679e-02 -3.261743113398551941e-02 1.014192029833793640e-02 2.121839113533496857e-02 -1.147775277495384216e-01 -6.929181516170501709e-02 2.723801322281360626e-02 6.949310656636953354e-03 -3.563448041677474976e-02 1.085087284445762634e-01 1.834616065025329590e-01 -1.090545803308486938e-01 -2.086326628923416138e-01 -1.006514579057693481e-01 6.900049746036529541e-02 -5.429790169000625610e-02 1.431359350681304932e-01 1.132473275065422058e-01 1.606094688177108765e-01 -5.263110250234603882e-02 1.860536634922027588e-01 2.796266973018646240e-01 5.257021170109510422e-03 -1.517500728368759155e-01 1.700170151889324188e-02 -1.464821100234985352e-01 9.787512011826038361e-03 -1.047620251774787903e-01 -3.485031798481941223e-02 -1.236902475357055664e-01 5.685185641050338745e-02 -2.766983211040496826e-02 1.064604222774505615e-01 3.496037423610687256e-02 3.890388458967208862e-02 -3.548635542392730713e-02 6.207791343331336975e-02 4.328845813870429993e-02 7.030689716339111328e-02 8.676884323358535767e-02 1.683328747749328613e-01 5.054440721869468689e-02 8.063274621963500977e-02 -8.137113600969314575e-02 -1.216632500290870667e-02 6.181977689266204834e-02 -1.322098821401596069e-01 -5.691410973668098450e-02 6.346452981233596802e-02 2.591370977461338043e-02 -1.403797231614589691e-02 3.529414907097816467e-02 -3.484984487295150757e-02 3.145872056484222412e-02 7.953581959009170532e-02 4.249511286616325378e-02 4.844959080219268799e-02 3.403679654002189636e-02 2.687138319015502930e-02 1.157895941287279129e-02 7.034869492053985596e-02 1.460425257682800293e-01 3.736115247011184692e-02 -4.560938850045204163e-02 -1.578997634351253510e-02 7.271465659141540527e-02 -1.078648343682289124e-01 -8.074244856834411621e-02 1.304853241890668869e-02 1.549845375120639801e-02 -6.465136259794235229e-02 -1.663960516452789307e-01 -1.246697008609771729e-01 1.221530139446258545e-01 7.301004976034164429e-02 2.578715234994888306e-02 8.667804300785064697e-02 5.419836193323135376e-02 -2.739959768950939178e-02 -8.021662384271621704e-02 -2.241859771311283112e-02 2.177726849913597107e-02 3.587461262941360474e-02 1.862504892051219940e-02 -3.042378090322017670e-02 1.391710713505744934e-02 -8.004767447710037231e-02 -3.716474398970603943e-02 7.099691778421401978e-02 -1.171420235186815262e-02 -1.202831938862800598e-01 -1.746516674757003784e-01 -9.554566442966461182e-02 5.591688305139541626e-02 -6.976026110351085663e-03 -5.272560566663742065e-02 -5.978059768676757812e-02 3.033808432519435883e-02 8.269106596708297729e-02 7.586574554443359375e-02 1.100779175758361816e-01 5.859846249222755432e-02 5.080403387546539307e-02 -1.067972462624311447e-02 2.987687243148684502e-03 -4.038460180163383484e-02 -4.485755413770675659e-02 2.133587189018726349e-02 -3.538958495482802391e-03 -1.229747291654348373e-02 6.220491230487823486e-02 -5.771434307098388672e-02 1.159648969769477844e-01 -2.540952339768409729e-02 -2.530796080827713013e-02 -1.814884133636951447e-02 -1.445070505142211914e-01 -8.006086945533752441e-02 -5.792092066258192062e-03 3.528542071580886841e-02 1.858881860971450806e-02 1.694905757904052734e-01 1.280974894762039185e-01 5.726988241076469421e-02 1.382861882448196411e-01 2.179259806871414185e-01 1.226503998041152954e-01 -4.579741507768630981e-02 -3.197695314884185791e-02 2.490916661918163300e-02 -4.230295121669769287e-02
-1.349330395460128784e-01 -2.042447403073310852e-02 -2.088776417076587677e-02 -3.487106785178184509e-02 2.475954033434391022e-02 -6.372352689504623413e-02 -7.707822322845458984e-02 1.231099665164947510e-02 3.312714397907257080e-02 4.243417829275131226e-02 -5.132804438471794128e-02 -1.357622258365154266e-02 -8.348357677459716797e-02 -1.250978279858827591e-02 -6.174008548259735107e-02 -1.497904956340789795e-02 -3.383431211113929749e-02 -4.700642824172973633e-02 1.382171064615249634e-01 5.321603640913963318e-02 2.175558730959892273e-02 2.358862757682800293e-02 6.445112521760165691e-04 8.057769387960433960e-02 -9.992174804210662842e-03 1.285016685724258423e-01 9.504563175141811371e-03 -4.103121533989906311e-02 -6.704280152916908264e-03 8.626677095890045166e-02 -3.060820046812295914e-03 -3.933313488960266113e-02 -3.780350089073181152e-02 -4.906786605715751648e-02 -1.170337945222854614e-02 -9.204334765672683716e-02 -9.434048831462860107e-02 -4.910336062312126160e-02 2.871287520974874496e-03 1.635119915008544922e-01 -3.272678703069686890e-02 6.233924999833106995e-02 1.518098916858434677e-02 -1.424907743930816650e-01 2.604080922901630402e-02 2.044681608676910400e-01 1.935829035937786102e-02 -1.783045977354049683e-01 -2.027795650064945221e-02 -2.668540365993976593e-02 1.565173715353012085e-01 1.765920668840408325e-01 1.405047997832298279e-02 -2.729172445833683014e-02 -2.477757446467876434e-02 7.653170730918645859e-03 -5.021845549345016479e-02 1.045009419322013855e-01 -9.526952356100082397e-02 -5.000555142760276794e-02 5.823531374335289001e-02 -1.347220987081527710e-01 -1.105043850839138031e-02 -4.240848869085311890e-02 1.972322538495063782e-02 -4.902188852429389954e-02 6.159814447164535522e-02 -2.887936681509017944e-02 1.118898838758468628e-01 7.051172107458114624e-02 2.991021610796451569e-02 -3.784588724374771118e-02 5.269616842269897461e-02 1.435401737689971924e-01 -4.186701476573944092e-01 -1.089550405740737915e-01 1.346401590853929520e-02 -5.075072869658470154e-02 -1.644927822053432465e-02 -2.124851569533348083e-02 1.427138447761535645e-01 1.823267340660095215e-02 -3.649051859974861145e-02 -2.315393276512622833e-02 -3.717555478215217590e-02 -1.560006290674209595e-01 3.863889025524258614e-03 9.895158559083938599e-02 -6.675545126199722290e-02 -3.732627723366022110e-03 5.523699149489402771e-02 -6.526561826467514038e-02 -2.305160909891128540e-01 -1.732508644636254758e-05 -4.357353970408439636e-02 1.352732926607131958e-01 3.260638564825057983e-02 8.543020486831665039e-02 -2.917016111314296722e-02 4.275653883814811707e-02 -1.603153534233570099e-02 -1.173990499228239059e-02 5.621823295950889587e-02 3.676525503396987915e-02 -1.495718955993652344e-02 3.896512091159820557e-02 3.633689135313034058e-02 4.998417571187019348e-02 1.066778879612684250e-02 5.042600911110639572e-03 3.378400206565856934e-02 3.895304352045059204e-02 -5.317419767379760742e-03 -3.634945303201675415e-02 -9.507727809250354767e-03 -4.941482469439506531e-02 -1.492468733340501785e-02 -1.741319894790649414e-03 -2.929289452731609344e-02 4.880136996507644653e-02 2.061776816844940186e-02 1.646996848285198212e-02 -2.919846214354038239e-02 -2.899282053112983704e-02 3.588305041193962097e-02 1.870417445898056030e-01 2.115542888641357422e-01 1.155498698353767395e-01 -5.654890462756156921e-02 -1.136632636189460754e-01 2.444270700216293335e-01 1.452766805887222290e-01 -1.349179726094007492e-02 -8.769930899143218994e-02 -1.169642657041549683e-01 -1.370517462491989136e-01 -9.878326207399368286e-02 3.976228460669517517e-02 -1.571514271199703217e-02 -3.372637182474136353e-02 7.027687877416610718e-02 9.484331309795379639e-02 -8.268332481384277344e-02 -2.804832719266414642e-02 8.684462308883666992e-02 1.282081454992294312e-01 2.087213844060897827e-02 1.113792601972818375e-02 1.683157496154308319e-02 1.172009110450744629e-02 2.208899110555648804e-01 -7.123294472694396973e-02 -1.356098949909210205e-01 -4.009938985109329224e-02 5.671614408493041992e-02 4.030593112111091614e-02 4.820979200303554535e-03 -3.997937962412834167e-02 -1.744369119405746460e-01 1.788488328456878662e-01 -1.110367700457572937e-01 -9.289010614156723022e-02 -1.511578708887100220e-01 4.382038116455078125e-02 1.293280869722366333e-01 1.715295575559139252e-02 9.648673236370086670e-02 1.388406567275524139e-02 3.914403170347213745e-02 2.330441214144229889e-02 4.505296796560287476e-02 3.942606970667839050e-02 -3.617697954177856445e-02 -3.597728908061981201e-02 4.118470847606658936e-02 2.952270507812500000e-01 -6.098202243447303772e-02 -6.266177445650100708e-02 1.793231815099716187e-02 -3.545468673110008240e-02 6.207647919654846191e-02 -9.320098906755447388e-03 3.765024989843368530e-02 -1.010533273220062256e-01 3.248869627714157104e-02 -3.073010593652725220e-02 -1.549124345183372498e-02 -1.265836507081985474e-01 -1.380908489227294922e-01 5.263570323586463928e-02 1.024495512247085571e-01 -6.542605161666870117e-02 2.010569348931312561e-02 4.532825946807861328e-02 3.154369443655014038e-02 -4.632906988263130188e-03 1.752227917313575745e-02 -7.306065410375595093e-02 5.938203260302543640e-02 9.647807106375694275e-03 -2.201080322265625000e-02 -4.654754325747489929e-02 1.113713532686233521e-01 3.373315930366516113e-01 2.709985673427581787e-01 -1.731989718973636627e-02 4.059139639139175415e-03 -4.577014222741127014e-02 6.815516948699951172e-02 1.267343312501907349e-01 -4.666579887270927429e-02 -7.785877585411071777e-02 -6.835510581731796265e-02 -3.472125157713890076e-02 1.267015933990478516e-01 4.938147962093353271e-02 -1.925102062523365021e-02 -3.398055955767631531e-02 -1.876611262559890747e-02 -1.287433505058288574e-01 -2.473661908879876137e-03 3.360139578580856323e-02 4.307191818952560425e-02 -1.003382578492164612e-01 -4.049194604158401489e-02 1.361827272921800613e-02 -1.060562506318092346e-01 -3.381830081343650818e-02 4.011948779225349426e-02 1.234377101063728333e-01 -4.490408115088939667e-03 5.812256131321191788e-03 -5.094739142805337906e-03 4.174538329243659973e-02 7.202264666557312012e-02 -6.151182204484939575e-02 -1.535206381231546402e-02 -1.035745963454246521e-01 6.044562533497810364e-02 4.195390641689300537e-02 -2.329478599131107330e-02 5.179134663194417953e-03 2.167939208447933197e-02 6.066766008734703064e-02 -1.828247494995594025e-02 5.425994470715522766e-02 5.816775932908058167e-02 -3.110812045633792877e-02 6.331449374556541443e-03 -4.893577843904495239e-02 1.816742718219757080e-01 2.672787941992282867e-02 -2.015293575823307037e-03 -7.265922427177429199e-02 -3.483216464519500732e-02 6.279385089874267578e-02 2.229458838701248169e-01 3.208808228373527527e-02 9.659434109926223755e-02 -1.821410097181797028e-02 1.059148646891117096e-02 -1.106341779232025146e-01 -2.982590720057487488e-02 7.023887336254119873e-02 -6.731462478637695312e-02 3.630376979708671570e-02 1.617345362901687622e-01 1.496024131774902344e-01 -7.023540139198303223e-02 8.942908048629760742e-02 3.945343568921089172e-02 -4.807019140571355820e-03 -2.028637565672397614e-02 -1.955719739198684692e-01 -1.426295842975378036e-02 1.033948734402656555e-01 9.426656179130077362e-03 -8.040829002857208252e-02 -2.171036228537559509e-02 -3.896471858024597168e-02 4.075612500309944153e-02 1.627618074417114258e-01 3.793687745928764343e-02 -1.665616929531097412e-01 -7.736653834581375122e-02 1.265824306756258011e-02 -3.671693801879882812e-02 -1.811107844114303589e-01 5.074882134795188904e-02 -6.335485726594924927e-02 -6.720796227455139160e-02 2.775995060801506042e-02 5.610052496194839478e-02 -8.450514823198318481e-02 -1.316592544317245483e-01 -1.289465464651584625e-02 8.942945301532745361e-02 -3.512407466769218445e-02 1.862544864416122437e-01 3.903971239924430847e-02 1.202468201518058777e-01 1.738423407077789307e-01 1.631523668766021729e-01 -1.630863547325134277e-01 -3.378272950649261475e-01 7.283584028482437134e-02 5.354290828108787537e-02 9.301515668630599976e-02 3.761309012770652771e-02 -2.045485973358154297e-01 -6.189490854740142822e-02 -5.622093565762042999e-03 -3.315909951925277710e-02 1.249335147440433502e-02 -6.920997798442840576e-02 6.584017071872949600e-03 -3.747021406888961792e-02 -7.173798978328704834e-02 -1.210628426633775234e-03 4.595755785703659058e-02 -2.930027898401021957e-03 -1.867084950208663940e-02 1.001943740993738174e-02 -1.570232212543487549e-02 1.088424678891897202e-02 2.582486271858215332e-01 6.116043031215667725e-02 6.772428750991821289e-02 3.694774210453033447e-02 1.615876518189907074e-02 -9.415008127689361572e-02 -7.743630558252334595e-02 1.870480133220553398e-03 -1.159619539976119995e-02 7.214199006557464600e-02 -1.260089874267578125e-01 -2.311068587005138397e-02 -4.601866006851196289e-02 -7.571157068014144897e-02 1.596507243812084198e-02 7.424981147050857544e-02 7.802215218544006348e-02 -3.561308234930038452e-02 4.888331517577171326e-02 7.030654698610305786e-02 -2.706996630877256393e-03 -6.704270839691162109e-02 -2.122267149388790131e-02 9.913269430398941040e-02 9.696652740240097046e-02 6.461411714553833008e-02 5.019355565309524536e-03 7.403541356325149536e-02 3.110598586499691010e-02 3.322368487715721130e-02 -2.922278642654418945e-02 3.353141993284225464e-02 -6.322821974754333496e-02 2.451167814433574677e-02 1.073038205504417419e-01 -4.537304863333702087e-02 -4.221906512975692749e-02 -2.317732945084571838e-02 -6.026024464517831802e-03 6.496594101190567017e-02 4.342639818787574768e-02 5.500992760062217712e-02 4.677845165133476257e-02 1.894321665167808533e-02 -9.770594537258148193e-03 1.868109777569770813e-02 -1.955152302980422974e-02 6.687847780995070934e-05 -7.727339863777160645e-02 6.655925884842872620e-03 3.674996271729469299e-02 -7.823539897799491882e-03 5.586817394942045212e-03 6.640793383121490479e-02 7.467152550816535950e-03 7.046920363791286945e-04 -1.672461628913879395e-02 -2.579412981867790222e-02 5.698882788419723511e-02 -7.284310460090637207e-02 2.961554005742073059e-02 3.599175717681646347e-03 -1.892947219312191010e-02 -4.232346639037132263e-02 4.043318703770637512e-02 -8.009976893663406372e-02 1.642182469367980957e-02 7.256286591291427612e-02 9.388624131679534912e-02 4.059265926480293274e-02 -2.188407443463802338e-02 4.858338832855224609e-02 4.454747959971427917e-02 -1.389479190111160278e-01 -1.202839687466621399e-01
