-3.788987174630165100e-02
1.133922263979911804e-01
8.648924529552459717e-02
1.068847179412841797e-01
-4.888844210654497147e-03
-4.905769973993301392e-02
-1.197757422924041748e-01
3.705448657274246216e-02
-3.816081583499908447e-02
1.042801812291145325e-01
-5.177827179431915283e-02
-6.203861907124519348e-02
8.091237396001815796e-02
2.050995528697967529e-01
-1.060281246900558472e-01
1.386464480310678482e-02
-6.860847026109695435e-02
3.103090636432170868e-02
-6.061449274420738220e-02
8.398103713989257812e-02
4.687825962901115417e-02
1.177893653512001038e-01
3.036928363144397736e-02
-6.839353591203689575e-02
1.324345618486404419e-01
1.291748434305191040e-01
-3.979211300611495972e-02
7.837159186601638794e-02
-1.183535382151603699e-01
-1.255726665258407593e-01
-1.074320822954177856e-01
3.152843192219734192e-02
-7.777988910675048828e-03
8.965298533439636230e-02
1.394282430410385132e-01
6.152484193444252014e-02
-1.960805058479309082e-02
-2.606968767940998077e-02
1.498822122812271118e-01
-6.797314435243606567e-02
-1.025025695562362671e-01
5.804546549916267395e-02
1.700024493038654327e-02
-9.459444135427474976e-02
-1.193689256906509399e-01
7.183331996202468872e-02
-3.398716449737548828e-02
8.237619698047637939e-02
1.963770948350429535e-02
-3.446656093001365662e-02
1.054964289069175720e-01
-8.318728208541870117e-02
-6.704338639974594116e-02
-5.899725854396820068e-02
1.101543679833412170e-01
1.586822122335433960e-01
7.397087663412094116e-02
6.548584252595901489e-02
1.674019545316696167e-01
-3.741090372204780579e-02
1.322654187679290771e-01
-2.722705528140068054e-02
3.949391841888427734e-02
-1.122015193104743958e-01
8.112218230962753296e-02
1.045515835285186768e-01
-4.001847654581069946e-02
-1.162049844861030579e-01
1.042776554822921753e-01
3.133899345993995667e-02
-1.536980718374252319e-01
-4.794863983988761902e-02
-1.067150663584470749e-02
-1.259245425462722778e-01
7.057495415210723877e-02
1.433845460414886475e-01
-1.013824343681335449e-01
-7.981254905462265015e-02
6.166844815015792847e-02
-9.488226473331451416e-02
-4.288326576352119446e-02
-5.152640864253044128e-02
-9.073603898286819458e-02
1.929769851267337799e-02
