-7.477384526282548904e-03 -1.188386324793100357e-02 9.990128874778747559e-02 1.901787519454956055e-02 1.550030261278152466e-01 -1.773577779531478882e-01 7.345343381166458130e-02 4.187681525945663452e-02 -9.260465390980243683e-03 2.280187979340553284e-02 1.157640218734741211e-01 4.754351824522018433e-02 -3.977257013320922852e-02 -9.426537901163101196e-03 8.108714967966079712e-02 -4.196525737643241882e-02 1.192553266882896423e-01 -1.400120649486780167e-02 -1.590299159288406372e-01 1.166054159402847290e-01 2.962231449782848358e-02 -1.041677445173263550e-01 -2.927011623978614807e-02 4.629948735237121582e-02 1.391730457544326782e-02 -1.324925124645233154e-01 1.186245866119861603e-02 -1.445614844560623169e-01 -6.183186918497085571e-02 -4.974264651536941528e-02 1.010574921965599060e-01 4.388101398944854736e-02 -9.903745353221893311e-02 -2.591226366348564625e-04 -1.263497024774551392e-01 4.503708332777023315e-02 -2.375060925260186195e-03 4.940513521432876587e-02 -5.670813098549842834e-02 -1.287384144961833954e-02 -2.658849582076072693e-02 -5.473656207323074341e-02 3.291523456573486328e-02 9.537614881992340088e-02 -1.113968193531036377e-01 -1.186051517724990845e-01 8.439615368843078613e-03 9.502529166638851166e-03 4.001803696155548096e-02 2.228958159685134888e-01 5.598786845803260803e-02 2.189889922738075256e-02 5.552524328231811523e-02 1.190759837627410889e-01 -3.207619860768318176e-02 2.040642872452735901e-02 1.563926190137863159e-01 -5.753698945045471191e-02 3.927488625049591064e-02 1.484344829805195332e-03 1.721729189157485962e-01 1.456843316555023193e-01 -3.508391976356506348e-02 -4.926515743136405945e-02 2.207736251875758171e-03 -2.629897929728031158e-02 4.547433182597160339e-02 -1.659143716096878052e-01 4.001943022012710571e-02 -4.989811033010482788e-02 3.794677555561065674e-02 1.587741672992706299e-01 1.598416715860366821e-01 -3.038312867283821106e-02 4.883055761456489563e-02 -1.922654211521148682e-01 1.447557359933853149e-01 -5.814456567168235779e-02 1.227782145142555237e-01 -4.822368919849395752e-02 -4.030027613043785095e-02 7.154446095228195190e-02 2.290316224098205566e-01 -1.373762637376785278e-02 1.155184283852577209e-01 1.005022376775741577e-01 3.834628686308860779e-02 1.393257528543472290e-01 -1.553415358066558838e-01 3.044550679624080658e-02 6.068186461925506592e-02 5.000875331461429596e-03 1.858189851045608521e-01 8.977448940277099609e-02 -3.770762309432029724e-02 -9.312431514263153076e-02 1.778997778892517090e-01 7.392425090074539185e-02 2.102298140525817871e-01 6.545733660459518433e-02 -9.022435545921325684e-02 5.706569645553827286e-03 -2.220359295606613159e-01 -3.559274366125464439e-03 7.015516608953475952e-02 2.504965476691722870e-02 -8.053421229124069214e-02 -4.897932708263397217e-02 1.879556179046630859e-01 -2.142143994569778442e-01 -1.930733583867549896e-02 3.983457013964653015e-02 3.714625909924507141e-02 9.645971469581127167e-03 4.658214282244443893e-03 3.450435400009155273e-02 8.056782186031341553e-03 8.422398567199707031e-02 1.312780380249023438e-01 -1.586611382663249969e-02
9.878603741526603699e-03 9.520062804222106934e-02 1.856556744314730167e-03 1.083031073212623596e-01 1.095836460590362549e-01 1.175230741500854492e-01 1.104361489415168762e-01 4.499768093228340149e-02 -6.773375719785690308e-02 -5.530310794711112976e-02 -1.426039934158325195e-01 7.114617526531219482e-02 8.958951383829116821e-02 -9.857361018657684326e-02 -4.544189572334289551e-02 1.841369643807411194e-02 -3.348682075738906860e-02 1.225289106369018555e-01 1.618775129318237305e-01 5.916101485490798950e-02 -2.715640515089035034e-02 1.221399158239364624e-01 1.078656986355781555e-01 1.873891055583953857e-01 -1.089856214821338654e-02 7.949314266443252563e-02 -4.769219085574150085e-02 4.472329095005989075e-02 1.339020878076553345e-01 -1.920992583036422729e-01 3.348547592759132385e-02 1.129222065210342407e-01 9.035893715918064117e-03 -5.394703522324562073e-02 1.080270111560821533e-01 6.614865362644195557e-02 1.242949962615966797e-01 8.529344946146011353e-02 4.160809516906738281e-02 -8.878173679113388062e-02 2.688702382147312164e-02 -1.346851736307144165e-01 9.220026433467864990e-02 1.548680663108825684e-02 6.417283415794372559e-02 5.547681078314781189e-02 1.798701435327529907e-01 2.021754160523414612e-02 -5.134168639779090881e-02 -1.443516314029693604e-01 -2.005825191736221313e-02 1.537881046533584595e-01 4.682277329266071320e-03 -1.829146146774291992e-01 -4.138372093439102173e-02 -1.792165040969848633e-01 -5.144209135323762894e-04 -1.928236335515975952e-02 1.214017942547798157e-01 -1.299394816160202026e-01 -1.138580143451690674e-01 5.143242888152599335e-03 -9.955148398876190186e-02 5.070042330771684647e-03 1.513716876506805420e-01 3.677378594875335693e-02 7.251409441232681274e-02 1.211403682827949524e-01 8.561738766729831696e-03 -5.116739775985479355e-04 -1.491274684667587280e-02 -1.096889674663543701e-01 8.202651143074035645e-02 5.930458661168813705e-03 -1.658311486244201660e-02 -1.561765559017658234e-02 -1.770202964544296265e-01 8.227224647998809814e-02 2.753463201224803925e-02 -1.486458778381347656e-01 3.105495870113372803e-02 -8.736975723877549171e-05 9.903342276811599731e-02 -8.005274087190628052e-02 1.315892338752746582e-01 -2.873620204627513885e-02 -7.085246592760086060e-02 -2.227252572774887085e-01 -9.982212632894515991e-02 1.071887183934450150e-02 8.846279978752136230e-02 -8.200000971555709839e-03 -8.003042638301849365e-02 -1.934889703989028931e-01 7.624679803848266602e-02 1.080661639571189880e-01 -1.167759820818901062e-01 1.341831218451261520e-02 -7.999501377344131470e-02 6.042565777897834778e-02 1.454824060201644897e-01 1.283276919275522232e-02 1.464861631393432617e-01 2.276838012039661407e-02 -8.916413038969039917e-02 -6.607637624256312847e-04 1.412701606750488281e-01 -8.572073280811309814e-02 -9.798392653465270996e-02 7.682817429304122925e-02 3.734361752867698669e-02 7.237127050757408142e-03 -7.383095566183328629e-03 -1.552881021052598953e-02 5.494636297225952148e-02 -3.845115005970001221e-02 9.574122726917266846e-02 -7.023455947637557983e-02 5.460325628519058228e-02 -5.496444553136825562e-02
2.090650983154773712e-02 -4.140850529074668884e-02 -4.504449293017387390e-02 6.513846665620803833e-02 2.419106476008892059e-02 2.804194986820220947e-01 2.630893886089324951e-01 9.431610815227031708e-03 -2.880754172801971436e-01 1.063519716262817383e-01 -1.392174661159515381e-01 5.635781213641166687e-02 5.998190492391586304e-03 -8.365797251462936401e-02 -3.878211230039596558e-02 -8.095451444387435913e-02 1.061366349458694458e-01 -1.449357718229293823e-01 1.137652061879634857e-02 2.769827470183372498e-02 -1.819865256547927856e-01 8.229745179414749146e-02 1.032991558313369751e-01 7.117044925689697266e-02 1.119862496852874756e-01 -3.131429851055145264e-02 -1.669533252716064453e-01 -3.740122914314270020e-02 7.997443526983261108e-02 1.993992738425731659e-02 -4.285142943263053894e-02 5.043452233076095581e-02 -9.704864770174026489e-02 -3.938473761081695557e-02 1.927816271781921387e-01 3.010867908596992493e-02 -2.057209797203540802e-02 -7.326673716306686401e-02 -1.850361526012420654e-01 -2.791747264564037323e-02 -9.768719226121902466e-02 1.215522363781929016e-01 -1.141941323876380920e-01 3.484390676021575928e-02 5.085961148142814636e-02 1.525999605655670166e-01 2.432879619300365448e-02 2.699508704245090485e-02 2.172563923522830009e-03 -7.179216295480728149e-02 4.214217513799667358e-02 -2.051991410553455353e-02 5.836130306124687195e-02 -5.860080709680914879e-04 -1.342098712921142578e-01 3.039110265672206879e-02 -5.346136167645454407e-03 8.618234843015670776e-02 2.556403353810310364e-02 5.572612956166267395e-02 7.390794157981872559e-02 1.971182227134704590e-01 1.968314871191978455e-02 -5.884989351034164429e-02 8.910647034645080566e-02 -1.190861687064170837e-01 -1.947257667779922485e-02 2.195795327425003052e-01 3.217859193682670593e-02 -6.179486587643623352e-02 2.025511711835861206e-01 -9.313971549272537231e-02 -5.442775413393974304e-02 -1.375185674987733364e-03 -9.786520153284072876e-02 -9.330888092517852783e-02 2.568981647491455078e-01 -2.757539600133895874e-02 -9.989977627992630005e-02 -1.692772656679153442e-01 -6.515397131443023682e-02 5.151103809475898743e-02 -2.586814761161804199e-01 -3.340826136991381645e-03 -6.929053366184234619e-02 -7.598751783370971680e-02 1.803738474845886230e-01 -7.496344298124313354e-02 1.269750148057937622e-01 6.510847806930541992e-02 6.298246979713439941e-02 -2.102359198033809662e-02 1.050100103020668030e-02 -1.981109529733657837e-01 -6.489078700542449951e-02 1.198557838797569275e-01 -1.437179744243621826e-01 -1.338456850498914719e-02 -1.118966713547706604e-01 1.489263121038675308e-02 2.053364813327789307e-01 -6.904600304551422596e-04 2.024311572313308716e-02 -4.230248928070068359e-02 1.160018593072891235e-01 -7.054631412029266357e-02 1.264223158359527588e-01 8.291430026292800903e-02 -1.826400458812713623e-01 1.870962604880332947e-02 1.611535698175430298e-01 2.046723514795303345e-01 2.076549828052520752e-01 -8.718981593847274780e-02 1.505215018987655640e-01 -1.977021247148513794e-02 1.768042705953121185e-02 9.606864303350448608e-02 -3.005658388137817383e-01 1.469243410974740982e-02
2.179094105958938599e-01 -3.369923681020736694e-02 -5.701250955462455750e-02 -1.001428514719009399e-01 -1.318433135747909546e-01 -8.415625244379043579e-02 -8.057086169719696045e-02 -3.911477513611316681e-03 1.133314892649650574e-01 -1.343095749616622925e-01 1.186980009078979492e-01 -2.215541899204254150e-01 -1.155488565564155579e-02 8.197776973247528076e-03 1.456314697861671448e-02 6.920430064201354980e-02 -1.306408792734146118e-01 -2.969454973936080933e-02 -2.543240189552307129e-01 -2.193208783864974976e-02 1.833064854145050049e-02 8.354369550943374634e-02 -2.089207526296377182e-03 -4.861491173505783081e-02 -7.220041751861572266e-02 1.737379655241966248e-02 2.923874184489250183e-02 3.791327029466629028e-02 -1.666245013475418091e-01 5.238083750009536743e-02 4.710685461759567261e-02 1.660434603691101074e-01 9.655239060521125793e-03 9.474832564592361450e-02 -2.605233900249004364e-02 5.239703133702278137e-02 1.389401312917470932e-02 -4.529488831758499146e-02 1.016120389103889465e-01 2.153336703777313232e-01 -6.273650377988815308e-02 -8.576170355081558228e-02 -1.231915801763534546e-01 2.039938271045684814e-01 -1.054447609931230545e-02 -7.359053939580917358e-02 1.779616475105285645e-01 1.318903267383575439e-01 8.417895436286926270e-02 -1.432376634329557419e-02 1.749647557735443115e-01 1.248922199010848999e-01 -5.949122831225395203e-02 -9.919632226228713989e-02 1.597790867090225220e-01 1.976997107267379761e-01 -1.637875735759735107e-01 -2.979037538170814514e-02 -3.923015668988227844e-02 4.102217964828014374e-03 1.994133889675140381e-01 -6.061948835849761963e-02 1.488220542669296265e-01 2.067071013152599335e-02 2.006011754274368286e-01 9.631382673978805542e-02 7.097759097814559937e-02 1.562562733888626099e-01 -5.941173061728477478e-02 9.224555641412734985e-02 -4.893624782562255859e-02 1.650196462869644165e-01 1.078331004828214645e-02 9.118448942899703979e-02 4.778098315000534058e-02 3.234511613845825195e-02 -9.858274459838867188e-02 -1.225685700774192810e-01 4.128488525748252869e-02 4.406864941120147705e-02 4.234289005398750305e-02 -7.267795503139495850e-02 1.326590627431869507e-01 1.067070215940475464e-01 1.016779318451881409e-01 -4.132734611630439758e-02 1.409100592136383057e-01 2.471245378255844116e-01 -7.597879320383071899e-02 -1.033062189817428589e-01 6.521621719002723694e-03 2.194981090724468231e-02 5.210105702280998230e-02 2.814504206180572510e-01 1.305435299873352051e-01 3.828935325145721436e-02 -5.065095797181129456e-02 -6.718101352453231812e-02 -2.305945008993148804e-01 3.449524566531181335e-02 -8.207291364669799805e-02 3.695125505328178406e-02 1.026659309864044189e-01 2.528358064591884613e-02 9.238792210817337036e-02 -5.997908860445022583e-02 2.962841093540191650e-02 -1.730886548757553101e-01 2.858681231737136841e-02 -4.929175972938537598e-02 1.079946756362915039e-01 1.603028625249862671e-01 -1.618935912847518921e-01 7.423703372478485107e-02 3.217007592320442200e-02 -2.058040909469127655e-02 -2.397340536117553711e-01 -1.756171584129333496e-01 -6.190094724297523499e-02 9.866059571504592896e-02
2.089710235595703125e-01 -7.883537560701370239e-03 4.238102119415998459e-03 -1.789764314889907837e-02 -1.107632815837860107e-01 -1.517291646450757980e-03 1.565990597009658813e-01 1.626776158809661865e-01 6.442099809646606445e-02 -6.932006031274795532e-02 -1.677419245243072510e-01 1.400469988584518433e-01 -1.003090143203735352e-01 2.605875022709369659e-02 -5.289063975214958191e-02 -2.651133108884096146e-03 -1.853029727935791016e-01 -2.187972962856292725e-01 1.279399264603853226e-02 -3.419241607189178467e-01 -7.352037727832794189e-02 1.525108367204666138e-01 1.248138248920440674e-01 -3.180384635925292969e-02 -4.278737306594848633e-02 3.808282688260078430e-02 -5.532526597380638123e-02 -1.746033132076263428e-02 -3.313751518726348877e-01 -6.847751792520284653e-03 1.474100947380065918e-01 1.461210250854492188e-01 1.887762248516082764e-01 5.533767491579055786e-02 -1.209362596273422241e-01 3.938723728060722351e-02 1.236935630440711975e-01 8.094597607851028442e-02 1.652217209339141846e-01 -5.212986841797828674e-02 -4.775491356849670410e-02 -1.969699002802371979e-02 -8.602121472358703613e-02 1.006333306431770325e-01 4.529180750250816345e-02 -5.516145750880241394e-02 2.120396196842193604e-01 4.938352108001708984e-02 -4.388388618826866150e-02 2.328668832778930664e-01 6.780364364385604858e-02 9.834691137075424194e-02 -5.006134137511253357e-02 -7.099213451147079468e-02 2.655052579939365387e-02 3.150204420089721680e-01 -2.719929218292236328e-01 -3.980081900954246521e-02 1.094580441713333130e-02 1.144106909632682800e-01 8.455012738704681396e-02 8.289765100926160812e-04 -3.973546903580427170e-03 3.110491484403610229e-02 1.464370824396610260e-02 6.546378135681152344e-02 -1.913401298224925995e-03 -9.732974320650100708e-02 -1.135920733213424683e-01 1.077790558338165283e-01 -2.188436686992645264e-02 4.993505403399467468e-02 -1.291370093822479248e-01 -4.853368923068046570e-02 6.299649830907583237e-03 -5.805465206503868103e-02 -1.088669672608375549e-01 1.556161344051361084e-01 -8.571454137563705444e-02 7.856493443250656128e-02 3.988829255104064941e-02 5.111451819539070129e-02 1.919756978750228882e-01 1.154353320598602295e-01 2.500794653315097094e-04 6.183420866727828979e-02 1.115742027759552002e-01 -5.300724506378173828e-02 5.385317280888557434e-02 -2.532002925872802734e-01 -4.506022855639457703e-02 1.494286209344863892e-01 -2.114606089890003204e-03 1.041529476642608643e-01 -1.422342658042907715e-01 6.097076460719108582e-02 -3.011980652809143066e-02 1.653094775974750519e-02 -6.769387423992156982e-02 -7.321410626173019409e-02 -1.419314742088317871e-01 3.603670001029968262e-02 9.686581790447235107e-02 -6.744481623172760010e-02 1.466462612152099609e-01 -8.905598521232604980e-02 -9.296816587448120117e-02 4.173239693045616150e-02 8.024348318576812744e-02 -3.211412578821182251e-02 2.270718105137348175e-02 -2.140145450830459595e-01 2.072226442396640778e-02 -4.035870730876922607e-02 -1.642309427261352539e-01 8.774831891059875488e-02 -9.139424562454223633e-02 5.581390112638473511e-02 5.598144605755805969e-03 1.532221026718616486e-02
-1.107222884893417358e-01 6.716558244079351425e-03 3.289078921079635620e-02 -6.733606755733489990e-02 -8.984913118183612823e-03 -1.751162558794021606e-01 -1.261448264122009277e-01 -1.683712303638458252e-01 7.432746887207031250e-02 5.423774197697639465e-02 3.927635028958320618e-02 -4.320666566491127014e-02 -8.076395094394683838e-02 8.637180924415588379e-02 8.677478134632110596e-02 -4.863050580024719238e-02 1.098761148750782013e-02 -2.128350548446178436e-02 -1.116942018270492554e-01 1.011442765593528748e-01 -1.205209270119667053e-01 -7.089568674564361572e-02 -1.403695344924926758e-01 1.504176408052444458e-01 -1.197197884321212769e-01 -1.043949201703071594e-01 -8.680294454097747803e-02 -4.002634063363075256e-02 7.049089670181274414e-02 7.536556571722030640e-02 -4.638973623514175415e-02 -1.077582314610481262e-01 -1.390687525272369385e-01 -4.049288108944892883e-02 1.729517988860607147e-02 7.741712778806686401e-02 -8.598975092172622681e-02 -1.789904683828353882e-01 3.896712511777877808e-02 1.680614799261093140e-02 7.749246805906295776e-02 -9.664364904165267944e-02 -8.875225484371185303e-02 1.951458603143692017e-01 1.492493611294776201e-04 1.112440750002861023e-01 2.499731816351413727e-02 4.920471459627151489e-02 1.419005449861288071e-02 7.861129194498062134e-02 2.401740103960037231e-02 8.081983774900436401e-02 4.399395547807216644e-03 -2.820941247045993805e-02 5.043618381023406982e-02 -1.293791681528091431e-01 1.899678632616996765e-02 1.531589869409799576e-02 -5.790174752473831177e-02 -9.093166887760162354e-02 1.200953349471092224e-01 6.611089408397674561e-02 -1.334223598241806030e-01 3.789280354976654053e-02 9.493173658847808838e-02 -1.781075894832611084e-01 1.983591727912425995e-02 7.921601831912994385e-02 -1.003612652420997620e-01 3.818223997950553894e-02 -4.768827557563781738e-02 1.528811752796173096e-01 7.061590999364852905e-02 6.309670209884643555e-02 -3.945128247141838074e-02 -1.115666404366493225e-01 -1.148000806570053101e-01 -1.624869257211685181e-01 2.653291076421737671e-02 -5.249537527561187744e-02 8.850889652967453003e-02 -2.257169038057327271e-01 1.891174912452697754e-01 1.012899652123451233e-01 5.369281396269798279e-02 8.619006723165512085e-02 -8.773211389780044556e-02 1.598064005374908447e-01 -1.596575379371643066e-01 1.195578724145889282e-01 3.551480546593666077e-02 -1.463353913277387619e-02 6.903690844774246216e-02 1.415316015481948853e-01 1.069631278514862061e-01 8.214640617370605469e-02 1.169982403516769409e-01 -4.002746567130088806e-02 -8.256994187831878662e-02 5.333311855792999268e-02 -1.367454081773757935e-01 -3.258547559380531311e-02 1.066946983337402344e-01 -3.171391040086746216e-02 9.897952526807785034e-02 -3.419090760871767998e-03 7.814780622720718384e-02 -6.809103488922119141e-02 1.589450240135192871e-01 1.629258692264556885e-01 1.698233187198638916e-01 1.373125314712524414e-01 9.399902075529098511e-03 6.423739343881607056e-02 1.126186549663543701e-01 -4.137500748038291931e-02 -6.068024784326553345e-02 -2.127777934074401855e-01 -1.509248316287994385e-01 -6.066408008337020874e-02
-7.649264484643936157e-02 -2.510845288634300232e-02 -7.134948857128620148e-03 -1.581804603338241577e-01 1.246532276272773743e-01 2.535718120634555817e-02 5.173626169562339783e-02 -8.704792708158493042e-02 -1.022807657718658447e-01 1.940389536321163177e-02 -7.179770618677139282e-02 -1.022032424807548523e-01 6.822581589221954346e-02 5.495534092187881470e-02 8.794812858104705811e-02 9.269758313894271851e-02 -4.493347927927970886e-02 -2.173519320785999298e-02 1.458305027335882187e-02 -6.572709232568740845e-02 -8.564946055412292480e-02 8.500364422798156738e-02 2.203166484832763672e-02 1.448659896850585938e-01 -7.819889485836029053e-02 1.164415180683135986e-01 -1.160944551229476929e-01 1.290112920105457306e-02 -5.061970092356204987e-03 4.719799011945724487e-02 -9.787897765636444092e-02 1.590745337307453156e-02 -3.193541616201400757e-02 -1.118106395006179810e-02 -5.500156059861183167e-02 1.334467623382806778e-02 -8.650328963994979858e-02 -1.520901545882225037e-02 2.638265676796436310e-02 -3.604577854275703430e-02 -4.821712523698806763e-02 -1.165956631302833557e-01 -2.197815664112567902e-02 1.177655532956123352e-02 4.609531536698341370e-02 4.111862927675247192e-02 3.499833494424819946e-02 1.212506648153066635e-02 4.438808187842369080e-02 6.019533425569534302e-02 4.512162506580352783e-02 -6.373393535614013672e-02 5.194519460201263428e-02 -3.340563271194696426e-03 -1.103164404630661011e-01 -2.008208073675632477e-02 -1.083221584558486938e-01 -5.810602754354476929e-02 -1.779664866626262665e-02 -8.028899878263473511e-02 -2.760701812803745270e-02 1.510325819253921509e-02 -1.721360534429550171e-01 7.694912701845169067e-02 -5.729150492697954178e-03 -1.434348076581954956e-01 -6.365485489368438721e-02 -8.537473529577255249e-02 7.536310702562332153e-02 -1.498662978410720825e-01 -6.153618916869163513e-02 -5.219012964516878128e-03 6.509400159120559692e-02 5.229655280709266663e-02 -1.254871487617492676e-01 -1.830790042877197266e-01 -1.922663599252700806e-01 7.558271288871765137e-02 8.186142891645431519e-03 -7.773465663194656372e-02 -1.584535539150238037e-01 -1.569361686706542969e-01 1.233258917927742004e-01 -3.011079877614974976e-02 7.682235538959503174e-02 2.491779625415802002e-02 2.337200567126274109e-02 4.388617351651191711e-02 -7.999587804079055786e-02 2.997860871255397797e-02 -1.878235302865505219e-02 3.330207988619804382e-02 -1.617299616336822510e-01 -1.175787970423698425e-01 1.100369542837142944e-01 -5.067740380764007568e-02 -8.965426683425903320e-02 -6.838275492191314697e-02 -3.778271377086639404e-02 4.283816087990999222e-03 2.907252637669444084e-03 -4.137874115258455276e-03 5.579009652137756348e-03 -1.134376414120197296e-02 4.192455485463142395e-02 -7.103507220745086670e-02 3.978407010436058044e-02 -1.242280844599008560e-02 1.795993931591510773e-02 8.114095032215118408e-02 1.762702688574790955e-02 -1.228056568652391434e-02 2.760406350716948509e-03 5.056191608309745789e-02 1.077072918415069580e-01 -7.487776875495910645e-02 -1.222406476736068726e-01 -9.394811093807220459e-02 -4.472196102142333984e-02 6.432569026947021484e-02
1.934614218771457672e-02 1.036877185106277466e-01 5.504402518272399902e-02 -7.020298391580581665e-02 -2.012884244322776794e-02 -2.094164676964282990e-02 -4.221362620592117310e-02 5.127870291471481323e-02 6.666214764118194580e-02 2.086704224348068237e-01 6.077446043491363525e-02 -5.374984815716743469e-02 1.216058339923620224e-02 -1.397965755313634872e-02 -9.170764125883579254e-03 -1.451882570981979370e-01 3.707518056035041809e-02 2.795502170920372009e-02 -5.251040309667587280e-02 5.410950630903244019e-02 -5.585915222764015198e-02 -1.423904895782470703e-01 1.415650844573974609e-01 1.709562093019485474e-01 4.416929185390472412e-02 -1.252115815877914429e-01 -3.541603684425354004e-02 -3.205901384353637695e-02 -9.154994040727615356e-02 7.481440901756286621e-02 -1.003673449158668518e-01 9.988202154636383057e-02 -2.550479769706726074e-01 -5.664749071002006531e-02 -9.462565928697586060e-02 -2.901191636919975281e-02 -1.408537570387125015e-02 -3.558358643203973770e-03 -7.806755136698484421e-03 3.046269156038761139e-02 -6.362449377775192261e-02 5.889087542891502380e-02 -7.822896540164947510e-02 2.293889075517654419e-01 -1.504640281200408936e-01 -8.691921085119247437e-02 -1.546536237001419067e-01 5.682363361120223999e-02 8.631603419780731201e-02 -9.320097975432872772e-03 2.043555229902267456e-01 4.106482863426208496e-02 -6.110331788659095764e-02 1.697681657969951630e-02 7.985012233257293701e-02 -1.330557167530059814e-01 1.407586336135864258e-01 3.611258789896965027e-02 -7.066458463668823242e-03 2.227650023996829987e-02 6.568612158298492432e-02 5.788104608654975891e-02 1.385224610567092896e-01 -4.055552557110786438e-02 1.426879912614822388e-01 -9.091665595769882202e-02 8.506719022989273071e-03 -1.979185966774821281e-03 -4.978252574801445007e-02 -5.923039838671684265e-02 4.391995444893836975e-02 -7.152401655912399292e-02 1.778718642890453339e-02 -4.099860042333602905e-02 1.117065399885177612e-01 -9.103944897651672363e-02 -6.881473213434219360e-02 1.413263976573944092e-01 4.981426894664764404e-02 -1.308130770921707153e-01 1.447544395923614502e-01 -4.562148079276084900e-02 2.367063313722610474e-01 -1.894463151693344116e-01 3.261585906147956848e-02 -1.629267260432243347e-02 7.596969604492187500e-02 1.856422424316406250e-01 -1.176350861787796021e-01 3.908015042543411255e-02 6.995107233524322510e-02 7.859439402818679810e-02 2.108957469463348389e-01 5.376821756362915039e-02 6.504094600677490234e-02 7.552495598793029785e-02 8.749715238809585571e-02 5.590004473924636841e-02 9.594283998012542725e-02 6.291761994361877441e-02 -1.621288061141967773e-01 -6.386703997850418091e-02 2.532416582107543945e-02 -8.278845995664596558e-02 1.289054155349731445e-01 6.854604184627532959e-02 1.340584903955459595e-01 5.774185806512832642e-02 2.035845071077346802e-01 -2.016714513301849365e-01 2.286526188254356384e-02 9.057752788066864014e-02 4.497965425252914429e-02 2.237191423773765564e-02 -5.843063071370124817e-02 1.750355958938598633e-02 -1.076005026698112488e-01 -5.508204177021980286e-02 -1.031445711851119995e-01 3.868492785841226578e-03
5.918106436729431152e-02 6.499259918928146362e-02 3.646621713414788246e-03 3.876956179738044739e-02 -6.989012658596038818e-02 -2.083753645420074463e-01 1.195208821445703506e-02 -1.877747178077697754e-01 7.423190772533416748e-02 -1.847206950187683105e-01 -3.080308251082897186e-02 -1.049704551696777344e-01 4.106121510267257690e-02 -3.690784052014350891e-02 -3.034249879419803619e-02 3.483447432518005371e-02 -9.853911399841308594e-02 1.707204580307006836e-01 2.966871112585067749e-02 -7.880492135882377625e-03 2.509707212448120117e-02 -1.445797644555568695e-02 -1.044697910547256470e-01 -2.339318394660949707e-01 1.119552999734878540e-01 1.072277221828699112e-02 1.173384115099906921e-01 2.089163102209568024e-02 1.592467427253723145e-01 7.039643824100494385e-02 -4.958292935043573380e-03 -1.834690868854522705e-01 -8.123648166656494141e-02 -8.371268957853317261e-02 3.577604144811630249e-02 -8.390901982784271240e-02 -9.357794374227523804e-02 5.245373025536537170e-02 -8.089213818311691284e-02 -3.829725831747055054e-02 -3.140978887677192688e-02 8.207289129495620728e-02 6.282725930213928223e-02 -8.886883407831192017e-02 -2.687480747699737549e-01 -1.480722054839134216e-02 -3.647065162658691406e-02 -1.053796932101249695e-01 -6.219988316297531128e-02 2.308827638626098633e-01 -3.109067082405090332e-01 3.972423449158668518e-02 4.704993218183517456e-02 1.390661001205444336e-01 2.096409909427165985e-02 -2.753962017595767975e-02 1.506305485963821411e-01 -3.011145070195198059e-02 -5.233691632747650146e-02 -2.311812568223103881e-04 -2.442172765731811523e-01 -8.883187174797058105e-02 -4.207790642976760864e-02 -7.712068408727645874e-02 -2.290826849639415741e-02 1.290127187967300415e-01 -1.341572869569063187e-02 1.471699401736259460e-02 1.788025535643100739e-02 3.019333630800247192e-02 -1.415925659239292145e-02 1.007044315338134766e-01 -1.445953268557786942e-03 -4.450311418622732162e-03 5.965917371213436127e-03 2.311595715582370758e-02 3.358955495059490204e-03 1.243216171860694885e-02 -1.648087427020072937e-02 8.484850823879241943e-02 -6.892915815114974976e-02 -4.215953871607780457e-02 5.690873041749000549e-02 4.505910351872444153e-02 4.854752495884895325e-02 -4.750977456569671631e-02 1.760759158059954643e-03 -1.687060594558715820e-01 -5.524946376681327820e-02 -3.021356277167797089e-02 4.392346739768981934e-02 -2.179601415991783142e-02 -8.982524275779724121e-02 1.144997701048851013e-01 -1.204258874058723450e-01 -3.450971469283103943e-02 1.783002912998199463e-01 4.773177206516265869e-02 1.312710940837860107e-01 5.794749781489372253e-02 -2.878338471055030823e-02 -3.112780675292015076e-02 -2.000939846038818359e-01 -3.041786514222621918e-02 -1.827000677585601807e-01 4.048666451126337051e-03 -9.674747288227081299e-02 8.396218717098236084e-02 2.438911236822605133e-02 3.892926499247550964e-02 4.935102537274360657e-02 -2.612054049968719482e-01 1.415704786777496338e-01 1.060404255986213684e-02 -6.308396160602569580e-02 5.832153558731079102e-02 -7.214382290840148926e-02 -1.067199744284152985e-02 -5.789280310273170471e-02 3.588624298572540283e-02
1.193836424499750137e-02 -2.049904782325029373e-03 3.470025956630706787e-02 4.114833474159240723e-02 -5.416767299175262451e-02 -3.610872849822044373e-02 3.906681016087532043e-02 1.691425591707229614e-01 -9.438088536262512207e-02 -5.383004620671272278e-02 -6.798949837684631348e-02 1.114610657095909119e-01 -4.152402654290199280e-02 6.596646737307310104e-03 -3.846601396799087524e-02 4.660507291555404663e-02 1.999188773334026337e-02 1.087224408984184265e-01 -6.452329456806182861e-02 5.129724740982055664e-02 5.996933951973915100e-02 -2.899996191263198853e-02 1.665921211242675781e-01 8.218211680650711060e-02 4.314358532428741455e-02 -3.092819750308990479e-01 6.648060679435729980e-02 1.794341765344142914e-02 6.287444382905960083e-02 3.235971182584762573e-02 -4.251382872462272644e-02 4.025823250412940979e-02 -1.100215390324592590e-01 1.888394035631790757e-04 4.720725119113922119e-02 -6.804019957780838013e-02 7.817485369741916656e-03 1.254665702581405640e-01 -4.413623735308647156e-02 -4.324234277009963989e-02 5.769411846995353699e-02 -6.527401506900787354e-03 8.446831256151199341e-02 -1.371294446289539337e-02 -6.023938208818435669e-02 -1.810255199670791626e-01 -4.262374714016914368e-03 1.010220199823379517e-01 -3.901613131165504456e-02 2.178089022636413574e-01 -6.992033869028091431e-02 3.450934216380119324e-02 -5.202287808060646057e-02 7.026740908622741699e-02 3.393400460481643677e-02 -1.366157233715057373e-01 6.365176290273666382e-02 3.158891573548316956e-02 5.274613387882709503e-03 8.859158307313919067e-02 -1.723177134990692139e-01 1.072384417057037354e-01 -2.688227919861674309e-03 -2.018876560032367706e-02 2.590305171906948090e-02 6.349833309650421143e-02 4.352883249521255493e-02 3.028634376823902130e-02 3.585891425609588623e-02 -1.087675094604492188e-01 8.820116519927978516e-02 -7.547685503959655762e-02 -8.800352364778518677e-02 -6.587428599596023560e-02 7.692048698663711548e-02 7.359236478805541992e-02 2.635807730257511139e-02 -2.356512397527694702e-01 1.054845526814460754e-01 -2.593410611152648926e-01 5.114174634218215942e-02 -6.613970547914505005e-02 -1.103857345879077911e-02 1.790343225002288818e-02 1.790931262075901031e-02 -5.714818462729454041e-02 -2.051851525902748108e-02 -2.128690779209136963e-01 1.751435995101928711e-01 8.707646280527114868e-02 1.339845955371856689e-01 2.844255045056343079e-02 1.730222105979919434e-01 -1.929658278822898865e-02 3.120175935328006744e-02 -6.465800851583480835e-02 -1.003766879439353943e-01 -7.446906715631484985e-02 -1.034208089113235474e-01 2.809051238000392914e-02 1.502417773008346558e-02 7.209081947803497314e-02 -8.841551095247268677e-02 -3.506780043244361877e-02 9.375824034214019775e-02 9.386020153760910034e-02 1.121388152241706848e-01 -3.422580659389495850e-02 1.378347538411617279e-02 -6.603745371103286743e-02 -7.458456605672836304e-02 9.266783599741756916e-04 1.979037970304489136e-01 -1.038694083690643311e-01 9.705334901809692383e-02 -5.761918425559997559e-02 1.546184420585632324e-01 -1.489407964982092381e-03 3.651467710733413696e-02 4.090624302625656128e-02
1.261914670467376709e-01 -8.699760586023330688e-02 1.009831726551055908e-01 1.463866680860519409e-01 5.273569747805595398e-02 -1.608465313911437988e-01 1.504734810441732407e-02 6.033885106444358826e-02 -2.890779264271259308e-02 -1.861244440078735352e-02 -2.603175677359104156e-02 7.123284041881561279e-02 -6.378611922264099121e-02 2.742307633161544800e-02 -3.867601742967963219e-03 9.771700948476791382e-02 7.666165381669998169e-02 5.686568841338157654e-02 -1.075109615921974182e-01 -1.140705682337284088e-02 -6.971248239278793335e-02 5.688905343413352966e-02 1.081649214029312134e-01 -1.629774123430252075e-01 4.400525242090225220e-02 -1.213245838880538940e-01 3.288836404681205750e-02 8.554182713851332664e-04 -1.042182520031929016e-01 9.001524001359939575e-02 1.727059334516525269e-01 -4.070418328046798706e-02 4.293068498373031616e-02 3.120066225528717041e-02 -3.236130252480506897e-02 -6.941402703523635864e-02 -1.957061290740966797e-01 9.658657014369964600e-03 4.521487280726432800e-02 -8.724439144134521484e-02 -7.517914474010467529e-02 1.627113074064254761e-01 3.127051517367362976e-02 1.474323309957981110e-02 -7.769984006881713867e-02 3.207487985491752625e-02 4.184472933411598206e-02 -1.752484217286109924e-02 -7.102296501398086548e-02 3.453043699264526367e-01 3.902925178408622742e-02 5.139062926173210144e-02 2.340790443122386932e-02 2.625542581081390381e-01 1.120356246829032898e-01 5.589830502867698669e-02 5.843710154294967651e-02 -8.426904678344726562e-02 -4.534793272614479065e-02 8.757731877267360687e-03 2.575174570083618164e-01 -4.988856241106987000e-02 4.942489787936210632e-02 1.923961564898490906e-02 -1.162229552865028381e-01 1.417534798383712769e-01 -3.438666835427284241e-02 -2.072466462850570679e-01 3.679205430671572685e-03 4.164358973503112793e-02 1.356711238622665405e-01 2.532779276371002197e-01 -6.787085533142089844e-02 -8.485062979161739349e-03 -3.077822923660278320e-02 -5.223206430673599243e-02 2.541650272905826569e-02 1.032740920782089233e-01 4.968374967575073242e-02 -1.396000385284423828e-03 3.632384818047285080e-03 1.184875965118408203e-01 1.578786075115203857e-01 9.363714605569839478e-02 3.514128923416137695e-02 -5.072529241442680359e-02 8.721985667943954468e-02 2.275785207748413086e-01 -3.412225842475891113e-02 -6.559365987777709961e-02 5.376400798559188843e-02 1.555700153112411499e-01 -6.080166250467300415e-02 6.501597911119461060e-02 -5.189983174204826355e-02 2.406472153961658478e-02 1.656459569931030273e-01 5.620989203453063965e-02 1.394191533327102661e-01 4.106407612562179565e-02 -1.119049936532974243e-01 3.038155660033226013e-02 -1.489041596651077271e-01 4.004122316837310791e-02 6.479930132627487183e-02 7.635418325662612915e-02 -6.856150925159454346e-02 2.572020888328552246e-02 4.406679887324571609e-03 -7.064658403396606445e-02 5.268172547221183777e-02 1.825786195695400238e-02 1.487172394990921021e-01 9.734220802783966064e-02 -4.483420401811599731e-02 5.664728209376335144e-02 -1.529094018042087555e-02 -3.983771428465843201e-02 1.246040984988212585e-01 -1.089352071285247803e-01
-7.584366947412490845e-02 3.084288723766803741e-02 6.104197725653648376e-02 5.434282124042510986e-02 -6.082057580351829529e-02 -6.230599433183670044e-02 -9.953255951404571533e-02 7.050278782844543457e-02 4.908461123704910278e-02 -2.060479018837213516e-03 -7.630993425846099854e-02 2.645580843091011047e-02 -3.370491042733192444e-02 4.916067421436309814e-02 -4.171174764633178711e-02 2.107557281851768494e-02 -1.041110381484031677e-01 1.308677531778812408e-02 6.473182886838912964e-02 -7.393307983875274658e-02 -5.128965526819229126e-02 -3.955627605319023132e-02 -3.876494988799095154e-02 4.635430872440338135e-02 -1.208363622426986694e-01 2.235191874206066132e-02 5.393013730645179749e-02 -1.020306795835494995e-01 -4.426687664818018675e-04 1.719232648611068726e-02 -1.443945989012718201e-02 1.441237702965736389e-02 -5.023704096674919128e-02 -1.300420332700014114e-02 7.536166813224554062e-03 -2.892284095287322998e-02 -1.106854006648063660e-01 2.706805244088172913e-02 -6.351843476295471191e-02 1.422784663736820221e-02 1.250601280480623245e-02 3.800421953201293945e-02 1.943998783826828003e-02 2.079367451369762421e-02 4.834134876728057861e-02 1.937313936650753021e-02 -3.219917044043540955e-02 -8.693826943635940552e-02 6.445487588644027710e-02 -1.366370916366577148e-02 1.983706839382648468e-02 3.388415649533271790e-02 -1.751882140524685383e-03 -4.445368051528930664e-02 -5.400851368904113770e-02 -2.370620146393775940e-03 -6.414800137281417847e-02 -9.388650208711624146e-02 -4.912205785512924194e-02 -3.510395064949989319e-02 -3.853757865726947784e-03 -7.886918634176254272e-02 -5.350446701049804688e-02 6.506046652793884277e-02 4.568097181618213654e-03 -4.278937820345163345e-03 8.548452705144882202e-02 -6.249507144093513489e-02 2.951354719698429108e-02 -1.840014569461345673e-02 -3.014201484620571136e-02 -9.502046555280685425e-02 2.895577251911163330e-02 -9.041583538055419922e-02 -6.365090608596801758e-02 -1.135049611330032349e-01 3.566947951912879944e-02 -5.802483484148979187e-02 3.533735126256942749e-02 -6.650169193744659424e-02 -7.383677363395690918e-02 -4.122129455208778381e-02 -2.241590619087219238e-02 -1.450727786868810654e-02 -6.708683818578720093e-02 7.525810599327087402e-02 -2.401406131684780121e-02 -5.155656114220619202e-02 -1.019405201077461243e-01 -8.134176582098007202e-02 -5.425698682665824890e-02 -9.131378680467605591e-02 3.726810682564973831e-03 -7.085703313350677490e-02 2.751365769654512405e-03 -7.446418702602386475e-02 -7.519020885229110718e-02 -3.889248147606849670e-02 2.635239250957965851e-02 2.778826653957366943e-02 4.859983175992965698e-02 3.486561402678489685e-02 -1.296976804733276367e-01 6.759719550609588623e-02 -8.049188181757926941e-03 -1.250551342964172363e-01 -7.129254937171936035e-02 4.497532173991203308e-02 4.275350272655487061e-02 -1.881541311740875244e-02 -1.405479013919830322e-01 -1.047722809016704559e-02 -5.784717574715614319e-02 1.022311951965093613e-02 2.330160140991210938e-02 -8.915479481220245361e-02 -4.575461521744728088e-02 -5.646114051342010498e-02 7.694027852267026901e-03 -8.126415312290191650e-02
-9.240381419658660889e-02 3.413098305463790894e-02 -3.237761557102203369e-02 1.182433888316154480e-01 -6.378450989723205566e-02 8.053902536630630493e-02 1.164717376232147217e-01 -2.362871915102005005e-02 7.199250906705856323e-02 9.064817428588867188e-02 -9.466082789003849030e-03 1.302848756313323975e-01 2.636076509952545166e-02 6.717462837696075439e-02 9.719447046518325806e-02 5.480849742889404297e-02 -9.365607053041458130e-02 -3.501233831048011780e-02 6.048491969704627991e-02 -1.541132479906082153e-01 3.912522643804550171e-02 1.089091449975967407e-01 4.491013288497924805e-02 -1.174938902258872986e-01 1.433169990777969360e-01 3.073171153664588928e-02 2.057810686528682709e-02 1.160396486520767212e-01 -7.193035632371902466e-02 1.217932626605033875e-01 5.031416937708854675e-02 7.689155638217926025e-02 1.461931969970464706e-02 6.083076354116201401e-03 4.905646666884422302e-02 2.310740016400814056e-02 4.902322962880134583e-02 8.024030923843383789e-02 1.582133173942565918e-01 1.127303205430507660e-02 9.678131900727748871e-03 1.029764786362648010e-01 7.101985067129135132e-02 -1.575324870645999908e-02 8.447209000587463379e-02 1.747476607561111450e-01 -3.400308638811111450e-02 -6.391406804323196411e-02 3.475593030452728271e-02 6.220652535557746887e-02 -3.607439994812011719e-02 -6.236058473587036133e-02 -1.533530466258525848e-02 -7.419879548251628876e-03 3.560102358460426331e-02 2.179888933897018433e-01 7.384203840047121048e-03 -4.815024510025978088e-02 -1.320947427302598953e-02 8.508371561765670776e-02 -4.104138165712356567e-02 -7.652016729116439819e-02 1.018459349870681763e-02 -1.630422472953796387e-02 2.593461982905864716e-02 4.389150440692901611e-02 -2.992588467895984650e-02 -7.951836287975311279e-02 9.307575412094593048e-03 -4.152956977486610413e-02 8.454338461160659790e-02 -2.010536193847656250e-01 -4.851825907826423645e-02 4.304351285099983215e-02 1.808487623929977417e-02 8.856829255819320679e-02 8.659224957227706909e-03 6.645322591066360474e-02 -8.058941364288330078e-02 9.896543622016906738e-02 4.382830858230590820e-02 9.785845875740051270e-02 -1.704045236110687256e-01 2.897835671901702881e-01 6.492234766483306885e-02 -9.284181147813796997e-02 3.863110020756721497e-02 -8.074525743722915649e-02 1.297682076692581177e-01 -1.291819568723440170e-02 3.803282231092453003e-02 7.195729762315750122e-02 -1.065539196133613586e-01 -2.730335481464862823e-02 -4.861517250537872314e-02 6.072401255369186401e-02 -1.312001794576644897e-01 1.129710525274276733e-01 -7.069280743598937988e-02 6.346476078033447266e-02 -6.416423618793487549e-02 -1.421804632991552353e-02 -5.359514057636260986e-02 3.327863290905952454e-02 9.064394980669021606e-03 1.655218377709388733e-02 -1.834003441035747528e-02 1.397050917148590088e-01 -1.146247982978820801e-01 1.180821210145950317e-01 -6.369198858737945557e-02 -1.339711099863052368e-01 -4.245204851031303406e-02 -6.220910698175430298e-02 1.149214878678321838e-01 -5.247513949871063232e-02 1.551409363746643066e-01 -1.364518422633409500e-02 3.812734037637710571e-02 -4.920795559883117676e-02
3.066474571824073792e-03 9.076778776943683624e-03 2.615623362362384796e-02 -1.110325008630752563e-02 2.903907559812068939e-03 4.302747547626495361e-02 9.367936849594116211e-02 -1.947262696921825409e-02 -1.175000742077827454e-01 -2.288813591003417969e-01 -8.580754697322845459e-02 4.742803052067756653e-02 4.883157089352607727e-02 4.636845551431179047e-03 1.954250782728195190e-02 1.477125734090805054e-01 -4.746864363551139832e-02 5.480103194713592529e-02 3.286575898528099060e-02 -2.880651969462633133e-03 1.099209189414978027e-01 2.650459297001361847e-02 -1.225868239998817444e-02 -6.899148970842361450e-02 4.984692111611366272e-02 -9.134336560964584351e-02 -5.335301160812377930e-02 1.796471625566482544e-01 2.773213386535644531e-01 6.638704985380172729e-02 -7.708527892827987671e-02 -5.635532736778259277e-02 2.531739510595798492e-02 6.047118827700614929e-02 -2.326857484877109528e-02 2.464322932064533234e-02 1.611816138029098511e-01 1.422647684812545776e-01 6.012182682752609253e-02 2.273765765130519867e-02 -7.510975468903779984e-03 -7.192592322826385498e-02 1.430644541978836060e-01 -1.426461488008499146e-01 -5.440953373908996582e-02 -1.439127326011657715e-02 -6.407944113016128540e-02 -1.125325337052345276e-01 6.038616225123405457e-02 -4.210356995463371277e-02 6.164348870515823364e-02 -4.361215047538280487e-03 5.126557126641273499e-02 -1.513318121433258057e-01 -2.090477645397186279e-01 -1.314702033996582031e-01 2.459307201206684113e-02 7.005130499601364136e-02 1.133941560983657837e-01 1.225610151886940002e-01 -2.883909344673156738e-01 -3.505176678299903870e-02 1.238163113594055176e-01 -9.595867246389389038e-03 8.611296070739626884e-04 4.600413888692855835e-02 -7.278236001729965210e-02 1.598500311374664307e-01 8.560077846050262451e-02 7.140631973743438721e-02 -6.386265624314546585e-03 -2.927257418632507324e-01 -6.940907239913940430e-02 -2.466393448412418365e-02 -1.042238622903823853e-02 7.314178347587585449e-02 -1.087576299905776978e-01 -1.061931848526000977e-01 4.564286023378372192e-02 -9.428138285875320435e-02 -6.633833795785903931e-02 1.292239874601364136e-01 -1.248717904090881348e-01 2.763878926634788513e-02 -1.770791597664356232e-02 1.958572119474411011e-02 -8.891954272985458374e-02 -2.860358059406280518e-01 1.397751737385988235e-02 4.579144716262817383e-02 1.193509697914123535e-01 -1.033758670091629028e-01 -1.337132006883621216e-01 2.015514671802520752e-02 7.393290847539901733e-02 1.315218359231948853e-01 -1.724543869495391846e-01 3.523038700222969055e-02 -2.596138045191764832e-02 2.686060220003128052e-02 5.130080506205558777e-02 -7.614482194185256958e-02 2.801293320953845978e-02 -7.616014778614044189e-02 -5.745191499590873718e-02 8.013495802879333496e-02 -1.421193480491638184e-01 7.535326480865478516e-02 -8.106324076652526855e-02 3.898597508668899536e-02 7.693133503198623657e-02 -1.124470829963684082e-01 8.322955109179019928e-03 7.595520466566085815e-02 3.157116100192070007e-02 -1.616388931870460510e-02 1.846357993781566620e-02 4.761616513133049011e-02 1.461120545864105225e-01 8.191551268100738525e-02
1.446288973093032837e-01 -6.460686773061752319e-02 5.857801437377929688e-02 -3.084675781428813934e-02 9.338071942329406738e-02 -3.927469998598098755e-02 2.582830935716629028e-02 1.107177697122097015e-02 -5.339826643466949463e-02 2.135711722075939178e-02 -4.891267046332359314e-02 -2.569631114602088928e-02 -1.291972100734710693e-01 8.084759116172790527e-02 2.817210555076599121e-02 -1.976955384016036987e-01 -5.377471819519996643e-02 8.289001882076263428e-03 1.665139347314834595e-01 -8.682607114315032959e-02 -7.537003606557846069e-02 -1.528692394495010376e-01 8.313935995101928711e-02 -1.522652953863143921e-01 -1.315541267395019531e-01 1.167002022266387939e-01 -1.702356338500976562e-01 9.769736975431442261e-02 -1.583372056484222412e-01 3.666746243834495544e-02 -1.688066720962524414e-01 -8.504401892423629761e-02 1.088040601462125778e-02 -4.514158889651298523e-02 -5.629098042845726013e-02 -8.138657361268997192e-02 3.553525602910667658e-04 -1.100889295339584351e-01 3.930959478020668030e-02 1.505106594413518906e-02 7.363857328891754150e-02 3.124717064201831818e-02 4.263456538319587708e-02 -1.553311794996261597e-01 1.505199968814849854e-01 2.102950401604175568e-02 5.524574592709541321e-02 -5.862348526716232300e-02 8.347516506910324097e-02 4.045358300209045410e-02 8.182991296052932739e-02 -1.544447541236877441e-01 -2.386549115180969238e-02 -1.525609940290451050e-01 5.653097853064537048e-02 -8.097204566001892090e-02 -7.490328699350357056e-02 -1.082070320844650269e-01 -8.902444690465927124e-02 -7.896418869495391846e-02 -6.969801336526870728e-02 2.057362347841262817e-02 6.790053099393844604e-02 -1.096438709646463394e-02 -6.749962270259857178e-02 5.926328897476196289e-02 2.358421683311462402e-02 -5.485448613762855530e-02 8.869281411170959473e-02 6.184137612581253052e-02 -3.912793099880218506e-02 -8.247499912977218628e-02 -6.581564247608184814e-02 7.014275342226028442e-02 6.629650946706533432e-03 -6.659956276416778564e-02 -1.664439290761947632e-01 -4.568504169583320618e-02 -1.128764599561691284e-01 -7.028383761644363403e-02 -3.369659557938575745e-02 1.443110965192317963e-02 -9.218154102563858032e-02 -3.547998890280723572e-02 -4.821943491697311401e-02 -8.849749714136123657e-02 1.215357556939125061e-01 -1.078913286328315735e-01 3.294512629508972168e-02 -6.081373989582061768e-02 2.736759744584560394e-02 3.355441242456436157e-02 -1.065986230969429016e-01 9.803891181945800781e-02 4.229113087058067322e-02 -1.129316538572311401e-01 -1.224685460329055786e-01 5.537905171513557434e-02 -5.316210910677909851e-02 -8.985109627246856689e-02 -1.011321768164634705e-01 -1.634476520121097565e-02 -3.539909794926643372e-02 -9.107001125812530518e-02 7.537596672773361206e-02 -9.543597698211669922e-02 4.780063871294260025e-03 6.541777402162551880e-02 -1.086095999926328659e-02 -1.996041536331176758e-01 -9.873072057962417603e-02 -1.828832030296325684e-01 -1.155928522348403931e-01 5.602700263261795044e-02 -2.274663001298904419e-01 -8.602041751146316528e-03 -6.524363532662391663e-03 -6.066213920712471008e-02 8.181082457304000854e-02 -5.589222908020019531e-02
-1.549560129642486572e-01 4.959816113114356995e-02 -3.431238234043121338e-02 -9.722455590963363647e-02 2.983923442661762238e-02 7.268272340297698975e-02 -1.359258592128753662e-01 -1.581010818481445312e-01 -3.447551280260086060e-02 2.125182896852493286e-01 4.762756079435348511e-02 -3.110535144805908203e-01 1.213960465975105762e-03 7.592730969190597534e-02 -6.126175448298454285e-02 1.344964206218719482e-01 4.596534371376037598e-02 -1.630987524986267090e-01 -1.648204624652862549e-01 1.093556880950927734e-01 8.422803878784179688e-02 -1.138452067971229553e-01 2.652406459674239159e-03 1.090098172426223755e-01 7.918427139520645142e-02 2.511160261929035187e-02 1.076256185770034790e-01 -7.651983201503753662e-02 -2.359866797924041748e-01 1.220208480954170227e-01 -2.598680183291435242e-02 -1.875036358833312988e-01 -3.503842279314994812e-02 -7.757873088121414185e-02 1.860802620649337769e-01 -1.495597325265407562e-02 -1.691492199897766113e-01 -1.415958553552627563e-01 -9.828526526689529419e-02 1.521023213863372803e-01 6.816890090703964233e-02 -1.330271214246749878e-01 3.060187958180904388e-02 -4.346593469381332397e-02 -1.443138122558593750e-01 8.890928328037261963e-02 9.291236102581024170e-02 1.783963441848754883e-01 -6.853485852479934692e-02 1.260123103857040405e-01 -2.387974858283996582e-01 7.528639584779739380e-02 -3.517422825098037720e-02 -9.067174047231674194e-02 1.294278055429458618e-01 1.009136885404586792e-01 -5.572058632969856262e-02 -6.571686267852783203e-02 2.476564049720764160e-02 -9.929827600717544556e-02 7.926209270954132080e-02 -4.447793588042259216e-02 -4.337863624095916748e-02 -6.992900744080543518e-03 -1.976521909236907959e-01 -3.831799700856208801e-02 -2.117301896214485168e-02 -9.289655089378356934e-02 -1.748649217188358307e-02 -1.344629526138305664e-01 1.466052234172821045e-01 9.445373713970184326e-02 9.644384682178497314e-02 6.388406455516815186e-02 -1.782007217407226562e-01 -5.785970017313957214e-02 2.327116392552852631e-02 3.901290148496627808e-02 -6.217416748404502869e-02 1.902489513158798218e-01 -1.164019480347633362e-01 -1.058763191103935242e-01 1.607700884342193604e-01 1.399305611848831177e-01 5.791730433702468872e-02 8.434189110994338989e-02 -1.391503121703863144e-02 7.276976853609085083e-02 -5.068701691925525665e-03 -1.657358370721340179e-02 3.734644874930381775e-02 8.648754656314849854e-02 -2.200951240956783295e-02 -5.502331629395484924e-02 1.046635359525680542e-01 7.363653928041458130e-02 8.760734647512435913e-02 5.214584618806838989e-02 4.608270898461341858e-02 -1.291451603174209595e-02 5.921490490436553955e-02 7.897679507732391357e-02 9.435501880943775177e-03 -2.697161771357059479e-02 -4.540050402283668518e-02 -3.893161937594413757e-02 1.666707396507263184e-01 -1.558189243078231812e-01 6.653717905282974243e-02 -3.414468094706535339e-02 9.482572972774505615e-02 4.840853437781333923e-02 -2.507752366364002228e-02 -1.891810446977615356e-03 1.730049252510070801e-01 -4.457985982298851013e-02 -1.187471374869346619e-01 1.026546284556388855e-01 -2.700901329517364502e-01 -5.078776180744171143e-02
-3.151396661996841431e-02 3.800408914685249329e-02 -6.062462180852890015e-02 6.969225406646728516e-02 -4.862980544567108154e-02 -1.286821514368057251e-01 -1.678744852542877197e-01 1.075421273708343506e-01 5.209814012050628662e-02 1.178243532776832581e-01 1.589676588773727417e-01 1.580290943384170532e-01 -6.799558550119400024e-02 -3.904894739389419556e-02 -8.152712881565093994e-02 -5.029282718896865845e-02 2.582943066954612732e-03 1.585824191570281982e-01 -1.212773323059082031e-01 6.979516148567199707e-02 7.423479110002517700e-02 -1.042863726615905762e-01 -4.841650649905204773e-02 -1.916625201702117920e-01 1.301971673965454102e-01 -1.221134439110755920e-01 4.052389785647392273e-02 6.990111619234085083e-02 -2.504255063831806183e-02 -1.052650287747383118e-01 -5.775577202439308167e-02 -3.497082041576504707e-03 -1.439993083477020264e-01 6.609278172254562378e-02 -2.444119937717914581e-02 1.003780122846364975e-02 -6.446807086467742920e-02 -4.880696907639503479e-02 -2.267931401729583740e-02 -4.948063939809799194e-02 -4.271753132343292236e-02 1.546983141452074051e-03 9.466157108545303345e-02 -8.124603331089019775e-02 3.342927992343902588e-02 -1.672777980566024780e-01 -5.375759303569793701e-02 -3.401194885373115540e-02 8.059233427047729492e-02 1.163961812853813171e-01 -8.886040002107620239e-02 -5.891665816307067871e-03 -5.263144150376319885e-03 1.733980774879455566e-01 -1.087710037827491760e-01 2.520180866122245789e-02 -1.052954643964767456e-01 4.047464753966778517e-04 7.573021948337554932e-02 7.132597267627716064e-02 3.214826434850692749e-02 -1.365070641040802002e-01 -5.648744478821754456e-02 -5.988199636340141296e-02 -1.782715916633605957e-01 3.134917467832565308e-02 -3.847461566329002380e-02 -2.819938398897647858e-02 4.941888898611068726e-02 1.116221696138381958e-01 3.322622505947947502e-03 -7.360913604497909546e-02 -1.231529861688613892e-01 -2.931722439825534821e-02 7.410817593336105347e-02 1.514685899019241333e-01 7.854205369949340820e-02 -1.354396045207977295e-01 2.973730675876140594e-02 -7.783731073141098022e-02 1.544429957866668701e-01 1.173513606190681458e-01 -1.501255035400390625e-01 1.104537546634674072e-01 -4.114390909671783447e-02 1.197281200438737869e-02 7.432620227336883545e-02 -1.044147536158561707e-01 1.220224797725677490e-01 1.250248253345489502e-01 1.241705268621444702e-01 1.361210942268371582e-01 1.318813860416412354e-02 1.257313340902328491e-01 -2.207883894443511963e-01 -4.386493936181068420e-02 9.161775559186935425e-02 8.008454740047454834e-02 1.560562998056411743e-01 -8.927360177040100098e-02 9.586190804839134216e-03 -8.496928960084915161e-03 -2.285330742597579956e-01 7.408462464809417725e-02 -3.827131513389758766e-05 -1.159561518579721451e-02 -1.189226284623146057e-01 1.920823156833648682e-01 -4.039544984698295593e-02 4.216326773166656494e-02 -6.516151130199432373e-02 -1.653429567813873291e-01 -1.015276759862899780e-01 -1.927259564399719238e-02 -8.788982033729553223e-02 -4.871504846960306168e-03 1.960277706384658813e-01 8.972457796335220337e-02 6.553206592798233032e-02 1.574935507960617542e-03
-1.674737334251403809e-01 6.209985585883259773e-04 -7.674306631088256836e-03 -6.100520491600036621e-03 -4.109678044915199280e-02 -1.338691264390945435e-01 -7.130594551563262939e-02 3.582130745053291321e-02 -1.420776993036270142e-01 1.168020814657211304e-01 1.252743154764175415e-01 7.111694198101758957e-03 -1.769193634390830994e-02 -3.298931289464235306e-03 -8.173450082540512085e-02 -9.107133746147155762e-02 1.451947540044784546e-01 7.834567129611968994e-02 -4.340336099267005920e-02 8.195358514785766602e-02 1.670343577861785889e-01 4.316128324717283249e-03 7.145238667726516724e-02 2.638540044426918030e-02 1.271168440580368042e-01 -4.674970358610153198e-02 -5.366298556327819824e-02 -4.345563426613807678e-02 4.906218498945236206e-02 -5.955796223133802414e-03 4.187110066413879395e-02 -4.883767571300268173e-03 -2.451771795749664307e-01 -5.384862050414085388e-02 -1.042845323681831360e-01 9.690155833959579468e-02 1.399435009807348251e-02 4.486236721277236938e-02 -6.685791909694671631e-02 1.140187159180641174e-01 1.001804787665605545e-02 -4.688613861799240112e-02 1.848711073398590088e-02 -1.343224644660949707e-01 -3.808069601655006409e-02 -1.646625399589538574e-01 -2.489375472068786621e-01 2.223111875355243683e-02 -2.397105656564235687e-02 8.512831479310989380e-02 2.958347834646701813e-02 -8.121060580015182495e-02 -7.775188982486724854e-02 6.214967370033264160e-02 -9.193181246519088745e-02 4.083037748932838440e-02 -6.863399595022201538e-02 9.660491719841957092e-03 1.346202641725540161e-01 8.425267413258552551e-03 -1.135197374969720840e-02 4.946146532893180847e-02 1.195418369024991989e-02 7.457339763641357422e-02 -6.511578708887100220e-02 5.578976869583129883e-02 1.133777424693107605e-01 -1.697244644165039062e-01 4.492467269301414490e-03 -1.216161623597145081e-02 9.818726032972335815e-02 -2.468661069869995117e-01 -3.496327251195907593e-02 1.347971707582473755e-02 9.809623658657073975e-02 -1.070964429527521133e-02 1.220513358712196350e-01 -1.592656373977661133e-01 8.634357899427413940e-02 -1.882188320159912109e-01 1.621529906988143921e-01 3.338054940104484558e-02 -5.798478610813617706e-03 -1.144154071807861328e-01 6.398053467273712158e-02 6.660453975200653076e-02 -3.647734224796295166e-02 1.437227427959442139e-02 5.775570869445800781e-02 1.719633489847183228e-01 -3.034105896949768066e-02 -6.996104493737220764e-03 1.046843677759170532e-01 -1.384349446743726730e-02 -6.099186092615127563e-02 -3.662921115756034851e-02 1.711622476577758789e-01 -1.036630868911743164e-01 5.042616277933120728e-02 -9.566405788064002991e-03 5.203228071331977844e-02 -1.272284518927335739e-02 -2.049272209405899048e-01 7.089060544967651367e-02 1.405177265405654907e-01 -3.103399649262428284e-02 7.986127398908138275e-03 2.927293814718723297e-02 -2.287416346371173859e-02 -2.083085626363754272e-01 -1.793043129146099091e-02 -1.302288472652435303e-01 -8.149568736553192139e-02 -8.453475311398506165e-03 1.351058110594749451e-02 -1.080611255019903183e-02 1.223100647330284119e-01 1.087276637554168701e-01 8.416377939283847809e-03 3.431466966867446899e-02
1.231628805398941040e-01 8.191845566034317017e-02 -3.301150351762771606e-02 -1.443974524736404419e-01 -1.082754135131835938e-01 -9.529460221529006958e-02 1.030896976590156555e-01 -1.468438208103179932e-01 1.883290708065032959e-02 -3.181331977248191833e-02 3.140672296285629272e-02 1.933756619691848755e-01 -4.344237595796585083e-02 -5.402519926428794861e-02 -4.365693405270576477e-02 -7.484127581119537354e-02 5.154550448060035706e-02 4.584772512316703796e-02 3.519948571920394897e-02 -3.853799775242805481e-02 -1.298520248383283615e-02 -2.332706153392791748e-01 -1.873288303613662720e-03 -1.220063213258981705e-02 -1.186668872833251953e-01 1.405009180307388306e-01 -9.328028559684753418e-02 -1.739523559808731079e-02 -1.432963609695434570e-01 3.586763516068458557e-03 -1.006735041737556458e-01 -2.561941444873809814e-01 -1.794695556163787842e-01 2.116557909175753593e-03 -1.641221530735492706e-02 2.584338001906871796e-02 1.072316169738769531e-01 -1.787037961184978485e-02 9.301160275936126709e-02 -5.158907547593116760e-02 8.238986879587173462e-02 5.962264165282249451e-02 3.796770796179771423e-02 -1.726642996072769165e-01 2.110673785209655762e-01 -2.124566584825515747e-01 -6.174623221158981323e-02 1.790958046913146973e-01 7.018081843852996826e-02 -9.840779006481170654e-02 -8.933003246784210205e-02 -6.559495627880096436e-02 -7.635756582021713257e-02 -7.510931044816970825e-02 -7.027655094861984253e-02 -3.130720555782318115e-01 -7.204252481460571289e-02 3.153147920966148376e-02 2.116662450134754181e-02 -5.695971474051475525e-02 -6.617507338523864746e-02 -6.423883140087127686e-02 7.267265766859054565e-02 -6.135851144790649414e-02 2.233005911111831665e-01 -1.499851699918508530e-02 7.567229121923446655e-02 1.317267864942550659e-01 5.989252123981714249e-03 2.498745471239089966e-01 -1.279501020908355713e-01 -8.917526900768280029e-02 -9.766092896461486816e-02 -6.250354461371898651e-03 1.126085817813873291e-01 2.367630414664745331e-02 -2.675840631127357483e-02 -9.364838153123855591e-02 1.617925614118576050e-01 2.298823092132806778e-03 2.316846698522567749e-01 -1.243072897195816040e-01 -1.990037038922309875e-02 -8.664008229970932007e-02 -1.044048964977264404e-01 -4.608444124460220337e-02 -8.396741747856140137e-02 2.522693872451782227e-01 -1.048007756471633911e-01 -3.148370981216430664e-02 -1.422731280326843262e-01 -1.434201374650001526e-03 -1.156946867704391479e-01 1.941338777542114258e-01 1.753892153501510620e-01 -1.688260212540626526e-02 -1.030543148517608643e-01 6.384122371673583984e-02 -8.905205875635147095e-02 -8.376747369766235352e-02 -2.520991303026676178e-02 4.096974059939384460e-02 2.324405908584594727e-01 -7.338452339172363281e-02 1.808947473764419556e-01 1.165370419621467590e-01 -3.938445448875427246e-02 1.650733053684234619e-01 -7.702877372503280640e-02 -3.242678241804242134e-03 3.930306062102317810e-02 -3.740886598825454712e-02 -1.562931984663009644e-01 5.569624900817871094e-02 9.588996320962905884e-02 -1.997191272675991058e-02 -3.257774934172630310e-02 -1.235790271311998367e-02 -1.453097909688949585e-01 6.793773919343948364e-02
-2.887389436364173889e-02 6.204572319984436035e-02 7.938960194587707520e-02 3.808663785457611084e-02 -5.424237623810768127e-02 -1.713906228542327881e-01 -7.100747525691986084e-02 -8.913218230009078979e-02 1.629583090543746948e-01 -1.249898448586463928e-01 5.150826647877693176e-02 -8.002756536006927490e-02 2.350603975355625153e-02 3.112978301942348480e-02 -6.300525367259979248e-02 1.799631565809249878e-01 -7.993171364068984985e-02 4.524577409029006958e-02 -2.660844102501869202e-02 -7.345603406429290771e-02 3.136885166168212891e-02 -1.268701106309890747e-01 -3.179689347743988037e-01 -2.023027651011943817e-02 5.086110532283782959e-02 1.209127530455589294e-01 1.471697539091110229e-01 -1.351574659347534180e-01 1.202693581581115723e-02 -3.723914502188563347e-03 2.292608320713043213e-01 -2.284173071384429932e-01 1.696801930665969849e-01 7.671026885509490967e-02 -6.775579601526260376e-02 -5.262443050742149353e-02 -9.058311581611633301e-02 1.147120669484138489e-01 -1.413779109716415405e-01 1.082173362374305725e-01 -1.089151296764612198e-02 1.276844441890716553e-01 -6.767667084932327271e-02 -2.208137661218643188e-01 -9.157511591911315918e-02 -1.050426587462425232e-01 -8.232715725898742676e-02 7.023052126169204712e-02 -7.612384110689163208e-02 3.872438147664070129e-02 9.480655193328857422e-03 6.735705584287643433e-02 -2.889394387602806091e-02 6.965654343366622925e-02 -1.072918698191642761e-01 5.545269325375556946e-02 7.286210358142852783e-02 2.884391136467456818e-02 -1.108606830239295959e-01 1.335744857788085938e-01 8.517753332853317261e-03 1.198356300592422485e-01 9.750102460384368896e-02 -4.865394905209541321e-02 -1.071980036795139313e-02 -1.758677363395690918e-01 -1.811162382364273071e-02 -1.205271948128938675e-02 6.638544797897338867e-02 8.290134370326995850e-02 5.767832975834608078e-03 -1.608923077583312988e-01 1.163078844547271729e-01 -2.158578485250473022e-02 -4.171257466077804565e-02 -1.308640539646148682e-01 1.339869946241378784e-01 -3.011848218739032745e-02 1.530908495187759399e-01 -1.092333719134330750e-02 -1.756173372268676758e-02 -3.798985853791236877e-02 1.606044173240661621e-02 7.836566865444183350e-02 -1.416061632335186005e-02 6.406027823686599731e-03 1.062878221273422241e-02 -4.839853197336196899e-02 3.339445590972900391e-02 4.221760667860507965e-03 -1.056159883737564087e-01 -8.540847152471542358e-02 4.252552241086959839e-02 1.782796531915664673e-01 4.688848927617073059e-02 2.644876763224601746e-02 1.166481152176856995e-01 -2.309514209628105164e-03 3.779579652473330498e-03 1.255309861153364182e-02 9.888402372598648071e-02 1.910833455622196198e-02 1.342874318361282349e-01 7.779311388731002808e-02 -8.965740352869033813e-02 1.137905716896057129e-01 8.084271103143692017e-02 -8.852168172597885132e-02 8.508501946926116943e-02 1.239623203873634338e-01 1.278372555971145630e-01 -1.194125600159168243e-02 1.583584584295749664e-02 2.888539992272853851e-02 1.527763251215219498e-02 -9.842361323535442352e-03 -3.268063068389892578e-01 9.251848608255386353e-02 -1.145312860608100891e-01 -3.235777094960212708e-02
-1.198217049241065979e-01 1.522989664226770401e-02 5.225012823939323425e-02 -2.666858956217765808e-02 -4.048820585012435913e-02 1.550269275903701782e-01 3.686651354655623436e-03 -1.257731616497039795e-01 3.473065327852964401e-03 -1.590710878372192383e-01 -4.065215960144996643e-02 1.609514802694320679e-01 -1.000270545482635498e-01 -8.435064810328185558e-04 7.296887040138244629e-02 2.335839346051216125e-02 1.758002676069736481e-02 2.342031896114349365e-02 2.548468671739101410e-02 -8.292580395936965942e-02 8.212278783321380615e-02 3.117798268795013428e-02 -7.917878776788711548e-02 -2.163376845419406891e-02 -5.853271856904029846e-02 3.884545341134071350e-02 4.625706002116203308e-03 -9.991882368922233582e-03 1.999841183423995972e-01 -3.154154866933822632e-02 1.373651474714279175e-01 -8.042329922318458557e-03 -2.229488082230091095e-02 5.051552876830101013e-02 -1.937423348426818848e-01 -7.951572537422180176e-02 -2.536584064364433289e-02 6.844308227300643921e-02 1.620296686887741089e-01 7.370667904615402222e-02 5.639746040105819702e-02 -1.039821729063987732e-01 4.976174980401992798e-02 4.079686105251312256e-02 2.927089296281337738e-02 -1.050802469253540039e-01 1.380827873945236206e-01 -2.276688516139984131e-01 9.038031846284866333e-02 1.064968407154083252e-01 5.148672685027122498e-02 5.265630409121513367e-02 -6.683693081140518188e-02 -8.091805875301361084e-02 -1.687640994787216187e-01 1.560751199722290039e-01 2.617100812494754791e-02 -9.032398462295532227e-02 -2.878417260944843292e-02 -6.200245022773742676e-02 -6.996773649007081985e-03 1.689019240438938141e-02 8.936823904514312744e-02 5.800951272249221802e-02 2.402464114129543304e-02 2.861671708524227142e-02 -3.484416753053665161e-02 1.566497534513473511e-01 5.397721379995346069e-02 1.582902967929840088e-01 -1.667669415473937988e-01 3.804477304220199585e-02 -4.612402617931365967e-02 3.224986046552658081e-02 4.045464843511581421e-02 1.085718199610710144e-01 -1.605158448219299316e-01 8.650589734315872192e-02 3.338271379470825195e-02 2.389394491910934448e-02 -1.932192221283912659e-02 3.686748445034027100e-02 3.579138964414596558e-02 -1.185855939984321594e-01 -1.187768857926130295e-02 9.059960953891277313e-03 -1.260410845279693604e-01 -1.747301667928695679e-01 3.934734687209129333e-02 -2.663534320890903473e-02 -5.860693380236625671e-02 -8.597949892282485962e-02 -6.886196136474609375e-02 4.589827731251716614e-02 5.924204364418983459e-02 1.469879001379013062e-01 5.418118461966514587e-02 3.809003531932830811e-02 5.939955264329910278e-02 -7.530552335083484650e-03 -1.887398958206176758e-02 8.179549872875213623e-02 4.890537261962890625e-02 -2.889454131945967674e-03 -1.374037712812423706e-01 1.281552016735076904e-01 -1.047623902559280396e-01 4.312702268362045288e-02 2.423855476081371307e-02 1.762564331293106079e-01 4.198536276817321777e-02 -1.991917788982391357e-01 -1.360052675008773804e-01 4.373595118522644043e-03 -9.378467500209808350e-02 9.423512034118175507e-03 3.140664100646972656e-02 7.890407927334308624e-03 7.204572111368179321e-02 4.489838331937789917e-02
8.608766645193099976e-02 -5.833587050437927246e-02 -1.484927721321582794e-02 8.969049900770187378e-02 1.402187049388885498e-01 -1.530013531446456909e-01 -1.107284426689147949e-01 1.050041019916534424e-01 8.319104462862014771e-02 -2.125385552644729614e-01 -1.514950394630432129e-01 -6.826980412006378174e-02 1.233018469065427780e-02 -1.098580099642276764e-02 4.554873332381248474e-02 1.425806134939193726e-01 -1.736547797918319702e-01 7.103572040796279907e-02 3.334108041599392891e-03 3.099292516708374023e-02 1.374807506799697876e-01 1.527677625417709351e-01 -1.984185725450515747e-01 -8.970735222101211548e-02 1.277351193130016327e-02 1.194873675704002380e-01 1.242227777838706970e-01 5.357047915458679199e-02 5.995402112603187561e-03 -5.887721106410026550e-02 5.265323445200920105e-02 -8.922351151704788208e-02 2.331428825855255127e-01 -7.613092660903930664e-02 1.626111268997192383e-01 5.661328881978988647e-02 -6.232709065079689026e-02 1.013726145029067993e-01 2.224993705749511719e-02 -1.080614980310201645e-02 -1.751120318658649921e-03 2.415037527680397034e-02 9.527976624667644501e-03 6.039132177829742432e-02 -1.105498075485229492e-01 -1.242272034287452698e-01 2.218484878540039062e-01 1.065297052264213562e-01 -6.010839343070983887e-02 1.355486661195755005e-01 -1.806959956884384155e-01 2.331415414810180664e-01 -7.769059389829635620e-02 4.727495834231376648e-02 -5.088186636567115784e-02 -2.128660231828689575e-01 6.404608488082885742e-02 7.216572761535644531e-02 6.191746145486831665e-02 5.736518651247024536e-02 -1.033578999340534210e-02 -2.279578149318695068e-02 9.240937419235706329e-03 -4.138231649994850159e-02 3.442478552460670471e-02 5.487566068768501282e-02 -6.588684022426605225e-02 5.930481851100921631e-02 8.632118999958038330e-02 -3.543882071971893311e-02 3.559620305895805359e-02 2.111555337905883789e-01 1.114589944481849670e-01 -9.705469757318496704e-02 -4.388702288269996643e-02 -8.469803631305694580e-02 -4.066656529903411865e-02 -1.281442791223526001e-01 -9.830263257026672363e-02 1.882820948958396912e-02 -1.979404985904693604e-01 -4.599544778466224670e-02 2.182355225086212158e-01 1.013302952051162720e-01 1.784159690141677856e-01 5.470214039087295532e-02 3.673288971185684204e-02 -1.592345684766769409e-01 -1.916825305670499802e-03 1.611747778952121735e-02 -8.279789239168167114e-02 2.931308187544345856e-02 9.199355728924274445e-03 8.847104758024215698e-02 1.333051174879074097e-01 1.492828130722045898e-01 8.192958682775497437e-02 -3.710296377539634705e-02 -4.406695440411567688e-02 -3.153243288397789001e-02 1.083982214331626892e-01 3.116733022034168243e-02 1.699564047157764435e-02 4.312378168106079102e-02 -1.081678941845893860e-01 8.599424362182617188e-02 -6.133841723203659058e-02 -1.005107909440994263e-01 8.492365479469299316e-02 -5.246060900390148163e-03 6.438835710287094116e-02 -3.010448254644870758e-02 6.013712659478187561e-02 -2.098763920366764069e-02 -1.601265557110309601e-02 2.195855043828487396e-02 -9.696707874536514282e-02 -5.196935310959815979e-02 8.770860731601715088e-02 9.704323112964630127e-02
1.128037571907043457e-01 -4.162471275776624680e-03 -8.259545266628265381e-02 8.183600008487701416e-02 -1.595558226108551025e-01 -1.466134190559387207e-02 3.818520158529281616e-02 1.926191002130508423e-01 2.310633361339569092e-01 2.471995204687118530e-01 3.754958510398864746e-02 1.287296265363693237e-01 -7.213959097862243652e-02 -4.034417495131492615e-02 1.460873638279736042e-03 -8.218222856521606445e-02 -8.764927089214324951e-02 -1.524423807859420776e-01 -9.958087652921676636e-02 -9.826778620481491089e-02 6.406202446669340134e-03 9.369257837533950806e-02 2.371219545602798462e-01 4.615127667784690857e-02 1.293143182992935181e-01 -5.111301317811012268e-02 9.576398134231567383e-02 9.331850707530975342e-02 -5.510113760828971863e-02 -5.420392006635665894e-02 -9.919919073581695557e-02 1.815993636846542358e-01 8.158212155103683472e-02 4.802802577614784241e-03 4.031263291835784912e-02 2.845313027501106262e-02 5.040198564529418945e-02 1.602110415697097778e-01 1.080024242401123047e-01 -1.072302181273698807e-02 5.495915189385414124e-02 -7.158941030502319336e-02 7.501038908958435059e-02 8.157258480787277222e-02 2.212870717048645020e-01 -1.488117426633834839e-01 1.033373922109603882e-01 8.085760474205017090e-02 -4.082057997584342957e-02 -6.170471757650375366e-02 5.229818820953369141e-02 -5.512462183833122253e-02 5.097837746143341064e-02 -3.239048644900321960e-02 1.660450100898742676e-01 8.650054782629013062e-02 -1.124387383460998535e-01 5.768926441669464111e-02 1.299039274454116821e-01 -2.527107670903205872e-02 1.104735359549522400e-01 -4.708006232976913452e-02 1.352953631430864334e-02 -1.123807728290557861e-01 1.114344671368598938e-01 9.412109851837158203e-02 6.266858428716659546e-02 2.949398383498191833e-02 -1.439858600497245789e-02 1.471575628966093063e-02 1.166514307260513306e-02 -6.053798645734786987e-02 -9.950326383113861084e-02 5.512855947017669678e-02 1.335422396659851074e-01 2.129662185907363892e-01 -1.208561658859252930e-01 2.038718611001968384e-01 7.036900520324707031e-02 1.421152651309967041e-01 4.454771056771278381e-02 7.039376348257064819e-02 -1.561009734869003296e-01 -7.325351238250732422e-02 1.348025053739547729e-01 4.287049546837806702e-02 -9.975689649581909180e-02 -1.937382966279983521e-01 8.994618803262710571e-02 -9.388591349124908447e-02 -6.935903429985046387e-02 8.088305592536926270e-02 -2.153689227998256683e-02 1.285193413496017456e-01 -1.761419028043746948e-01 -1.057955920696258545e-01 -7.021381705999374390e-02 5.711433663964271545e-02 6.390827894210815430e-02 1.025968324393033981e-02 -1.611002385616302490e-01 5.106909573078155518e-02 1.117492988705635071e-01 1.680557057261466980e-02 1.733740717172622681e-01 -2.047974988818168640e-02 1.364414244890213013e-01 8.655709773302078247e-02 -3.991749510169029236e-02 -8.945467323064804077e-02 -2.329751253128051758e-01 -4.804721102118492126e-02 -7.454892247915267944e-02 3.990573436021804810e-02 -6.384723633527755737e-02 -3.813000395894050598e-02 5.772927030920982361e-02 1.020618714392185211e-03 3.607554361224174500e-02 9.142778813838958740e-02
1.968008279800415039e-02 4.567776992917060852e-02 3.439477086067199707e-02 2.400182420387864113e-03 -9.869007021188735962e-02 6.242931634187698364e-02 -6.944013386964797974e-02 -7.944467663764953613e-02 -2.091408707201480865e-03 -5.479745566844940186e-02 6.189718376845121384e-03 -4.961930215358734131e-02 -3.572944179177284241e-02 6.732997298240661621e-02 4.105023667216300964e-02 2.860399335622787476e-02 -1.082818955183029175e-01 -2.609030529856681824e-02 -8.377680182456970215e-02 4.046277701854705811e-02 -1.340367197990417480e-01 -9.664755314588546753e-02 8.775440976023674011e-03 -9.356876462697982788e-02 -8.063755184412002563e-02 1.730235107243061066e-02 3.313378617167472839e-02 -5.990989878773689270e-02 -3.081998974084854126e-02 -1.487125176936388016e-02 3.596975002437829971e-03 -1.164245512336492538e-02 -2.707173861563205719e-02 6.345657259225845337e-02 -4.323434084653854370e-02 2.329874224960803986e-02 1.960985548794269562e-02 2.930930256843566895e-02 -1.275483071804046631e-01 7.364001125097274780e-03 9.015116840600967407e-02 -3.563223639503121376e-03 -7.389535754919052124e-02 -6.961483508348464966e-02 6.632883846759796143e-02 -1.189842149615287781e-01 5.584678426384925842e-02 -1.043164655566215515e-01 1.630750484764575958e-02 -9.546922147274017334e-02 -6.738419830799102783e-02 -7.553353905677795410e-03 -2.415706031024456024e-02 3.491659089922904968e-02 -4.788412526249885559e-02 -2.414719015359878540e-02 -5.604137200862169266e-03 1.954105123877525330e-02 2.229609154164791107e-02 6.665220018476247787e-03 1.037515420466661453e-02 -2.935740165412425995e-02 -4.952321574091911316e-02 -5.040945857763290405e-02 -5.955447256565093994e-02 -1.071230173110961914e-01 3.252103179693222046e-02 -6.204705312848091125e-02 1.708105951547622681e-02 -7.107595354318618774e-02 -3.373933210968971252e-02 -1.278166100382804871e-02 5.747683346271514893e-02 7.449498772621154785e-02 3.592762863263487816e-03 -1.027329266071319580e-01 -9.101513773202896118e-02 5.429960787296295166e-02 -1.658566854894161224e-02 4.691538959741592407e-02 -1.230737790465354919e-01 -5.138450069352984428e-04 -2.823358215391635895e-02 4.827921092510223389e-02 -3.112354129552841187e-02 -7.375008612871170044e-02 6.244875956326723099e-03 -5.308924615383148193e-02 -2.887647040188312531e-02 -1.069976985454559326e-01 -6.816919147968292236e-02 -8.649700880050659180e-02 4.703086800873279572e-03 -8.663181960582733154e-02 -6.250181794166564941e-02 -9.086735546588897705e-03 5.515502765774726868e-02 -4.031382501125335693e-02 -1.063745766878128052e-01 -2.218518219888210297e-02 1.945786736905574799e-02 -6.469681859016418457e-02 -1.225860267877578735e-01 -6.975385546684265137e-02 3.916925936937332153e-02 -1.197681650519371033e-01 -3.666907548904418945e-02 2.102617733180522919e-02 2.698823064565658569e-02 6.213634461164474487e-02 3.316110000014305115e-02 -5.864037573337554932e-02 1.403613947331905365e-02 -1.500454917550086975e-02 -9.500097483396530151e-02 1.766013912856578827e-02 2.075816690921783447e-02 3.021776862442493439e-02 -1.069013029336929321e-01 4.484045505523681641e-02
5.976954009383916855e-03 5.991521105170249939e-02 -2.893675118684768677e-02 4.034253582358360291e-02 -7.588770706206560135e-03 -4.456746205687522888e-02 4.476224631071090698e-02 1.138923838734626770e-01 -4.133067280054092407e-02 -7.659469544887542725e-02 -1.995190382003784180e-01 1.208606585860252380e-01 1.225279178470373154e-03 1.272267475724220276e-02 5.140389502048492432e-02 1.095662564039230347e-01 -3.243268653750419617e-02 1.005359888076782227e-01 5.913062952458858490e-03 5.213947966694831848e-02 9.236167371273040771e-02 2.219444066286087036e-01 2.329875156283378601e-02 -4.308574646711349487e-02 -2.470643632113933563e-02 -1.375411450862884521e-01 1.112606674432754517e-01 1.712260544300079346e-01 2.282809913158416748e-01 8.157248049974441528e-02 -6.454454362392425537e-02 9.463224560022354126e-02 -4.047505185008049011e-02 9.093187749385833740e-03 3.169927373528480530e-02 -4.470676928758621216e-02 7.013256102800369263e-02 2.238106727600097656e-01 9.877762943506240845e-02 -1.347938030958175659e-01 -7.348026335239410400e-02 -6.336470693349838257e-02 1.636686474084854126e-01 2.258604764938354492e-01 -9.811078757047653198e-02 3.924685530364513397e-03 1.200373470783233643e-01 -3.518005087971687317e-02 -3.931992873549461365e-02 1.260435879230499268e-01 -8.246938139200210571e-02 2.539424896240234375e-01 -7.666748762130737305e-02 -2.751870453357696533e-02 1.210510283708572388e-01 -1.347145438194274902e-01 7.661526650190353394e-02 3.430930152535438538e-02 1.351601779460906982e-01 -5.145936459302902222e-02 -1.796820908784866333e-01 6.713598966598510742e-02 -1.936541683971881866e-02 -6.172720808535814285e-03 1.676425337791442871e-01 1.245284751057624817e-01 -3.561699390411376953e-02 3.613442555069923401e-02 7.216017693281173706e-02 -1.309298127889633179e-01 -8.838358335196971893e-03 -3.108356893062591553e-02 -2.259648777544498444e-02 -2.941674925386905670e-02 5.435697361826896667e-02 5.971012171357870102e-03 -1.557212471961975098e-01 5.438292026519775391e-02 9.685914218425750732e-02 -1.373646557331085205e-01 -1.540868133306503296e-01 2.358491346240043640e-02 5.834417417645454407e-02 -5.908429250121116638e-02 1.132963523268699646e-01 4.003259539604187012e-02 -9.015467762947082520e-02 -1.491877287626266479e-01 8.977847546339035034e-02 -2.846920304000377655e-02 1.450019329786300659e-02 1.996335573494434357e-02 1.625898852944374084e-02 -1.047983542084693909e-01 1.315510720014572144e-01 1.162115484476089478e-01 6.126907467842102051e-02 7.078817486763000488e-02 -6.956834346055984497e-02 5.057048425078392029e-02 1.468241121619939804e-02 -1.280948054045438766e-02 -1.884018816053867340e-02 5.774010345339775085e-02 -1.240603253245353699e-01 9.181896597146987915e-02 2.008854784071445465e-02 -7.317494601011276245e-02 6.117014680057764053e-03 -6.400230526924133301e-02 6.888498365879058838e-02 2.705098502337932587e-02 1.555598676204681396e-01 2.671474963426589966e-02 -3.042723238468170166e-02 6.507366150617599487e-02 3.359822323545813560e-03 -4.821537435054779053e-02 1.066993623971939087e-01 1.777706854045391083e-02
-1.547341495752334595e-01 6.968922168016433716e-02 -9.465799480676651001e-02 5.741310864686965942e-02 2.020376175642013550e-01 8.889934048056602478e-03 7.160282135009765625e-02 5.437808856368064880e-02 -3.461337834596633911e-02 -3.824399784207344055e-02 -7.219099998474121094e-02 1.016553714871406555e-01 1.349266916513442993e-01 -1.007421687245368958e-01 6.984434276819229126e-02 -5.600210651755332947e-02 1.516233682632446289e-01 8.930764347314834595e-02 3.142610890790820122e-03 1.702602505683898926e-01 1.650302708148956299e-01 1.250121742486953735e-01 7.818438857793807983e-02 4.369969666004180908e-02 7.879681140184402466e-02 -7.559563964605331421e-02 7.256425917148590088e-02 1.477632522583007812e-01 3.556763231754302979e-01 3.018812835216522217e-02 -1.373203694820404053e-01 -5.594411119818687439e-02 -1.164965890347957611e-02 7.690175622701644897e-02 1.633168011903762817e-01 5.563258007168769836e-02 9.187599644064903259e-03 -4.209452494978904724e-02 6.794239580631256104e-02 -4.822739958763122559e-02 6.404322385787963867e-02 -7.147729396820068359e-02 1.733774542808532715e-01 -1.750163435935974121e-01 1.208983827382326126e-02 -2.184342145919799805e-01 8.745362609624862671e-02 1.203885003924369812e-01 2.676886878907680511e-02 1.258040070533752441e-01 -5.425769463181495667e-02 1.243241056799888611e-01 5.747250840067863464e-02 1.126540899276733398e-01 -2.103693224489688873e-02 -1.875241249799728394e-01 -4.156247712671756744e-03 -1.627025939524173737e-02 2.221046686172485352e-01 -4.226095043122768402e-03 -1.404897123575210571e-01 5.850871652364730835e-02 -1.396609246730804443e-01 5.170029401779174805e-02 -8.250766247510910034e-02 3.848844021558761597e-02 7.227919995784759521e-03 1.009763851761817932e-01 -2.392358705401420593e-02 5.847963318228721619e-02 1.542050391435623169e-01 1.624961942434310913e-02 7.988046109676361084e-02 -5.016941949725151062e-02 1.521133035421371460e-01 1.763299666345119476e-02 3.822807595133781433e-02 -1.775666624307632446e-01 -5.744173005223274231e-02 -1.229132488369941711e-01 7.288728654384613037e-02 2.323510125279426575e-03 8.168130367994308472e-02 -7.823132723569869995e-02 2.843558788299560547e-01 1.112006753683090210e-01 -1.236825510859489441e-01 -2.577963657677173615e-02 1.569447340443730354e-03 1.472784876823425293e-01 1.061848700046539307e-01 1.470519602298736572e-01 3.473785147070884705e-02 -1.516338586807250977e-01 -1.008929982781410217e-01 -5.591167882084846497e-02 -5.084743723273277283e-02 2.504221349954605103e-02 1.112144812941551208e-01 -3.672118112444877625e-02 1.516674906015396118e-01 3.647455014288425446e-03 -1.806252896785736084e-01 -1.693233475089073181e-02 7.150816172361373901e-02 -3.396527096629142761e-02 -3.158456087112426758e-02 1.923009455204010010e-01 -9.510662406682968140e-02 -4.744388908147811890e-02 -1.113401278853416443e-01 1.012734845280647278e-01 1.627380847930908203e-01 7.193862646818161011e-02 6.710574775934219360e-02 -5.150238424539566040e-02 3.018400669097900391e-01 1.231603026390075684e-01 1.264626234769821167e-01 2.360600605607032776e-02
1.395719591528177261e-02 -6.203223392367362976e-02 -2.963197231292724609e-02 -3.039675019681453705e-02 1.158103719353675842e-02 -9.078042209148406982e-02 -4.348828457295894623e-03 -7.338596880435943604e-02 -6.340985000133514404e-02 4.361690953373908997e-02 1.090853940695524216e-02 -6.197480112314224243e-02 -8.719964325428009033e-02 1.245855540037155151e-02 7.505857199430465698e-02 -1.177092641592025757e-01 -1.081261485815048218e-01 1.222234964370727539e-02 -1.181192100048065186e-01 -2.694475091993808746e-02 -6.900171935558319092e-02 -8.273609727621078491e-02 -4.856725782155990601e-02 -5.254673957824707031e-02 -3.705799754243344069e-04 -1.113077774643898010e-01 5.724311992526054382e-02 -5.552643164992332458e-02 6.798615306615829468e-02 5.081987008452415466e-02 2.456309460103511810e-02 -8.932112157344818115e-02 -7.714939117431640625e-02 -7.234925776720046997e-02 -6.910710036754608154e-02 3.818079084157943726e-02 -1.010558232665061951e-01 -1.014941558241844177e-01 -5.620649084448814392e-02 5.484281852841377258e-02 2.602568641304969788e-02 4.189122701063752174e-04 1.351138763129711151e-02 -7.658284902572631836e-02 -5.456624552607536316e-03 -3.483345732092857361e-03 -3.398696333169937134e-02 2.912645228207111359e-03 -1.008174754679203033e-02 2.730436250567436218e-02 -1.013855785131454468e-01 2.950090356171131134e-02 -3.294607158750295639e-04 -1.056529060006141663e-01 -5.078346282243728638e-02 -5.469611659646034241e-02 -7.263746857643127441e-02 -1.108796223998069763e-01 1.602542772889137268e-02 6.568190641701221466e-03 4.078209772706031799e-02 -5.312557518482208252e-02 -1.108774170279502869e-01 -8.207457512617111206e-02 -4.570718109607696533e-02 5.462770815938711166e-03 6.596178561449050903e-02 3.596924617886543274e-02 8.149862289428710938e-03 2.619980275630950928e-02 -5.468341708183288574e-02 2.175403758883476257e-02 4.228340834379196167e-02 -7.676535844802856445e-02 -8.199758082628250122e-02 -9.017878770828247070e-02 2.439743839204311371e-03 -2.357169426977634430e-02 -8.130999654531478882e-02 4.556996002793312073e-02 5.144638195633888245e-02 -7.632166892290115356e-02 -4.404754936695098877e-02 -6.829266250133514404e-02 -2.174734510481357574e-02 -1.545207109302282333e-02 -9.161482751369476318e-02 -7.074636965990066528e-02 -9.235186874866485596e-02 4.916069656610488892e-02 -6.605112552642822266e-02 -3.189460933208465576e-02 7.462019473314285278e-02 -7.905413955450057983e-02 -1.542361453175544739e-03 -3.665160015225410461e-02 -5.861456319689750671e-02 5.976128857582807541e-03 3.034034743905067444e-02 4.840626940131187439e-02 2.755954302847385406e-02 -7.498136907815933228e-02 1.161580905318260193e-02 -6.965714693069458008e-02 1.230520848184823990e-02 2.473321370780467987e-02 -3.752142190933227539e-02 6.568760424852371216e-02 -4.994556680321693420e-02 4.375825449824333191e-02 1.132468134164810181e-02 4.460623487830162048e-02 3.691064566373825073e-02 6.529553979635238647e-02 4.350763186812400818e-02 -4.763153940439224243e-02 -1.137335151433944702e-01 5.830311030149459839e-02 -6.851997971534729004e-02 3.010416636243462563e-03
4.699604213237762451e-02 -3.063696250319480896e-02 2.692181384190917015e-03 -6.621057540178298950e-02 6.808871775865554810e-02 6.510785967111587524e-02 -5.928210914134979248e-02 -4.883010871708393097e-03 -1.107392236590385437e-01 -6.031116843223571777e-02 -2.157218009233474731e-02 -3.435601666569709778e-02 1.115189939737319946e-01 -2.192004211246967316e-02 -4.207395017147064209e-02 2.161009982228279114e-02 1.547494381666183472e-01 7.337771821767091751e-03 4.112808406352996826e-02 7.754645496606826782e-02 -1.159586310386657715e-01 -1.621165126562118530e-01 -2.150894887745380402e-02 2.474359236657619476e-02 -3.786612674593925476e-02 -1.464265137910842896e-01 -1.478503793478012085e-01 -1.214483752846717834e-01 1.572362631559371948e-01 -1.322121322154998779e-01 -6.378842890262603760e-02 4.459949210286140442e-02 -2.665589377284049988e-02 5.609592050313949585e-02 2.232796885073184967e-02 6.533401459455490112e-02 -7.416063547134399414e-02 -1.517246514558792114e-01 -1.348187476396560669e-01 1.165175810456275940e-02 5.142833292484283447e-02 -4.487006366252899170e-02 -7.197340577840805054e-02 4.047990310937166214e-03 -1.001241356134414673e-01 2.582470141351222992e-02 5.892653763294219971e-02 6.958970427513122559e-02 2.712675742805004120e-02 -1.342286318540573120e-01 2.967492304742336273e-02 -7.212333381175994873e-02 3.578833118081092834e-02 2.542236447334289551e-02 -6.809379160404205322e-02 -1.943323165178298950e-01 3.252802044153213501e-02 -6.995017081499099731e-02 1.482444931752979755e-03 -2.938646823167800903e-02 6.523279845714569092e-02 1.807797700166702271e-01 -3.130997344851493835e-02 -1.706729270517826080e-02 8.249384909868240356e-02 -2.935996092855930328e-02 8.123538643121719360e-02 1.308106333017349243e-01 5.829635635018348694e-02 6.096566468477249146e-02 1.261030286550521851e-01 2.642939090728759766e-01 1.035729423165321350e-01 7.289667427539825439e-02 -7.074587792158126831e-02 -2.046072036027908325e-01 8.809435181319713593e-03 -1.438933191820979118e-03 6.532785296440124512e-02 -1.438387036323547363e-01 -1.563395373523235321e-02 1.422973349690437317e-02 -5.658555775880813599e-03 -1.715929955244064331e-01 4.276445135474205017e-02 3.823238238692283630e-02 1.237676963210105896e-01 1.969028711318969727e-01 -8.655490726232528687e-02 -4.883566871285438538e-03 2.414693124592304230e-02 8.806176483631134033e-02 1.190050318837165833e-01 -8.714526146650314331e-02 1.093174442648887634e-01 5.266139283776283264e-02 4.655221011489629745e-03 2.766221761703491211e-02 -4.536598175764083862e-02 -2.631887793540954590e-02 6.383135169744491577e-02 -1.355565153062343597e-02 6.691925972700119019e-02 5.890273675322532654e-02 1.026351600885391235e-01 6.093569844961166382e-02 1.862458325922489166e-02 -1.028169691562652588e-01 6.256850063800811768e-02 -1.142682228237390518e-02 2.990450896322727203e-02 4.172189533710479736e-02 1.676592528820037842e-01 1.652537658810615540e-02 6.920047104358673096e-02 5.675530992448329926e-03 2.879722975194454193e-02 -4.381377995014190674e-02 -3.168690577149391174e-02 -2.389079704880714417e-02
3.037961013615131378e-02 -6.474839895963668823e-02 5.722733214497566223e-02 -9.969719685614109039e-03 6.222810223698616028e-02 -2.029923647642135620e-01 -1.025934219360351562e-01 -1.755897700786590576e-01 -1.047977656126022339e-01 1.076374650001525879e-01 1.837476193904876709e-01 -9.510535746812820435e-02 5.032695084810256958e-02 -4.962836392223834991e-03 9.993117302656173706e-02 6.317327171564102173e-02 1.523478776216506958e-01 -4.724530968815088272e-03 3.913783654570579529e-02 9.034840017557144165e-02 1.027390062808990479e-01 -5.945532396435737610e-02 -1.667429953813552856e-01 -7.345324754714965820e-02 6.437727063894271851e-02 -1.146915182471275330e-01 1.086016595363616943e-01 4.032350145280361176e-03 -1.192035079002380371e-01 2.183158794650807977e-04 -3.360816836357116699e-02 -1.410713046789169312e-01 -9.039128571748733521e-02 -2.541169710457324982e-02 -1.101684272289276123e-01 -1.054119504988193512e-02 2.936569787561893463e-02 -7.770182192325592041e-02 -1.378074288368225098e-01 9.021022915840148926e-02 2.157660201191902161e-02 5.765064805746078491e-02 -2.484668418765068054e-02 -3.778684437274932861e-01 -2.229067981243133545e-01 -3.458361700177192688e-02 -1.977590471506118774e-01 -1.882258243858814240e-02 -5.597741529345512390e-02 2.516648769378662109e-01 -9.238341450691223145e-02 -9.330729395151138306e-02 -5.753204971551895142e-02 9.086519479751586914e-02 8.092537522315979004e-02 -4.610370844602584839e-02 5.907889571972191334e-04 2.400127425789833069e-02 -9.062712639570236206e-02 1.238628625869750977e-01 -9.040802717208862305e-03 3.657670691609382629e-02 1.236082315444946289e-01 -6.394736468791961670e-02 -2.956434711813926697e-02 8.906695246696472168e-02 -2.594290673732757568e-02 -1.166447699069976807e-01 4.347780346870422363e-02 3.084286674857139587e-02 6.034051626920700073e-02 1.855542361736297607e-01 1.095091737806797028e-02 -2.149938605725765228e-02 -9.203299134969711304e-02 2.423867210745811462e-02 1.192019581794738770e-01 -4.350707679986953735e-02 -1.029408127069473267e-01 8.390774577856063843e-02 3.998227417469024658e-02 6.025839596986770630e-02 8.629414439201354980e-02 4.269930941518396139e-04 2.116936491802334785e-03 5.482350662350654602e-02 -1.273893378674983978e-02 4.278857633471488953e-02 1.286417990922927856e-01 -8.116031065583229065e-03 -4.454508051276206970e-02 1.392246186733245850e-01 9.949777275323867798e-02 7.212770730257034302e-02 -1.565488800406455994e-02 -3.387361019849777222e-02 1.059089973568916321e-01 -7.063617557287216187e-02 7.322752475738525391e-02 7.671283185482025146e-02 1.805620267987251282e-04 -1.818862557411193848e-02 -1.049774885177612305e-01 1.131703555583953857e-01 -8.756677061319351196e-02 -3.955897316336631775e-02 3.924957290291786194e-02 7.596307992935180664e-02 2.895704470574855804e-02 -4.569914564490318298e-02 1.401314586400985718e-01 -1.343959569931030273e-01 7.872884720563888550e-02 -2.338799647986888885e-02 1.330833584070205688e-01 -5.599083751440048218e-02 4.921980574727058411e-02 2.003685757517814636e-02 6.931820511817932129e-02 2.123097144067287445e-02
9.066543728113174438e-02 8.621253073215484619e-02 4.252426326274871826e-02 4.812397062778472900e-02 -1.807741671800613403e-01 1.243416815996170044e-01 2.072760164737701416e-01 -5.080506205558776855e-03 -9.976167231798171997e-02 -4.452167451381683350e-02 -2.863175570964813232e-01 -6.156206876039505005e-02 -4.354944825172424316e-02 2.963991937576793134e-05 -6.726744025945663452e-02 -2.722592279314994812e-02 -1.124504059553146362e-01 -1.279008109122514725e-02 -5.340486019849777222e-02 -1.383035928010940552e-01 2.208822965621948242e-02 -5.644230544567108154e-02 1.679526120424270630e-01 -1.726804375648498535e-01 3.871567919850349426e-02 -5.489898473024368286e-02 1.356095820665359497e-01 -1.398887578397989273e-02 -2.840560078620910645e-01 6.626430153846740723e-02 -2.548309974372386932e-02 1.020556837320327759e-01 1.859885007143020630e-01 -1.649648882448673248e-02 -1.664126217365264893e-01 8.447922766208648682e-02 1.350141167640686035e-01 1.733242869377136230e-01 1.171877905726432800e-01 3.173564560711383820e-03 -7.785458583384752274e-03 9.647792577743530273e-02 -3.266241773962974548e-02 1.968102753162384033e-01 -1.442839857190847397e-02 5.052389204502105713e-02 1.827595755457878113e-02 -1.496355831623077393e-01 3.807465359568595886e-02 8.640438318252563477e-02 -7.838747650384902954e-02 1.143044754862785339e-01 -4.572204872965812683e-02 -1.915083676576614380e-01 2.369175702333450317e-01 1.485468596220016479e-01 -1.146249379962682724e-02 1.570090502500534058e-01 -5.898516625165939331e-02 1.083359494805335999e-01 -1.967440173029899597e-02 -1.019220873713493347e-01 1.715330034494400024e-02 -3.589580208063125610e-02 -3.877841681241989136e-02 8.746723830699920654e-02 -4.413661360740661621e-02 -9.785354882478713989e-02 2.839025482535362244e-02 1.693056710064411163e-02 -1.756768114864826202e-02 -3.244243562221527100e-02 -1.980436444282531738e-01 5.312007293105125427e-02 3.777584061026573181e-02 5.813131853938102722e-02 -1.297299116849899292e-01 1.222078949213027954e-01 4.087971895933151245e-02 1.364414989948272705e-01 -5.349814146757125854e-02 7.568753510713577271e-02 1.608752831816673279e-02 -1.001434102654457092e-01 8.697915077209472656e-02 4.395140707492828369e-02 -1.024970710277557373e-01 -4.563505575060844421e-02 7.803349196910858154e-02 -1.947444826364517212e-01 -5.613959208130836487e-02 3.813981264829635620e-02 1.065941229462623596e-01 1.166974231600761414e-01 -5.755772814154624939e-02 -3.420175984501838684e-02 1.468163169920444489e-02 7.201427221298217773e-02 -8.823776990175247192e-02 9.435893595218658447e-02 -1.518390476703643799e-01 5.423740297555923462e-02 -2.098131738603115082e-02 7.175707072019577026e-02 -5.267150327563285828e-02 7.916157692670822144e-02 -1.054717078804969788e-01 -4.736669361591339111e-02 1.373775023967027664e-02 -3.873284757137298584e-01 -1.080878302454948425e-01 -1.104371026158332825e-01 1.168408896774053574e-02 -2.749633789062500000e-02 -2.356666326522827148e-01 -4.668459668755531311e-02 -1.401192247867584229e-01 2.757955342531204224e-02 -5.397213622927665710e-02 -9.400343522429466248e-03
-6.280497461557388306e-02 -6.769862771034240723e-02 7.471893727779388428e-02 6.391043215990066528e-02 3.907780721783638000e-02 2.058655582368373871e-02 4.824218899011611938e-02 -3.367583453655242920e-02 4.563544411212205887e-03 6.693392992019653320e-02 2.905880846083164215e-02 1.205690298229455948e-02 -2.686189021915197372e-03 -6.248304247856140137e-02 5.474771931767463684e-02 -1.806251704692840576e-02 -5.144288763403892517e-02 4.014262184500694275e-02 -3.144305944442749023e-02 -1.800883561372756958e-02 5.650980770587921143e-02 4.954110085964202881e-02 -2.404045872390270233e-02 -1.259752511978149414e-01 -9.984984248876571655e-02 4.417007043957710266e-02 -7.687209546566009521e-02 5.789372324943542480e-02 -3.561934456229209900e-02 -1.391984894871711731e-02 -1.323572099208831787e-01 -1.016548350453376770e-01 -6.728512793779373169e-02 -1.282282825559377670e-02 1.063400413841009140e-02 -8.042965829372406006e-02 4.838389344513416290e-03 5.251395329833030701e-02 -1.103384047746658325e-01 -1.540699601173400879e-02 -6.277263909578323364e-02 -4.453321546316146851e-02 -3.398256748914718628e-02 -2.227501757442951202e-02 -6.959325075149536133e-02 7.908592931926250458e-03 -6.853121519088745117e-02 -3.366310149431228638e-02 7.581523805856704712e-02 -6.113167852163314819e-02 -1.205002218484878540e-01 -3.051323816180229187e-02 -2.604846283793449402e-02 -2.999807521700859070e-02 2.770427986979484558e-02 -1.209656428545713425e-02 3.235388919711112976e-02 -7.543746381998062134e-02 1.927800476551055908e-02 -9.085330367088317871e-02 -1.084655672311782837e-01 2.145550400018692017e-02 -1.099166050553321838e-01 -6.761436816304922104e-03 4.964952170848846436e-02 -8.063977211713790894e-02 -2.626413851976394653e-02 -8.701859414577484131e-02 2.711930125951766968e-02 -1.183644756674766541e-01 -2.086164802312850952e-02 -4.807955399155616760e-02 -3.361343173310160637e-03 8.864969015121459961e-03 -1.290403772145509720e-02 -4.753484204411506653e-02 -6.327478587627410889e-02 1.409258227795362473e-02 -6.158438697457313538e-02 5.768153816461563110e-02 1.778625696897506714e-02 -4.175923392176628113e-02 -5.690411478281021118e-02 -2.906949631869792938e-02 -8.517830073833465576e-02 3.798078373074531555e-02 1.165055483579635620e-02 -5.566632002592086792e-02 -8.220608532428741455e-02 3.478225693106651306e-02 -1.115599721670150757e-01 -4.246889054775238037e-02 3.145782649517059326e-02 -1.148041561245918274e-01 -6.041089445352554321e-02 -5.388927087187767029e-02 2.551846764981746674e-02 -8.698891103267669678e-02 1.084999833256006241e-02 -4.904625564813613892e-02 8.381222933530807495e-02 6.082836911082267761e-02 -8.741283416748046875e-02 5.074243992567062378e-02 -4.054538439959287643e-03 1.621240191161632538e-02 5.138770490884780884e-02 -1.176519915461540222e-01 2.183420816436409950e-03 3.488780930638313293e-02 -5.124485865235328674e-02 -7.555059157311916351e-03 -5.878501012921333313e-02 -2.409225562587380409e-03 -7.355784624814987183e-02 -1.664977334439754486e-02 -5.663561075925827026e-02 -2.233335748314857483e-02 2.489743009209632874e-02 -4.433659464120864868e-02
-5.522708967328071594e-02 -6.313498597592115402e-03 -5.130946636199951172e-02 5.314661189913749695e-02 8.397200703620910645e-02 2.312903553247451782e-01 1.332176327705383301e-01 -1.183535009622573853e-01 -8.642460405826568604e-02 8.059635758399963379e-02 4.988193977624177933e-03 -2.866994962096214294e-02 -1.648219674825668335e-02 -6.051512435078620911e-02 1.237932499498128891e-02 -2.895970083773136139e-02 5.775621160864830017e-02 -4.612857103347778320e-02 1.901454478502273560e-01 -9.361749887466430664e-02 -6.365957111120223999e-02 1.253203861415386200e-02 -1.689055748283863068e-02 1.047160178422927856e-01 -2.065601572394371033e-02 1.630396693944931030e-01 7.383438199758529663e-02 -8.797615021467208862e-02 -5.912599340081214905e-02 5.483344569802284241e-02 2.106190174818038940e-01 5.424206331372261047e-02 6.047209352254867554e-02 -1.981414295732975006e-02 -4.981155041605234146e-03 5.120555683970451355e-02 -2.858855016529560089e-02 1.521634403616189957e-03 7.614816073328256607e-03 5.777002125978469849e-02 2.447529137134552002e-02 5.543484538793563843e-02 -9.298426657915115356e-02 -1.321609504520893097e-02 5.957145243883132935e-02 2.687083780765533447e-01 9.911656379699707031e-02 7.015269994735717773e-02 6.406701356172561646e-02 -2.114503383636474609e-01 1.120016947388648987e-01 -1.525076478719711304e-01 1.016663853079080582e-02 -4.761737957596778870e-02 -6.072795018553733826e-02 1.406039446592330933e-01 9.218631684780120850e-02 9.243636578321456909e-02 -1.500202417373657227e-01 1.862915791571140289e-02 3.946118429303169250e-02 1.085951551795005798e-01 9.926472790539264679e-03 -2.792336745187640190e-04 1.136356666684150696e-01 -1.019300296902656555e-01 2.540837787091732025e-02 1.295797824859619141e-01 -4.474667459726333618e-02 1.256021261215209961e-01 7.540068030357360840e-02 -5.742827802896499634e-02 1.208228468894958496e-01 2.565179951488971710e-02 1.113692298531532288e-02 -7.867362350225448608e-02 1.708583831787109375e-01 1.751682311296463013e-01 5.211644992232322693e-02 2.890106476843357086e-02 8.898470550775527954e-02 -4.562914744019508362e-02 -7.467090338468551636e-02 5.800075083971023560e-02 -1.365979164838790894e-01 -7.787876576185226440e-02 2.085128873586654663e-01 6.436434388160705566e-02 -4.227624461054801941e-02 9.771496802568435669e-02 -7.046651840209960938e-02 2.647162647917866707e-03 -2.139648050069808960e-02 5.697217211127281189e-02 6.764724105596542358e-02 3.540702164173126221e-02 -3.280181437730789185e-02 1.136844325810670853e-02 -8.493033796548843384e-02 -2.532510831952095032e-02 1.299482583999633789e-01 5.949513986706733704e-02 8.934299647808074951e-02 -1.738812960684299469e-02 -9.892916679382324219e-02 1.028171405196189880e-01 -4.589691758155822754e-02 2.318082377314567566e-02 1.706029772758483887e-01 2.283595949411392212e-01 7.891981303691864014e-02 8.896473050117492676e-02 5.663987621665000916e-02 7.197047770023345947e-02 8.391686528921127319e-02 -2.059013582766056061e-02 -5.553665757179260254e-02 -5.372000485658645630e-02 -7.827341556549072266e-02 8.758103102445602417e-02
