7.090123835951089859e-04 -7.826749235391616821e-02 -1.469516158103942871e-01 2.065954655408859253e-01 -1.031249612569808960e-01 7.790942490100860596e-02 -1.682104766368865967e-01 1.365840584039688110e-01 3.465517656877636909e-04 -1.423147171735763550e-01 -2.160352282226085663e-02 -4.417430609464645386e-02 -2.353228628635406494e-01 -9.389476478099822998e-02 -5.426758527755737305e-02 5.857871845364570618e-02 -1.891961544752120972e-01 5.596873350441455841e-03 1.612804532051086426e-01 1.715980321168899536e-01 7.302303612232208252e-02 1.410137861967086792e-02 -9.731107950210571289e-02 -3.036242723464965820e-02 -1.560934782028198242e-01 -2.030811756849288940e-01 -5.103442817926406860e-02 9.856439381837844849e-02 1.164350882172584534e-01 -1.168297696858644485e-02 1.237260922789573669e-02 1.272242963314056396e-01 -1.967668384313583374e-01 -2.056739479303359985e-01 7.423970103263854980e-02 -2.801352143287658691e-01 1.330449432134628296e-01 -4.039712250232696533e-02 -1.970758289098739624e-01 -5.257207527756690979e-02 -6.824918836355209351e-02 2.347743138670921326e-02 8.747446537017822266e-02 9.187044203281402588e-02 -9.333872236311435699e-03 1.437024623155593872e-01 8.815035223960876465e-03 -1.141148656606674194e-01 6.105302646756172180e-02 -2.041376084089279175e-01 -1.796481460332870483e-01 -7.561732828617095947e-02 9.940115362405776978e-02 -7.204727083444595337e-02 -9.190987050533294678e-02 6.113660708069801331e-02 9.106338769197463989e-02 -1.002329587936401367e-01 9.727544337511062622e-02 -6.571942567825317383e-02 2.345756068825721741e-02 1.448823660612106323e-01 1.539308577775955200e-01 1.901439577341079712e-02 1.669544130563735962e-01 -1.321925222873687744e-02 6.797611713409423828e-02 1.681324653327465057e-02 -2.134727090597152710e-01 -7.868831604719161987e-02 -2.513789199292659760e-02 -7.555790245532989502e-02 3.776200860738754272e-02 -2.266399860382080078e-01 -8.603637665510177612e-02 1.020279601216316223e-01 -3.288033604621887207e-02 3.844401612877845764e-02 6.464440375566482544e-02 6.067097932100296021e-02 4.153143987059593201e-02 5.783677473664283752e-02 -7.688366621732711792e-02 1.196689009666442871e-01
-1.620800197124481201e-01 -1.903754174709320068e-01 3.102683648467063904e-02 1.692551970481872559e-01 1.193621829152107239e-01 3.979085013270378113e-02 -7.216108590364456177e-02 -1.463631242513656616e-01 -1.531231701374053955e-01 -1.210467964410781860e-01 1.921945363283157349e-01 3.435458615422248840e-02 9.412229806184768677e-02 -2.205235213041305542e-01 -3.706541284918785095e-02 9.696097671985626221e-02 1.450472325086593628e-01 -1.416861414909362793e-01 -3.122778795659542084e-02 -1.245000362396240234e-01 5.339276976883411407e-03 -5.410691723227500916e-02 1.592369228601455688e-01 -1.066801175475120544e-01 -9.979971498250961304e-02 8.504524827003479004e-03 -9.887359105050563812e-03 -1.104312986135482788e-01 -5.413584411144256592e-02 -1.910656690597534180e-01 -1.666787266731262207e-02 -7.350216805934906006e-02 -1.157864332199096680e-01 -2.439472079277038574e-01 1.529987305402755737e-01 -1.962261050939559937e-01 -3.025974035263061523e-01 -4.455834277905523777e-04 9.123493731021881104e-02 -2.324267663061618805e-02 -1.096090450882911682e-01 -1.339759379625320435e-01 -3.851494984701275826e-03 1.687584072351455688e-02 -2.488345839083194733e-02 -1.273906975984573364e-01 -2.701168134808540344e-02 1.971328109502792358e-01 1.024592444300651550e-01 1.816982328891754150e-01 7.233660668134689331e-02 -1.551231592893600464e-01 7.560592144727706909e-02 6.189981102943420410e-02 -2.259920388460159302e-01 -6.006215885281562805e-02 1.425870209932327271e-01 1.560007482767105103e-01 -2.081711888313293457e-01 2.355469167232513428e-01 -2.356812916696071625e-02 -1.410786360502243042e-01 9.618049114942550659e-02 2.216204768046736717e-03 1.657462865114212036e-01 -6.493879109621047974e-02 -1.874330639839172363e-01 1.178626809269189835e-02 1.640533506870269775e-01 2.832337319850921631e-01 -8.802316337823867798e-02 -6.611453741788864136e-02 1.017247363924980164e-01 9.014375507831573486e-02 1.032804325222969055e-01 -3.538757935166358948e-02 -3.652532398700714111e-02 7.979841902852058411e-03 -2.092087715864181519e-01 -1.586173325777053833e-01 5.017155781388282776e-02 -3.058584639802575111e-03 4.695621319115161896e-03 -9.177458286285400391e-02
3.316905349493026733e-02 -5.719605088233947754e-02 -1.805622279644012451e-01 1.286136358976364136e-01 2.369102835655212402e-01 -2.795872092247009277e-01 -7.915128022432327271e-02 9.964961558580398560e-02 6.419340521097183228e-02 -7.034556567668914795e-02 1.093299388885498047e-01 8.690675348043441772e-02 4.386102035641670227e-02 8.415803313255310059e-02 1.218794584274291992e-01 -2.083496004343032837e-01 -1.525739133358001709e-01 -1.824748069047927856e-01 -6.084842607378959656e-02 -1.144327502697706223e-02 1.103493943810462952e-01 -2.085823379456996918e-02 7.932084053754806519e-02 3.903232514858245850e-02 9.967361390590667725e-02 -2.036089748144149780e-01 -3.319363668560981750e-02 -1.193681284785270691e-01 -1.867336332798004150e-01 1.960446089506149292e-01 1.279458124190568924e-02 5.776445940136909485e-02 -5.421589958132244647e-05 2.241950482130050659e-02 -3.147799074649810791e-01 1.114775910973548889e-01 4.566986113786697388e-02 2.363600581884384155e-02 9.087523072957992554e-02 -1.077516302466392517e-01 -3.302165120840072632e-02 2.079886151477694511e-03 3.519877046346664429e-02 -7.969818264245986938e-02 4.453752189874649048e-02 -6.059604138135910034e-02 1.295497417449951172e-01 -3.798602819442749023e-01 1.594439297914505005e-01 -1.047853231430053711e-01 -3.570123910903930664e-01 2.100947313010692596e-02 -1.110718026757240295e-02 4.845308139920234680e-02 6.001034006476402283e-02 8.020152151584625244e-02 -9.626482427120208740e-02 2.124082744121551514e-01 3.933829069137573242e-02 -1.332443789578974247e-03 -1.710335910320281982e-01 -4.855372011661529541e-02 1.203418001532554626e-01 -7.296297699213027954e-02 7.157777994871139526e-02 -1.225772053003311157e-01 2.058587037026882172e-02 -2.524101175367832184e-02 -2.543255090713500977e-01 -1.672782450914382935e-01 -6.657566875219345093e-02 8.936588466167449951e-02 4.146981239318847656e-02 1.571640223264694214e-01 8.017860352993011475e-02 -1.184481233358383179e-01 3.959877416491508484e-02 -5.366585403680801392e-02 -2.563875727355480194e-02 -5.664843600243330002e-03 -1.494312435388565063e-01 1.355130318552255630e-02 6.104135513305664062e-02 -5.088594928383827209e-02
6.312034279108047485e-02 -1.831046789884567261e-01 -2.347229868173599243e-01 -6.564733386039733887e-02 -1.568459421396255493e-01 -2.986749410629272461e-01 -1.964088762179017067e-03 1.021057516336441040e-01 -4.956050310283899307e-03 1.289932727813720703e-01 7.849894464015960693e-02 4.655136913061141968e-02 3.611120581626892090e-02 -5.620165262371301651e-03 -5.048782378435134888e-02 -4.288290068507194519e-02 1.891905516386032104e-01 1.566693186759948730e-01 -8.233869075775146484e-02 -1.268423646688461304e-01 -6.015700846910476685e-02 -1.419713050127029419e-01 5.911755934357643127e-02 4.680353030562400818e-02 -1.772499084472656250e-02 1.106435135006904602e-01 -6.524781137704849243e-02 -8.465023338794708252e-02 1.371138840913772583e-01 -1.175573188811540604e-02 -1.308255363255739212e-02 -1.673958003520965576e-01 6.150512397289276123e-02 -1.374109238386154175e-01 4.417382180690765381e-02 9.842460602521896362e-02 -1.276385486125946045e-01 -3.196459263563156128e-02 -1.161217987537384033e-01 1.032397244125604630e-02 -5.763703212141990662e-02 6.486416608095169067e-02 -5.553892813622951508e-03 1.182975545525550842e-01 -1.882247254252433777e-02 5.485249310731887817e-02 -8.635808527469635010e-02 -2.170667648315429688e-01 4.971057549118995667e-02 -1.010651811957359314e-01 1.074521169066429138e-01 1.265358626842498779e-01 -6.852418929338455200e-02 4.345645383000373840e-02 3.593797609210014343e-02 8.448941260576248169e-02 -4.063405841588973999e-02 -2.605527937412261963e-01 4.416499752551317215e-03 1.023332774639129639e-01 -1.773366332054138184e-01 -6.887269765138626099e-02 1.206427998840808868e-02 -1.101956740021705627e-01 -5.597013235092163086e-02 -2.163343578577041626e-01 1.824210281483829021e-03 6.995653733611106873e-03 -2.763968408107757568e-01 -3.039950132369995117e-01 1.168968006968498230e-01 -4.532939568161964417e-02 -1.830264329910278320e-01 1.383435428142547607e-01 1.436187326908111572e-01 -1.303274929523468018e-01 -4.600602760910987854e-02 -1.583268493413925171e-02 1.428053528070449829e-01 5.298265442252159119e-02 -2.335777431726455688e-01 1.723311096429824829e-02 1.706531085073947906e-02 6.716068368405103683e-03
-2.420300096273422241e-01 1.475344449281692505e-01 -1.661460995674133301e-01 -2.155723571777343750e-01 -4.723032563924789429e-02 -9.836837649345397949e-02 1.504117399454116821e-01 -1.940528750419616699e-01 2.065891312668099999e-04 -1.492426693439483643e-01 -2.126783728599548340e-01 5.692837387323379517e-02 1.820343360304832458e-02 1.044213995337486267e-01 -2.322641573846340179e-02 -7.922778278589248657e-02 -8.784976601600646973e-02 -2.748400866985321045e-01 -9.435947984457015991e-02 -2.489457838237285614e-02 9.570503979921340942e-02 5.000638589262962341e-02 5.097799748182296753e-02 -1.017903629690408707e-02 6.059114262461662292e-02 1.375796049833297729e-01 5.315715074539184570e-02 -4.046282265335321426e-03 -2.797099649906158447e-01 2.574538253247737885e-02 -1.054603233933448792e-01 -4.305772483348846436e-02 6.672658771276473999e-02 1.776655316352844238e-01 1.300346553325653076e-01 4.168085008859634399e-02 -3.796680597588419914e-03 3.948594257235527039e-02 -8.873801678419113159e-02 -4.066091775894165039e-02 -1.047242060303688049e-02 -1.426045298576354980e-01 -2.410969883203506470e-01 -8.962617069482803345e-02 7.266642153263092041e-02 8.500187844038009644e-02 3.164608404040336609e-02 4.027409106492996216e-02 -2.245805263519287109e-01 1.166390068829059601e-02 8.474151045083999634e-02 1.312429010868072510e-01 6.336341053247451782e-02 -1.289415732026100159e-02 -5.995604023337364197e-02 -8.223304897546768188e-02 1.411285400390625000e-01 1.180873066186904907e-01 1.410532146692276001e-01 -1.091291606426239014e-01 1.273161023855209351e-01 -1.030756309628486633e-01 -2.876881361007690430e-01 3.060866519808769226e-02 1.030004844069480896e-01 1.030469015240669250e-01 -1.409011930227279663e-01 -6.646324694156646729e-02 7.062113285064697266e-02 1.467525362968444824e-01 -2.759103178977966309e-01 3.402742743492126465e-02 -1.892216503620147705e-01 4.719220474362373352e-02 -1.465064585208892822e-01 1.025432869791984558e-01 9.689338505268096924e-02 7.132451981306076050e-02 -1.188998296856880188e-01 -1.168184801936149597e-01 1.920030564069747925e-01 -8.951034396886825562e-02 -8.628483861684799194e-02 7.990994304418563843e-02
1.423937380313873291e-01 -3.627445548772811890e-02 1.096623837947845459e-01 -6.311085075139999390e-02 -6.273700296878814697e-02 1.297426596283912659e-02 9.125676006078720093e-02 1.026070266962051392e-01 -1.764125376939773560e-02 -7.556823547929525375e-03 9.254412353038787842e-02 -5.707882344722747803e-02 -8.052817732095718384e-02 -1.776472032070159912e-01 -7.226050645112991333e-02 -2.275392562150955200e-01 -6.396626587957143784e-03 6.567028164863586426e-02 -3.915631473064422607e-01 -1.654974818229675293e-01 -1.661395654082298279e-02 -1.453463137149810791e-01 -2.389058768749237061e-01 -1.082250922918319702e-01 -6.082062423229217529e-02 1.397397518157958984e-01 8.322473615407943726e-02 1.457269191741943359e-01 5.089509487152099609e-02 1.556695997714996338e-01 6.446675863116979599e-03 1.039933636784553528e-01 -1.254615336656570435e-01 3.733098134398460388e-02 5.875929817557334900e-02 1.420481055974960327e-01 -1.788216680288314819e-01 -2.107224166393280029e-01 -6.199441105127334595e-02 -4.960481077432632446e-02 4.988852143287658691e-02 8.066049218177795410e-02 -7.458631694316864014e-02 -3.546163439750671387e-02 6.331466138362884521e-02 -5.269079282879829407e-02 -2.566177546977996826e-01 1.470301449298858643e-01 -1.658118218183517456e-01 1.906677186489105225e-01 3.014614060521125793e-02 -3.014513105154037476e-02 -1.893973723053932190e-02 1.097915228456258774e-02 -8.112358301877975464e-02 -7.790348678827285767e-02 -1.167073473334312439e-01 5.436005070805549622e-02 1.021829918026924133e-01 7.123710215091705322e-02 3.927719965577125549e-02 -1.266310513019561768e-01 -3.037771284580230713e-01 6.395263224840164185e-02 -2.153147757053375244e-01 1.092218905687332153e-01 9.824719280004501343e-02 4.047448933124542236e-02 -3.923779428005218506e-01 -1.505874097347259521e-01 2.892691083252429962e-02 -1.031616106629371643e-01 1.789878122508525848e-02 1.034489199519157410e-01 -4.007531702518463135e-02 5.526850372552871704e-02 -3.808751236647367477e-03 -7.884091138839721680e-02 1.047273501753807068e-01 4.281782731413841248e-02 -1.934096813201904297e-01 6.003095582127571106e-02 5.670532956719398499e-02 -3.976948186755180359e-02
-2.359441667795181274e-01 -7.266467064619064331e-02 1.689956784248352051e-01 -8.698278106749057770e-03 -9.032383561134338379e-02 -1.230543032288551331e-01 -1.605671131983399391e-03 -3.224984509870409966e-03 4.410897195339202881e-02 -2.700911164283752441e-01 -1.684280484914779663e-01 -8.098860085010528564e-02 4.546076431870460510e-02 -2.947495877742767334e-02 -2.649721801280975342e-01 1.614595949649810791e-01 -1.210679858922958374e-01 -1.323169618844985962e-01 -4.993418697267770767e-03 -6.448095198720693588e-03 -1.342758685350418091e-01 -2.806967198848724365e-01 -1.334508657455444336e-01 8.951988816261291504e-02 -2.819960117340087891e-01 -1.700435876846313477e-01 -6.827843934297561646e-02 3.822425752878189087e-02 5.350482091307640076e-02 -9.557990729808807373e-02 -1.845428906381130219e-02 1.955075114965438843e-01 1.620588004589080811e-01 5.655270814895629883e-02 1.321022659540176392e-01 -9.853415936231613159e-02 1.305595040321350098e-01 -1.400349289178848267e-01 -1.195698603987693787e-01 -1.034099087119102478e-01 5.659358203411102295e-02 4.128555208444595337e-02 -7.244826108217239380e-02 -1.711979880928993225e-02 -1.367670744657516479e-01 7.894405163824558258e-03 -9.092419594526290894e-02 5.676550790667533875e-02 7.433406263589859009e-02 -1.043399050831794739e-01 -2.187449038028717041e-01 -5.935451015830039978e-02 2.283259527757763863e-03 -1.178687289357185364e-01 1.289606243371963501e-01 -1.462444663047790527e-01 -1.852283775806427002e-01 3.116547875106334686e-02 -2.410322725772857666e-01 -1.349270194768905640e-01 4.998254030942916870e-02 -1.007250323891639709e-01 -1.386085152626037598e-01 1.392070483416318893e-02 3.136815130710601807e-02 1.018524020910263062e-01 1.203216612339019775e-01 -6.371286232024431229e-03 -5.470190942287445068e-02 -2.465263456106185913e-01 -1.420101076364517212e-01 1.734223030507564545e-02 2.044884487986564636e-02 9.287235885858535767e-02 -1.576453745365142822e-01 1.263013482093811035e-01 -5.502361804246902466e-02 6.616202741861343384e-02 1.890127807855606079e-01 -1.478159874677658081e-01 -3.086625412106513977e-02 -1.790590211749076843e-02 -7.875162363052368164e-02 -3.410198912024497986e-02
8.137854188680648804e-02 -4.468106105923652649e-02 -1.210114210844039917e-01 2.267849743366241455e-01 1.615159064531326294e-01 2.729030251502990723e-01 -7.176151033490896225e-03 9.529435634613037109e-02 4.748159646987915039e-02 4.641877859830856323e-02 1.582480818033218384e-01 -1.638003624975681305e-02 -8.323896676301956177e-02 -2.036048173904418945e-01 -1.559097915887832642e-01 2.307454049587249756e-01 -1.491146683692932129e-01 -2.227250933647155762e-01 -1.590400636196136475e-01 -1.315178126096725464e-01 -1.092110350728034973e-01 1.244828924536705017e-01 3.663604706525802612e-02 -5.413471534848213196e-02 1.405017524957656860e-01 4.937142878770828247e-02 1.659898646175861359e-02 8.041463047266006470e-02 5.890151858329772949e-02 2.501889765262603760e-01 3.589135035872459412e-02 -2.639033198356628418e-01 1.237635016441345215e-01 1.293888390064239502e-01 -1.534382253885269165e-01 -1.048949807882308960e-01 -2.182457000017166138e-01 1.929951272904872894e-02 2.032093517482280731e-02 -2.100973576307296753e-02 8.511586487293243408e-02 -3.248563408851623535e-01 -9.444277733564376831e-02 -5.811659619212150574e-02 -5.196659266948699951e-02 -1.370976120233535767e-01 4.722910746932029724e-02 -1.915654838085174561e-01 1.593335866928100586e-01 5.644987896084785461e-02 1.866846531629562378e-02 1.214581541717052460e-02 -3.835991024971008301e-03 3.991631045937538147e-02 5.077374354004859924e-02 1.012880280613899231e-01 8.735053241252899170e-02 3.963504731655120850e-02 -7.314653694629669189e-02 -6.192765664309263229e-03 -5.286240205168724060e-02 -8.964957296848297119e-02 -1.144856493920087814e-02 -1.463051303289830685e-03 -1.877440512180328369e-01 1.419186741113662720e-01 -2.098575234413146973e-01 -6.821136176586151123e-02 4.441351443529129028e-02 4.978924244642257690e-02 1.648580431938171387e-01 -4.619218409061431885e-02 -3.923687636852264404e-01 1.218631267547607422e-01 -1.541897505521774292e-01 -2.382797747850418091e-01 -7.058037817478179932e-02 8.766806125640869141e-02 -1.305138915777206421e-01 -3.094943240284919739e-02 -5.049830302596092224e-02 -1.096663698554039001e-01 6.739543285220861435e-03 6.958581507205963135e-02
-1.323604732751846313e-01 9.042923897504806519e-02 2.007863670587539673e-01 5.403968691825866699e-02 -4.969539642333984375e-01 6.412805616855621338e-02 -8.391921222209930420e-02 7.346563786268234253e-02 -2.533372342586517334e-01 1.804555654525756836e-01 -2.145116478204727173e-01 -1.434632390737533569e-02 4.593057557940483093e-03 1.340786218643188477e-01 1.474081887863576412e-03 -2.935185134410858154e-01 -2.163657546043395996e-02 2.461197320371866226e-03 1.180458143353462219e-01 -1.254470795392990112e-01 -1.021321211010217667e-02 -8.763470686972141266e-04 1.408310607075691223e-02 -5.391085054725408554e-03 1.258931308984756470e-01 1.277875602245330811e-01 -1.322853285819292068e-02 8.028999716043472290e-02 -1.125757843255996704e-01 -1.989727467298507690e-01 6.270819157361984253e-02 -7.917752489447593689e-03 -3.375901281833648682e-01 -1.086688414216041565e-01 1.099579185247421265e-01 5.753050744533538818e-02 -2.263412475585937500e-01 -1.762395910918712616e-02 1.128036305308341980e-01 -1.644639670848846436e-02 6.477168947458267212e-02 1.601028954610228539e-03 1.644729673862457275e-01 2.033237926661968231e-02 3.920163586735725403e-02 3.209303366020321846e-03 -2.943089604377746582e-01 -5.701635498553514481e-03 4.124481603503227234e-02 -2.391475588083267212e-01 3.054805845022201538e-02 -2.836094796657562256e-01 3.017189353704452515e-02 7.696256786584854126e-02 1.683687567710876465e-01 1.961901634931564331e-01 -7.388695329427719116e-02 -5.669995024800300598e-02 -3.758455812931060791e-02 -1.957702189683914185e-01 1.409702599048614502e-01 9.266544948332011700e-04 1.187023147940635681e-01 6.664632260799407959e-02 -1.249744072556495667e-01 -9.696700610220432281e-03 -8.077548816800117493e-03 1.054715365171432495e-01 -1.751964390277862549e-01 -2.315551042556762695e-01 -4.333819821476936340e-02 4.475107043981552124e-02 -2.192420661449432373e-01 -7.395656406879425049e-02 1.295588463544845581e-01 -2.281473204493522644e-02 4.110164567828178406e-02 -9.797575324773788452e-02 1.701628044247627258e-02 -1.443343237042427063e-02 -9.348939359188079834e-02 -6.277532875537872314e-02 -7.287940382957458496e-02 -1.121261715888977051e-01
-2.144596353173255920e-02 -6.788150221109390259e-02 -6.300672888755798340e-02 -9.883668273687362671e-02 -2.556230127811431885e-01 -1.075985580682754517e-01 -6.625659018754959106e-02 -1.936885416507720947e-01 1.658231317996978760e-01 5.375382676720619202e-02 1.121698543429374695e-01 -2.025098539888858795e-02 2.656819857656955719e-02 1.468762308359146118e-01 -6.222031265497207642e-02 -5.938417091965675354e-02 1.025767773389816284e-01 -3.176982700824737549e-02 -2.121624201536178589e-01 1.725272089242935181e-01 1.035770177841186523e-01 1.585729867219924927e-01 -2.865741848945617676e-01 -1.047030910849571228e-01 1.073077768087387085e-01 1.245924830436706543e-01 -1.135133504867553711e-01 -4.462613910436630249e-02 1.617597192525863647e-01 -2.498523294925689697e-01 4.076072946190834045e-02 -8.246656507253646851e-02 -5.329704284667968750e-02 9.349218755960464478e-02 -4.938965197652578354e-03 -3.894753754138946533e-02 1.176256835460662842e-01 1.086421236395835876e-01 7.242447137832641602e-02 7.471330463886260986e-02 -2.473256550729274750e-02 6.665327399969100952e-02 -8.969669789075851440e-02 -4.363375902175903320e-02 -6.544525921344757080e-02 1.201848760247230530e-01 1.197873726487159729e-01 4.420067369937896729e-02 -3.603024482727050781e-01 -8.860408514738082886e-02 1.493974030017852783e-01 1.335248947143554688e-01 4.107557982206344604e-02 1.194623112678527832e-01 -2.205758541822433472e-01 -2.218139730393886566e-02 -2.877590805292129517e-02 -6.757515668869018555e-02 1.482071131467819214e-01 -1.399465836584568024e-02 1.257978975772857666e-01 -8.458484709262847900e-02 1.222181171178817749e-01 -6.700146943330764771e-02 -7.314436882734298706e-02 8.662859350442886353e-02 -8.570383489131927490e-02 3.291149064898490906e-02 1.072085648775100708e-01 9.438503533601760864e-02 -5.877690389752388000e-02 -3.283467516303062439e-02 1.771766394376754761e-01 -2.820126712322235107e-01 2.396718040108680725e-02 2.383428998291492462e-02 -9.092950075864791870e-02 7.330954540520906448e-04 -7.558142393827438354e-02 -1.273593772202730179e-02 -4.119270443916320801e-01 -6.844078004360198975e-02 -3.182915598154067993e-02 -8.693391084671020508e-02
