3.453922271728515625e-02 -5.071415752172470093e-02 -1.466074138879776001e-01 -6.241917610168457031e-02 3.254818543791770935e-02 -1.375294625759124756e-01 -1.765240281820297241e-01 -4.752473533153533936e-02 -7.120429724454879761e-02 -1.447678357362747192e-01 -2.558971941471099854e-01 1.307369582355022430e-02 -6.161721050739288330e-02 -1.552053727209568024e-02 -4.736030474305152893e-02 -1.620424389839172363e-01 7.437893655151128769e-03 -1.863561919890344143e-03 -7.912863790988922119e-02 -1.814870089292526245e-01 -1.249234005808830261e-01 -6.678856164216995239e-02 -8.044230751693248749e-03 -6.015338003635406494e-02 1.428804248571395874e-01 1.184320822358131409e-01 1.157379597425460815e-01 2.521537244319915771e-02 -4.678114876151084900e-02 6.311985850334167480e-02 2.348363213241100311e-02 -1.213684957474470139e-02 -1.155551448464393616e-01 -2.687748521566390991e-02 2.907383069396018982e-02 -4.787821322679519653e-02 1.340617053210735321e-02 6.518064439296722412e-02 5.453575775027275085e-02 5.182725563645362854e-02 -5.322001874446868896e-02 -9.778048098087310791e-02 9.514987468719482422e-02 -5.153262242674827576e-02 -1.977396607398986816e-01 1.937503181397914886e-02 -1.078331768512725830e-01 -1.118970848619937897e-02 -4.370544478297233582e-02 -7.459566742181777954e-02 -9.508567862212657928e-03 -1.369245164096355438e-02 -5.253312364220619202e-02 1.195045262575149536e-01 4.447896033525466919e-02 -3.805832471698522568e-03 -1.483208388090133667e-01 -1.167824044823646545e-01 -1.644105017185211182e-01 3.188425302505493164e-02 1.491608321666717529e-01 1.699711531400680542e-01 3.479577228426933289e-02 -1.100514605641365051e-01 -5.669040232896804810e-02 -3.331238171085715294e-03 2.045929618179798126e-02 -7.809764891862869263e-02 8.588991314172744751e-02 -4.114929959177970886e-02 -1.965968310832977295e-01 -1.059313043951988220e-01 -2.854163525626063347e-03 2.092945389449596405e-02 -3.023748099803924561e-02 8.690733462572097778e-02 -2.988874912261962891e-03 7.593610137701034546e-02 1.716894805431365967e-01 -9.654500754550099373e-04 -1.251677125692367554e-01 -8.897475898265838623e-03 -3.219847381114959717e-01 8.871191740036010742e-02 -1.600318998098373413e-01 -4.059674218297004700e-02 1.517392992973327637e-01 -3.984176740050315857e-02 8.772993832826614380e-02 -1.876847445964813232e-01 -1.639208197593688965e-01 1.209654957056045532e-01 8.050121366977691650e-02 -4.609057307243347168e-02 6.622335314750671387e-02 -1.505173444747924805e-01 -1.047021076083183289e-01 5.518714431673288345e-03 3.663494810461997986e-02 -1.055171713232994080e-01 -1.450136154890060425e-01 -3.843079507350921631e-02 1.840009004808962345e-03 -2.202084474265575409e-02 -6.829393655061721802e-02 -3.797655552625656128e-02 2.068068832159042358e-01 -3.676282241940498352e-02 6.722299382090568542e-03 -6.145054101943969727e-02 -4.899092391133308411e-02 1.180239915847778320e-01 2.390421926975250244e-01 5.663467198610305786e-02 8.450204133987426758e-02 -1.003764569759368896e-01 -5.877854675054550171e-02 -4.543288052082061768e-02 2.208951860666275024e-02 1.543117314577102661e-01 4.187037795782089233e-02 -4.482597485184669495e-02 -4.516143724322319031e-02 -3.638518229126930237e-02 2.475509047508239746e-02 -3.727216273546218872e-02 -1.920165668707340956e-04 2.209977246820926666e-02 7.360986620187759399e-02 -1.241758372634649277e-02 1.508119553327560425e-01 9.625880979001522064e-03 8.346706628799438477e-03 -1.027465239167213440e-01 1.794921979308128357e-02 2.374429628252983093e-02 -2.642627060413360596e-02 1.022463105618953705e-02 -1.200484931468963623e-01 1.165763512253761292e-01 -3.053891845047473907e-02 5.740254186093807220e-03 1.814762130379676819e-02 9.871588647365570068e-02 3.887525573372840881e-02 4.525059834122657776e-02 1.210420802235603333e-01 7.750320434570312500e-02 8.665759116411209106e-02 -6.463177967816591263e-03 -8.826378616504371166e-04 -2.996242232620716095e-02 1.308555305004119873e-01 7.906553894281387329e-02 -1.009101942181587219e-01 1.511860191822052002e-01 1.808742731809616089e-01 5.134905129671096802e-02 6.122048944234848022e-02 -9.747868031263351440e-02 7.704298198223114014e-02 -2.943380735814571381e-02 -2.517944946885108948e-02 5.400859564542770386e-02 -2.215291373431682587e-02 -2.985746366903185844e-03 -3.575633093714714050e-02 -6.198565289378166199e-02 2.818371355533599854e-02 1.951472610235214233e-01 1.696875095367431641e-01 1.219662949442863464e-01 5.753314867615699768e-02 8.957514911890029907e-02 -6.935223005712032318e-03 -2.163489013910293579e-01 -1.132165342569351196e-01 3.788515552878379822e-02 -2.556778490543365479e-01 -4.168922081589698792e-03 -4.164612852036952972e-03 2.467491850256919861e-02 2.182859480381011963e-01 -1.185206249356269836e-01 1.126355454325675964e-01 1.122271567583084106e-01 -2.129456102848052979e-01 9.578558057546615601e-02 -1.653079688549041748e-01 2.371086329221725464e-01 2.423647493124008179e-01 -1.427456587553024292e-01 -1.303122006356716156e-02 -7.624064385890960693e-02 1.091093122959136963e-01 1.412215679883956909e-01 9.017933160066604614e-02 5.019258824177086353e-04 7.517309393733739853e-03 -4.840780794620513916e-02 -1.187961921095848083e-01 -9.812570363283157349e-02 -5.533541366457939148e-02 -8.353187586180865765e-04 -5.240285769104957581e-03 6.582068651914596558e-02 1.562344133853912354e-01 2.014719508588314056e-02 -3.666559467092156410e-03 -1.097804605960845947e-01 1.181060671806335449e-01 2.006914615631103516e-01 4.926837980747222900e-02 4.253826662898063660e-02 -4.373963549733161926e-02 -1.821819096803665161e-01 -1.861252933740615845e-01 -1.064993441104888916e-01 -3.948951885104179382e-02 -1.735578291118144989e-02 -3.882292658090591431e-02 -6.309433281421661377e-02 -6.296467036008834839e-02 -7.411092519760131836e-02 1.685085147619247437e-01 -1.987305097281932831e-02 -8.119714260101318359e-02 -4.265202954411506653e-02 -3.937792405486106873e-02 4.240418225526809692e-02 1.276795193552970886e-02 -2.062479034066200256e-02 9.999787807464599609e-02 -9.259302914142608643e-02 -6.967905163764953613e-02 3.439971804618835449e-02 1.790769845247268677e-01 -5.832726135849952698e-03 1.726378500461578369e-01 6.693366169929504395e-02 -1.725144982337951660e-01 -2.242940850555896759e-02 -6.489183753728866577e-02 -8.450074493885040283e-02 -2.387483231723308563e-02 -2.407267503440380096e-02 -9.085036814212799072e-03 -1.619967222213745117e-01 -9.373490512371063232e-02 1.066983640193939209e-01 -4.713317006826400757e-02 -1.908969320356845856e-02 -2.474885433912277222e-02 -8.558057248592376709e-02 -4.376902803778648376e-02 2.190080881118774414e-01 2.735909819602966309e-01 2.271279841661453247e-01 3.287158533930778503e-02 1.297203451395034790e-02 -3.360043838620185852e-02 -5.518782883882522583e-02 -1.227870136499404907e-01 -3.961052373051643372e-02 1.735494099557399750e-02 -8.611483126878738403e-02 -1.627804189920425415e-01 -1.732315719127655029e-01 -1.275593936443328857e-01 -1.102862358093261719e-01 5.517277494072914124e-02 -2.460905537009239197e-02 -2.390624955296516418e-02 6.586955487728118896e-02 2.067532092332839966e-01 -1.516121029853820801e-01 -1.157104317098855972e-02 -7.756667211651802063e-03 -1.105308160185813904e-01 -2.431782335042953491e-02 -1.332178711891174316e-01 8.328391611576080322e-02 -1.146889030933380127e-01 3.732124343514442444e-02 -1.565985679626464844e-01 8.780930936336517334e-02 1.264219135046005249e-01 3.831703588366508484e-02 1.698928177356719971e-01 -4.600567743182182312e-02 1.425334904342889786e-02 -9.556345641613006592e-02 -5.103454738855361938e-02 -7.160206884145736694e-02 -7.953252643346786499e-02 1.788010634481906891e-02 7.152385544031858444e-03 1.200537756085395813e-01 8.800119161605834961e-02 1.336823850870132446e-01 1.330211311578750610e-01 1.147873178124427795e-01 8.497370034456253052e-02 2.842963859438896179e-02 8.288579434156417847e-02 3.640686348080635071e-02 -4.005192220211029053e-02 7.637418061494827271e-02 3.164505213499069214e-02 1.332944631576538086e-01 -1.062043085694313049e-01 -8.972980827093124390e-02 -1.403222233057022095e-01 -9.251958876848220825e-02 1.412602216005325317e-01 7.802525907754898071e-02 3.763446584343910217e-02 9.489086270332336426e-02 -5.362692102789878845e-02 -6.929866969585418701e-03 1.299316883087158203e-01 1.163476631045341492e-01 1.294867545366287231e-01 -4.839754663407802582e-03 -1.661443114280700684e-01 1.419982761144638062e-01 1.068745478987693787e-01 5.845952406525611877e-02 1.711715757846832275e-02 -6.609785836189985275e-03 1.238381024450063705e-02 -9.055157005786895752e-02 3.889385610818862915e-03 1.270689517259597778e-01 1.672093570232391357e-01 1.928527504205703735e-01 -1.454233378171920776e-01 -1.253489851951599121e-01 -5.145638063549995422e-02 3.392430767416954041e-02 1.982547789812088013e-01 -1.495639514178037643e-02 1.458872761577367783e-02 -6.255265325307846069e-02 3.943645954132080078e-02 -1.860535703599452972e-02 2.971649542450904846e-02 1.550005376338958740e-01 1.605140231549739838e-02 -3.303853049874305725e-02 7.041954994201660156e-02 -1.107371971011161804e-01 -9.014698863029479980e-02 5.127990990877151489e-02 2.904513292014598846e-02 -3.264631330966949463e-02 -9.314673393964767456e-02 -9.191652387380599976e-02 1.100349612534046173e-02 -8.149840682744979858e-02 1.769821196794509888e-01 8.186400681734085083e-02 -1.324618700891733170e-02 6.241458933800458908e-03 -1.208617761731147766e-01 5.555307120084762573e-02 3.989690169692039490e-02 -3.610457759350538254e-03 -4.412606358528137207e-03 -1.612240821123123169e-02 -1.860441863536834717e-01 -6.358127295970916748e-02 -8.352541923522949219e-02 -6.859206408262252808e-02 1.079626753926277161e-01 1.417807191610336304e-01 5.823766440153121948e-02 -3.989870101213455200e-02 -1.193643175065517426e-02 -7.915447652339935303e-02 1.718904823064804077e-02 1.287733018398284912e-01 4.630737006664276123e-02 7.739480584859848022e-02 9.821485728025436401e-02 3.312893584370613098e-02 1.008914634585380554e-01 -2.210729010403156281e-02 2.028469368815422058e-02 -8.253092318773269653e-02 -3.875003755092620850e-02 -3.441558033227920532e-02 -1.071768403053283691e-01 -8.104686439037322998e-02 -1.033134162425994873e-01 -2.611533179879188538e-02 -4.351604729890823364e-02 -7.677964866161346436e-02 1.326421741396188736e-03 2.704283222556114197e-02
5.053868517279624939e-02 -3.026161529123783112e-02 1.031404435634613037e-01 -1.424133684486150742e-02 -5.485428124666213989e-02 -5.797501653432846069e-02 1.519071310758590698e-01 3.402063250541687012e-02 4.593342170119285583e-02 1.877471990883350372e-02 5.870102322660386562e-04 8.828501403331756592e-02 -1.158668622374534607e-01 -7.390427868813276291e-03 -4.441245272755622864e-02 5.990739539265632629e-02 -7.124873995780944824e-02 7.568223029375076294e-02 -6.098440289497375488e-02 -7.936304807662963867e-02 -3.655017539858818054e-02 -1.594864875078201294e-01 -5.558964237570762634e-02 -2.842567674815654755e-02 -4.289084114134311676e-03 2.462392859160900116e-02 4.709086194634437561e-02 9.782113879919052124e-02 8.824943751096725464e-02 -5.944814905524253845e-02 1.950571127235889435e-02 -6.805404275655746460e-02 6.161149591207504272e-02 -6.977267563343048096e-02 -7.398254424333572388e-02 -5.508915707468986511e-02 1.237957775592803955e-01 -1.835505664348602295e-02 -1.152623668313026428e-01 -4.660663008689880371e-02 5.864893645048141479e-02 1.280993819236755371e-01 -1.054778546094894409e-01 7.791887223720550537e-02 -3.708156570792198181e-02 1.521728485822677612e-01 6.881248950958251953e-02 -2.294235490262508392e-02 3.796334937214851379e-02 4.673775285482406616e-02 -2.077429322525858879e-03 1.197562664747238159e-01 -3.871084749698638916e-02 -1.157628744840621948e-01 -4.411366209387779236e-02 8.052287250757217407e-02 -4.351666197180747986e-02 8.366928249597549438e-02 -1.080367639660835266e-01 -2.227513343095779419e-01 1.175620481371879578e-01 1.806654222309589386e-02 1.027993857860565186e-01 2.470771968364715576e-02 -1.082899644970893860e-01 -5.187401920557022095e-02 -3.364908695220947266e-02 1.571411453187465668e-02 1.263918913900852203e-02 1.715716570615768433e-01 -3.576935455203056335e-02 -3.915160894393920898e-02 4.491696134209632874e-02 7.026191800832748413e-02 1.159419305622577667e-02 -1.078450307250022888e-02 7.558017224073410034e-02 6.521175056695938110e-02 -3.191580530256032944e-03 9.499701671302318573e-03 -1.387378126382827759e-01 1.366689205169677734e-01 -1.024024561047554016e-01 -1.335259247571229935e-02 -9.002390503883361816e-02 -1.351411640644073486e-02 -1.005816906690597534e-01 -5.652840435504913330e-02 1.175265982747077942e-01 1.545943915843963623e-01 4.713268578052520752e-02 6.520787253975868225e-03 5.851142108440399170e-02 1.143548563122749329e-01 5.127190053462982178e-02 9.123267233371734619e-02 5.442588403820991516e-02 7.829869538545608521e-02 -8.566841483116149902e-02 -1.405352950096130371e-01 -1.847655698657035828e-02 7.851035892963409424e-02 9.851691313087940216e-03 -1.314031705260276794e-02 -1.322816126048564911e-02 -2.531501464545726776e-02 5.022769328206777573e-03 -1.675455719232559204e-01 6.740344315767288208e-02 1.169989928603172302e-01 1.310717966407537460e-02 1.410433743149042130e-02 7.419261336326599121e-02 4.272582009434700012e-02 2.074258178472518921e-01 -1.243607141077518463e-02 5.474668741226196289e-02 -1.051360964775085449e-01 7.008248567581176758e-02 -1.605769097805023193e-01 8.085456676781177521e-03 -9.283387660980224609e-02 -1.093671917915344238e-01 5.500721279531717300e-03 -2.986596524715423584e-02 4.354092292487621307e-03 3.403669223189353943e-02 -4.353743419051170349e-02 -1.013902723789215088e-01 -8.625762164592742920e-02 5.625053867697715759e-02 5.572505667805671692e-02 6.961828470230102539e-02 7.011964172124862671e-02 -1.244130805134773254e-01 -5.249365791678428650e-02 -1.359462086111307144e-02 4.029520601034164429e-02 -6.622530519962310791e-02 -1.240965276956558228e-01 -1.666916161775588989e-01 -1.161471381783485413e-01 -1.097888424992561340e-01 -3.435387834906578064e-02 1.489225029945373535e-01 1.020493917167186737e-02 3.749923035502433777e-02 1.613899767398834229e-01 2.613124847412109375e-01 1.557108163833618164e-01 1.846592687070369720e-02 1.098180562257766724e-02 7.917720824480056763e-03 5.716090556234121323e-03 8.443982899188995361e-02 5.779752042144536972e-03 -1.289541721343994141e-01 -9.186320006847381592e-02 8.456169068813323975e-02 8.919879049062728882e-02 -3.024280257523059845e-02 -7.422841340303421021e-02 3.794133197516202927e-03 1.625233702361583710e-02 6.189010664820671082e-02 4.114922508597373962e-02 8.659752458333969116e-02 -3.041953779757022858e-02 -7.739111036062240601e-02 8.676519244909286499e-02 9.800590574741363525e-03 1.613806784152984619e-01 -4.437906667590141296e-02 1.043889392167329788e-02 9.420739859342575073e-02 3.759583830833435059e-02 -5.348011385649442673e-03 -9.259963780641555786e-02 9.969718754291534424e-02 7.005809247493743896e-02 3.011284023523330688e-02 1.951367594301700592e-02 2.383334003388881683e-02 -3.473091870546340942e-02 1.240627169609069824e-01 3.002201579511165619e-02 -6.956869363784790039e-02 3.419830650091171265e-02 2.250788360834121704e-02 -1.744127646088600159e-02 -6.226408481597900391e-02 1.742601841688156128e-01 -9.122823923826217651e-02 -8.855103701353073120e-02 -7.252983748912811279e-02 -8.892606198787689209e-02 6.931668519973754883e-02 -1.063652262091636658e-01 -2.349151112139225006e-02 1.624462604522705078e-01 2.966731041669845581e-02 7.469434291124343872e-02 3.597991541028022766e-02 1.062759310007095337e-01 8.863780647516250610e-03 -2.890123520046472549e-03 1.350728701800107956e-02 7.772960513830184937e-02 5.407844483852386475e-02 1.238519102334976196e-01 -3.047310374677181244e-02 -1.301080286502838135e-01 -1.211303994059562683e-01 9.760424494743347168e-02 1.099983155727386475e-01 9.894107282161712646e-02 -1.020027622580528259e-01 -9.061873704195022583e-02 -8.159586042165756226e-02 -2.624936103820800781e-01 -5.471094697713851929e-02 -1.273217052221298218e-01 -2.001581192016601562e-01 -7.520307600498199463e-02 -3.687524050474166870e-02 1.409270614385604858e-01 4.456990584731101990e-02 1.523731797933578491e-01 7.809966057538986206e-02 3.033824823796749115e-02 -7.824681699275970459e-02 8.707029372453689575e-02 -1.603722572326660156e-02 2.039228379726409912e-02 7.321081310510635376e-02 -7.702584564685821533e-02 5.776455625891685486e-02 -1.678065657615661621e-01 4.795364663004875183e-02 1.821001172065734863e-01 6.122836470603942871e-02 -3.676743432879447937e-02 -2.004634961485862732e-02 8.395389272664033342e-08 -1.521637290716171265e-01 2.223675698041915894e-02 6.252580881118774414e-02 -8.600120246410369873e-02 -1.528410464525222778e-01 1.270702853798866272e-02 6.804350763559341431e-02 4.520170018076896667e-02 4.408503696322441101e-02 1.033227965235710144e-01 -4.839700832962989807e-02 9.220616519451141357e-02 8.524657785892486572e-02 2.834158204495906830e-02 1.310350745916366577e-01 1.640120446681976318e-01 -9.245809167623519897e-02 -3.411948680877685547e-02 -9.291838109493255615e-02 -6.409560889005661011e-02 -5.256774369627237320e-03 -2.210640162229537964e-02 -1.666320860385894775e-02 -1.387126296758651733e-01 -2.199780642986297607e-01 -1.834972351789474487e-01 -2.665081061422824860e-02 -1.191844344139099121e-01 -1.622771918773651123e-01 5.954472720623016357e-02 2.178391516208648682e-01 2.278922870755195618e-02 4.611079767346382141e-02 6.671690195798873901e-02 1.291061192750930786e-01 -4.149652644991874695e-02 2.972207963466644287e-02 7.536464929580688477e-02 6.510422378778457642e-02 1.177501752972602844e-01 8.334805816411972046e-02 -2.295687608420848846e-02 5.605538189411163330e-02 8.200932294130325317e-02 -4.293818958103656769e-03 7.088931649923324585e-02 7.029661443084478378e-03 -2.115382105112075806e-01 -4.943876713514328003e-02 -1.227716729044914246e-01 -1.131316870450973511e-01 -5.329208076000213623e-02 -8.773012459278106689e-02 -1.318267583847045898e-01 -1.529131829738616943e-01 -1.636106334626674652e-02 -5.471868067979812622e-02 -5.110609903931617737e-02 3.043596865609288216e-03 3.280725330114364624e-02 1.409720480442047119e-01 -4.422123730182647705e-02 5.348915979266166687e-02 -7.403646409511566162e-02 -4.413571581244468689e-02 9.961920231580734253e-02 1.931366510689258575e-02 3.769121319055557251e-02 -1.136265695095062256e-02 -7.597635686397552490e-02 -1.374750882387161255e-01 -2.327524498105049133e-02 -3.457994014024734497e-02 -5.281754583120346069e-02 2.663760259747505188e-02 1.265657097101211548e-01 2.730852924287319183e-02 1.636010557413101196e-01 2.001864612102508545e-01 9.929665923118591309e-02 1.625042781233787537e-02 -1.691218651831150055e-02 -8.006615191698074341e-02 -3.545727953314781189e-02 4.023873712867498398e-03 -2.689186483621597290e-02 1.234721764922142029e-01 -9.153924882411956787e-02 8.394424617290496826e-02 -1.084058508276939392e-01 3.506310656666755676e-02 3.647113591432571411e-02 8.743115514516830444e-02 9.314985573291778564e-02 -7.954926788806915283e-02 -2.004584223031997681e-01 -1.095293834805488586e-01 -6.408534944057464600e-02 -6.401320546865463257e-02 -1.631725765764713287e-02 1.206781193614006042e-01 -7.703617215156555176e-02 1.036325916647911072e-01 8.990354090929031372e-02 1.377070397138595581e-01 1.551888436079025269e-01 -5.084851384162902832e-02 -4.087923094630241394e-02 -7.611417770385742188e-02 -7.544376701116561890e-02 -2.237672545015811920e-02 1.353754941374063492e-02 4.292830824851989746e-02 -9.318201802670955658e-03 -4.157802090048789978e-02 -1.660963743925094604e-01 2.301399409770965576e-02 -2.745327726006507874e-02 -6.807485967874526978e-02 3.657760471105575562e-02 1.387843042612075806e-01 -7.417986541986465454e-02 -9.926196187734603882e-03 1.342453956604003906e-01 9.217191487550735474e-02 -8.886799961328506470e-02 -6.220076605677604675e-02 5.109840631484985352e-02 -4.058914631605148315e-02 -1.369471400976181030e-01 -5.279613658785820007e-02 -9.037528187036514282e-02 5.775953177362680435e-03 6.280429661273956299e-02 -3.363574296236038208e-02 -8.116716891527175903e-02 -6.247610226273536682e-02 -5.677204951643943787e-02 -9.204231947660446167e-02 -6.292182952165603638e-02 1.604027114808559418e-02 -6.109289079904556274e-02 -5.820571631193161011e-02 -2.455559074878692627e-01 1.931147277355194092e-02 -7.414757460355758667e-02 3.260070458054542542e-02 -4.040760174393653870e-02 7.310566306114196777e-02 6.939123570919036865e-02 1.539237983524799347e-02 2.346121817827224731e-01 5.697789788246154785e-02 9.456356614828109741e-02 -1.405170746147632599e-02 -9.851913899183273315e-03
-1.209941431879997253e-01 -3.325654193758964539e-02 -1.347413361072540283e-01 -1.122077777981758118e-01 6.760564632713794708e-03 -1.022484153509140015e-01 -1.877525895833969116e-01 -9.761624783277511597e-02 -7.419709116220474243e-02 1.792088523507118225e-02 -2.976639941334724426e-02 -4.280985146760940552e-02 -9.990727901458740234e-02 -5.883106216788291931e-02 -6.268756929785013199e-03 -9.962202608585357666e-02 -4.845217987895011902e-02 -3.295400366187095642e-02 -3.220465779304504395e-02 2.091350592672824860e-02 1.754353172145783901e-03 2.941238135099411011e-02 -3.960708528757095337e-02 8.728092908859252930e-02 8.210752159357070923e-02 -4.285759106278419495e-02 -1.561550050973892212e-02 -1.774502545595169067e-02 6.563999503850936890e-02 1.098593696951866150e-02 -1.539583411067724228e-02 -2.374087460339069366e-02 -2.130920533090829849e-03 8.588211238384246826e-02 -1.380789559334516525e-02 7.429372519254684448e-02 -3.895620349794626236e-03 -1.422775443643331528e-02 -1.487550288438796997e-01 -2.052739448845386505e-02 6.635993719100952148e-02 1.229483112692832947e-01 -9.170485287904739380e-02 -7.430765777826309204e-03 1.466473564505577087e-02 1.802767813205718994e-01 1.327474117279052734e-01 -1.999200507998466492e-02 -1.240483764559030533e-02 -1.420008484274148941e-02 1.032307222485542297e-01 -6.094897631555795670e-03 2.218886837363243103e-02 7.386163622140884399e-02 -1.189731806516647339e-02 -1.196514144539833069e-01 -2.244739420711994171e-02 -4.916545376181602478e-02 2.432437986135482788e-02 5.383558105677366257e-03 -2.487704530358314514e-02 -1.771576553583145142e-01 4.644377902150154114e-02 1.059657558798789978e-01 1.140463575720787048e-01 1.282617598772048950e-01 -1.037733629345893860e-01 7.216069102287292480e-02 3.573910892009735107e-02 1.210703551769256592e-01 1.739515662193298340e-01 -1.982642896473407745e-02 -2.202345281839370728e-01 1.115302741527557373e-01 5.341511592268943787e-02 -2.091283164918422699e-02 2.909519523382186890e-02 1.324146986007690430e-01 1.145725101232528687e-01 6.717070937156677246e-02 -3.133062645792961121e-02 1.134886289946734905e-03 3.386174514889717102e-02 4.353194683790206909e-02 -6.931918323971331120e-04 -5.550941824913024902e-02 -1.618450880050659180e-01 -1.332484930753707886e-01 8.207064867019653320e-02 7.961208373308181763e-02 2.234929203987121582e-01 1.766425669193267822e-01 -8.292458020150661469e-03 -5.069529637694358826e-02 8.903934806585311890e-02 7.814368605613708496e-02 1.254797577857971191e-01 -9.893928468227386475e-02 -4.743380099534988403e-02 1.377048939466476440e-01 -9.353207796812057495e-02 2.378531731665134430e-02 -8.323615416884422302e-03 -1.062669679522514343e-01 -1.582640223205089569e-02 7.699173688888549805e-02 4.485833342187106609e-04 -4.975803941488265991e-02 -7.252798229455947876e-02 -2.884350158274173737e-02 2.473169863224029541e-01 1.579013764858245850e-01 -1.175420433282852173e-01 -3.445274010300636292e-02 1.540363952517509460e-02 -3.234226955100893974e-03 1.637052893638610840e-01 1.324696540832519531e-01 -5.654093623161315918e-02 -1.079634800553321838e-01 -1.294347792863845825e-01 1.029698476195335388e-01 -9.239051491022109985e-03 -1.044397801160812378e-01 -1.282388716936111450e-01 -7.297963020391762257e-04 -8.019668608903884888e-02 -1.306148320436477661e-01 -4.240460228174924850e-03 -2.811616845428943634e-02 -1.388492435216903687e-02 -1.560808066278696060e-02 3.927968442440032959e-02 6.028230488300323486e-02 -8.712684735655784607e-03 1.396603435277938843e-01 -1.574928462505340576e-01 -1.492197215557098389e-01 1.270581036806106567e-02 5.393658578395843506e-02 -1.000812202692031860e-01 -2.341570556163787842e-01 3.935388848185539246e-02 -2.298234216868877411e-02 2.502304501831531525e-03 1.089109922759234905e-03 4.133162274956703186e-02 -3.310245275497436523e-02 2.561657875776290894e-02 -7.853801548480987549e-02 4.810917656868696213e-03 -2.321530599147081375e-03 -5.721076950430870056e-02 -2.586751431226730347e-02 1.681636460125446320e-02 7.325650006532669067e-02 3.759115189313888550e-02 -3.102354239672422409e-03 7.130541652441024780e-02 -3.086234629154205322e-02 3.979567810893058777e-02 -2.726051025092601776e-02 1.022239699959754944e-01 7.594228535890579224e-02 -1.119452342391014099e-01 -7.599005848169326782e-02 -7.745552062988281250e-02 7.829118520021438599e-02 -3.726844210177659988e-03 -8.539664000272750854e-02 -2.190073430538177490e-01 -1.159492656588554382e-01 -2.497497759759426117e-02 -6.193159520626068115e-02 -6.128643825650215149e-02 -4.642720799893140793e-03 2.688291482627391815e-02 -1.042599603533744812e-01 -2.117934636771678925e-03 -5.894201621413230896e-02 -1.745239458978176117e-02 2.774324454367160797e-02 -4.724190011620521545e-02 1.266494207084178925e-02 -4.092681407928466797e-02 -1.194050461053848267e-01 2.299105077981948853e-01 1.654486060142517090e-01 -1.868632063269615173e-02 -7.543477416038513184e-02 -1.275204122066497803e-02 -8.068250864744186401e-02 1.186076253652572632e-01 1.358630228787660599e-02 -2.074155025184154510e-02 -3.231557905673980713e-01 7.371685653924942017e-02 2.426889352500438690e-02 -2.446704171597957611e-02 -2.002675533294677734e-01 -5.515088792890310287e-03 4.305811598896980286e-03 -3.701782226562500000e-02 -1.410324685275554657e-02 2.734110318124294281e-02 7.839590311050415039e-02 1.059418991208076477e-01 1.134033575654029846e-01 8.489314466714859009e-02 8.536019921302795410e-02 2.199304401874542236e-01 1.665404438972473145e-02 6.081380695104598999e-02 3.257261216640472412e-02 6.570110470056533813e-02 2.503730654716491699e-01 -8.063712716102600098e-02 -8.367016166448593140e-02 4.595090448856353760e-02 -1.660581864416599274e-02 -1.008671056479215622e-02 2.860558778047561646e-02 9.462109208106994629e-02 -1.023080423474311829e-01 2.960980497300624847e-02 -2.700177431106567383e-01 -4.159478098154067993e-02 -2.091288752853870392e-02 -3.596382960677146912e-02 6.992472335696220398e-03 1.364211738109588623e-02 -5.877817422151565552e-02 5.245823040604591370e-02 -3.485149517655372620e-02 8.071167021989822388e-02 2.693746685981750488e-01 4.957580938935279846e-02 3.644787147641181946e-02 -7.005288451910018921e-02 2.655983716249465942e-02 1.756368726491928101e-01 1.153482645750045776e-01 -8.008223772048950195e-02 -6.033346429467201233e-02 -8.877465128898620605e-02 1.167927682399749756e-01 -4.965379834175109863e-02 -1.691856980323791504e-02 -1.365065872669219971e-01 -3.159056976437568665e-02 2.889209613204002380e-02 4.733444005250930786e-02 1.257892698049545288e-02 -5.723751336336135864e-02 3.027034550905227661e-02 8.263211697340011597e-02 -7.750232703983783722e-03 -6.668982654809951782e-02 -3.248931840062141418e-02 7.762304972857236862e-03 2.562131583690643311e-01 1.166475117206573486e-01 7.044391334056854248e-02 -5.489004403352737427e-02 -1.274365186691284180e-02 -4.490166902542114258e-02 2.001613229513168335e-01 4.999785497784614563e-02 -2.510730549693107605e-02 -2.535479608923196793e-03 -1.017442420125007629e-01 9.095319360494613647e-02 4.353482648730278015e-02 -8.798319846391677856e-02 -4.515575245022773743e-02 -3.199451044201850891e-02 -1.563563197851181030e-01 -5.526797845959663391e-02 -5.119615420699119568e-02 7.993490993976593018e-02 8.912531286478042603e-02 -2.926304191350936890e-02 -2.277542650699615479e-02 6.714958697557449341e-02 1.449275575578212738e-02 -8.584358543157577515e-02 -2.035497128963470459e-02 -4.221954196691513062e-02 5.912904813885688782e-02 -2.380040846765041351e-02 1.064974889159202576e-01 -1.887572705745697021e-01 -9.790837764739990234e-02 5.824717506766319275e-02 -4.122757539153099060e-02 9.444415569305419922e-02 -7.131989300251007080e-02 -8.230631239712238312e-03 -1.045089066028594971e-01 -3.858410520479083061e-03 7.859146222472190857e-03 1.425624452531337738e-02 -3.637266531586647034e-02 3.340242058038711548e-02 1.700020581483840942e-02 2.038170956075191498e-02 -7.847066968679428101e-02 2.017262764275074005e-02 -1.297848578542470932e-02 -1.576428562402725220e-01 -1.520072668790817261e-01 9.361612051725387573e-02 6.446588039398193359e-02 2.497033216059207916e-02 -8.117651194334030151e-02 -1.877252459526062012e-01 2.373127639293670654e-02 1.470561474561691284e-01 -5.661884322762489319e-02 3.080467134714126587e-02 7.441082037985324860e-03 7.194337248802185059e-02 8.520280243828892708e-04 7.813921570777893066e-02 -7.472913712263107300e-02 1.166805028915405273e-01 2.292392775416374207e-02 4.314987361431121826e-02 -6.558275781571865082e-03 1.938103232532739639e-03 -9.018430486321449280e-03 -6.359460949897766113e-02 -1.255516558885574341e-01 3.756776824593544006e-02 -5.136770382523536682e-02 -1.868764758110046387e-01 -9.981561452150344849e-02 4.939051717519760132e-02 1.320314873009920120e-02 -1.021208390593528748e-01 -2.271842509508132935e-01 -1.474839597940444946e-01 -2.490016445517539978e-02 4.447996616363525391e-02 8.708906359970569611e-03 -9.593731164932250977e-02 -8.652092516422271729e-02 2.132437378168106079e-02 1.241260319948196411e-01 1.079271081835031509e-02 1.641314662992954254e-02 4.008568450808525085e-02 7.747798413038253784e-02 -1.896006315946578979e-01 -6.954671442508697510e-02 4.317503888159990311e-03 -7.622060924768447876e-02 -6.594908982515335083e-02 3.130353987216949463e-02 -1.642749644815921783e-02 2.550010569393634796e-02 -4.844537470489740372e-03 2.811343176290392876e-03 1.984530501067638397e-02 8.357060700654983521e-02 2.152764499187469482e-01 9.901975095272064209e-02 -8.393853157758712769e-02 5.053133144974708557e-02 -1.549527607858181000e-02 4.510002210736274719e-02 -6.466618925333023071e-02 3.078273264691233635e-03 -4.190374165773391724e-03 1.991511732339859009e-01 7.943034172058105469e-02 -3.180687874555587769e-02 6.432702392339706421e-02 -4.924802109599113464e-02 -6.610974669456481934e-02 9.799096733331680298e-02 4.540013521909713745e-02 -2.357689104974269867e-02 -1.223272159695625305e-01 4.122370155528187752e-04 1.947613507509231567e-01 1.971078217029571533e-01 -2.658409625291824341e-02 5.137435160577297211e-03 3.935844637453556061e-03 2.542849779129028320e-01 2.365275621414184570e-01 -4.266420379281044006e-03 -7.017664611339569092e-02 5.727790296077728271e-02 1.855790764093399048e-01 1.137191504240036011e-01 4.087128862738609314e-02 -5.112789943814277649e-02 -2.257943153381347656e-02
5.686390772461891174e-02 4.026320576667785645e-02 -3.969817608594894409e-02 -1.355328503996133804e-02 -1.072899028658866882e-01 4.748653993010520935e-02 -7.826074212789535522e-02 5.889508873224258423e-02 -7.400892354780808091e-05 1.106367409229278564e-01 1.098162978887557983e-01 8.536969311535358429e-03 2.268505692481994629e-01 1.265841256827116013e-02 3.107093274593353271e-01 8.593600243330001831e-03 1.542796641588211060e-01 3.617879375815391541e-02 5.935100372880697250e-03 1.038772910833358765e-01 6.237132847309112549e-02 8.046311140060424805e-02 -2.283366210758686066e-02 -3.034516051411628723e-02 8.256200700998306274e-02 -7.201824337244033813e-02 -5.320632830262184143e-02 1.004408579319715500e-02 -3.688660636544227600e-02 -1.486131250858306885e-01 2.145158359780907631e-03 -6.088713183999061584e-02 9.879620373249053955e-02 2.447173297405242920e-01 -5.200209468603134155e-02 -8.491341141052544117e-04 4.366122186183929443e-03 6.836920231580734253e-02 1.179111748933792114e-01 2.487519010901451111e-02 6.258389353752136230e-02 2.580641023814678192e-02 8.461023867130279541e-02 1.269224099814891815e-03 1.044940669089555740e-02 -8.533816784620285034e-02 1.451791170984506607e-02 3.986261785030364990e-02 -1.567177101969718933e-02 -8.717107772827148438e-02 -1.837252266705036163e-02 8.366717398166656494e-02 -8.582073450088500977e-02 -2.061461657285690308e-01 8.985296636819839478e-02 -1.571168936789035797e-02 1.537951231002807617e-01 -3.884577378630638123e-02 -6.848965585231781006e-02 5.337549000978469849e-02 -5.590800568461418152e-02 -4.978945106267929077e-02 -1.007145121693611145e-01 -1.918795108795166016e-01 4.469398781657218933e-02 -8.555055409669876099e-02 1.254027634859085083e-01 2.635724283754825592e-02 -1.134501844644546509e-01 -1.104376167058944702e-01 -7.297538220882415771e-02 -6.631250679492950439e-02 -1.491811126470565796e-01 -6.541292369365692139e-02 -1.357104033231735229e-01 7.732892781496047974e-02 1.494292542338371277e-02 1.556157916784286499e-01 -2.252324223518371582e-01 -8.554714918136596680e-02 1.549172103404998779e-01 -1.302947755903005600e-02 2.154222577810287476e-01 -1.560407429933547974e-01 -3.303996920585632324e-01 1.403592806309461594e-02 -7.670875638723373413e-02 4.524373263120651245e-02 3.591040894389152527e-02 -1.691916435956954956e-01 1.702788844704627991e-02 5.717035010457038879e-02 9.458457678556442261e-02 -1.540604829788208008e-01 5.367996916174888611e-02 7.047522813081741333e-03 3.732315078377723694e-02 3.401465713977813721e-02 5.239433422684669495e-02 2.007960341870784760e-02 -1.331453677266836166e-02 -5.543247610330581665e-02 1.111140027642250061e-01 1.465210225433111191e-02 4.246028605848550797e-03 5.343027878552675247e-03 -5.432336032390594482e-02 6.766798440366983414e-03 1.950853466987609863e-01 -1.631355881690979004e-01 -1.288080774247646332e-02 1.052956953644752502e-01 2.965995110571384430e-02 9.184172004461288452e-02 2.125819958746433258e-02 -3.592848544940352440e-03 -1.105345487594604492e-01 -5.602763593196868896e-02 -1.507750451564788818e-01 -1.569366455078125000e-02 -6.179432943463325500e-02 5.866456776857376099e-02 -1.709507661871612072e-03 7.166948914527893066e-02 1.046057865023612976e-01 1.981590315699577332e-02 -1.138341985642910004e-02 -6.850091367959976196e-02 -6.617221981287002563e-02 1.998081356287002563e-01 7.373950630426406860e-02 -2.999321185052394867e-02 -1.623921245336532593e-01 9.944382309913635254e-02 -7.232763618230819702e-02 2.831296250224113464e-02 -4.274596273899078369e-02 7.623893767595291138e-02 1.315917819738388062e-01 -8.717268705368041992e-03 4.338580369949340820e-02 -1.059947088360786438e-01 -5.668427795171737671e-03 6.561899930238723755e-02 -1.375128775835037231e-01 1.141511499881744385e-01 -2.267399616539478302e-02 -6.138917058706283569e-02 1.653385721147060394e-02 -7.893474400043487549e-02 -3.768375888466835022e-02 -7.558904588222503662e-02 1.512187812477350235e-02 -3.303055092692375183e-02 1.941304802894592285e-01 1.310565769672393799e-01 -9.026497602462768555e-02 1.229044422507286072e-02 -6.238278374075889587e-02 7.900410890579223633e-02 -2.271494455635547638e-02 -1.392566319555044174e-02 -1.330877095460891724e-01 -6.354077905416488647e-02 3.269842267036437988e-02 5.630801618099212646e-02 -4.096365999430418015e-03 -1.136555895209312439e-01 5.101300310343503952e-03 8.001600392162799835e-03 2.126916078850626945e-03 -1.209316402673721313e-01 -1.394963413476943970e-01 8.066207170486450195e-02 2.303699962794780731e-02 9.728397428989410400e-02 -1.480914652347564697e-01 -1.719198524951934814e-01 3.415576815605163574e-01 -4.546276107430458069e-02 -1.017544195055961609e-01 1.924339234828948975e-01 -2.225238084793090820e-01 2.781566679477691650e-01 1.212220340967178345e-01 8.787241578102111816e-02 1.143490150570869446e-01 -1.283450871706008911e-01 8.505467325448989868e-02 -8.089996874332427979e-02 -1.215448603034019470e-01 -1.646989211440086365e-02 -2.942503802478313446e-02 6.979104876518249512e-02 -1.082788035273551941e-01 3.481154143810272217e-02 1.139913871884346008e-01 -4.703576676547527313e-03 7.537237554788589478e-02 5.156448110938072205e-02 -1.857059076428413391e-02 1.052289903163909912e-01 2.610358968377113342e-02 -1.095564588904380798e-01 -1.662768721580505371e-01 6.563409697264432907e-03 -1.855731569230556488e-02 8.977607637643814087e-02 -6.568608805537223816e-03 -1.208229828625917435e-02 -6.105457618832588196e-02 3.116699494421482086e-02 2.266803942620754242e-02 1.219735369086265564e-01 4.912114515900611877e-02 -1.770041510462760925e-02 4.083760827779769897e-02 3.744108602404594421e-02 1.377770095132291317e-03 6.069708988070487976e-02 3.671697527170181274e-02 -1.298580504953861237e-02 2.665750682353973389e-02 1.125053968280553818e-02 -9.187666582874953747e-04 2.535979449748992920e-02 1.146191284060478210e-01 1.008706465363502502e-01 -4.526683315634727478e-02 -8.042670041322708130e-02 9.861714392900466919e-02 -3.039331361651420593e-02 3.481750562787055969e-02 -3.349140658974647522e-02 -1.567157059907913208e-01 -1.135522350668907166e-01 -4.722769930958747864e-02 1.313426196575164795e-01 6.121062859892845154e-02 9.031663089990615845e-02 3.996180742979049683e-02 6.628759205341339111e-02 5.304058268666267395e-02 8.829794824123382568e-02 1.007096562534570694e-02 -2.455911040306091309e-02 1.438241172581911087e-02 1.584124378859996796e-02 6.636472046375274658e-02 5.599422752857208252e-02 -1.268370822072029114e-02 9.905070811510086060e-02 3.542217239737510681e-02 6.016679108142852783e-03 -2.029923349618911743e-01 1.811317913234233856e-02 1.151814684271812439e-02 1.521226614713668823e-01 7.317054271697998047e-02 -3.446474298834800720e-02 6.338513642549514771e-02 5.612908676266670227e-02 -5.197017639875411987e-02 -4.075057804584503174e-03 -4.948563501238822937e-02 -5.148987844586372375e-02 -3.066062927246093750e-03 1.398328393697738647e-01 5.138245970010757446e-02 -5.096241831779479980e-02 -3.095176815986633301e-02 6.482692062854766846e-02 1.078260317444801331e-01 -1.097167804837226868e-01 5.545723065733909607e-02 1.453697588294744492e-02 3.692546486854553223e-02 -4.924386739730834961e-03 -1.089086756110191345e-03 -7.528878003358840942e-02 1.208716332912445068e-01 1.921053603291511536e-02 6.437715142965316772e-02 -3.196220695972442627e-01 -1.326190866529941559e-02 3.913919255137443542e-02 -9.818417951464653015e-03 -8.810725808143615723e-02 1.339387148618698120e-01 2.997442707419395447e-02 6.950994580984115601e-02 -1.870266976766288280e-03 -6.479915231466293335e-02 8.198345452547073364e-02 3.056883811950683594e-02 1.126069650053977966e-01 -9.412200748920440674e-02 -8.003912866115570068e-02 1.952683553099632263e-02 9.928123652935028076e-02 -4.959255456924438477e-02 -5.594129115343093872e-02 5.626879259943962097e-02 8.417715877294540405e-02 3.983092680573463440e-02 8.799083530902862549e-02 1.875476213172078133e-03 -5.463797226548194885e-02 6.249211728572845459e-02 5.412364378571510315e-02 -1.361881382763385773e-03 -1.058405265212059021e-01 -7.705321162939071655e-02 -5.509412381798028946e-03 -1.744120121002197266e-01 -5.706937238574028015e-02 -5.324218422174453735e-02 -1.116346661001443863e-02 -1.936736330389976501e-02 -1.621619798243045807e-02 2.359878504648804665e-03 -8.884385228157043457e-02 -1.384462416172027588e-01 4.369603097438812256e-02 -1.861240901052951813e-02 1.205537319183349609e-01 -6.995398551225662231e-03 -1.065188571810722351e-01 -2.948289364576339722e-02 4.954790323972702026e-02 -7.244665175676345825e-02 3.329476714134216309e-02 -1.566654443740844727e-01 1.805108599364757538e-02 2.034831196069717407e-01 4.839120805263519287e-02 7.211231440305709839e-02 -1.189424842596054077e-01 6.300216913223266602e-02 -7.395251188427209854e-03 -6.248937919735908508e-02 -8.750338852405548096e-02 5.746606364846229553e-02 7.789596915245056152e-02 2.741440199315547943e-02 1.569330319762229919e-02 -1.110893301665782928e-02 -1.067939996719360352e-01 -9.753656922839581966e-05 -6.448197364807128906e-02 1.093448325991630554e-01 9.576416015625000000e-02 -7.355885952711105347e-02 -2.775815427303314209e-01 8.846029639244079590e-02 1.108234375715255737e-01 7.481247885152697563e-04 1.458324864506721497e-02 -2.684280872344970703e-01 7.408825308084487915e-02 -5.978806689381599426e-02 -7.802626490592956543e-02 -2.211701357737183571e-03 1.131825521588325500e-02 5.371408909559249878e-02 4.027161374688148499e-02 1.349356472492218018e-01 -2.521253377199172974e-02 -1.092675998806953430e-01 8.819021284580230713e-02 1.225243657827377319e-01 5.165445059537887573e-02 -7.645521778613328934e-03 -2.763350959867238998e-03 5.159691441804170609e-03 -1.469063665717840195e-02 5.536642298102378845e-02 3.763139247894287109e-01 1.162389293313026428e-01 -4.144203662872314453e-02 1.773429289460182190e-02 5.632324516773223877e-02 3.589339256286621094e-01 2.538690268993377686e-01 -1.324752066284418106e-02 -5.262365937232971191e-02 1.917218118906021118e-01 1.559170484542846680e-01 1.025673747062683105e-01 4.084878042340278625e-02 -3.982290998101234436e-02 -4.387764632701873779e-02 1.226533483713865280e-02 -5.832199007272720337e-02 -5.120084388181567192e-04 -9.667107462882995605e-02 -5.713133513927459717e-02 8.586901426315307617e-02 -9.662962704896926880e-02 2.988583222031593323e-02
-1.031951904296875000e-01 -7.088789343833923340e-02 -7.094971835613250732e-03 -2.502749674022197723e-02 6.378787010908126831e-02 -2.875728532671928406e-02 -4.874232411384582520e-02 -9.664750844240188599e-02 2.642154507339000702e-02 7.939078658819198608e-02 -3.286470845341682434e-02 -1.480429917573928833e-01 4.012079909443855286e-02 1.313081569969654083e-02 -7.684744149446487427e-02 -7.818643935024738312e-04 -2.006649971008300781e-02 1.792252995073795319e-02 8.469249308109283447e-02 -2.761977352201938629e-02 -6.695179641246795654e-02 5.563609302043914795e-02 -4.544576804619282484e-04 3.823266923427581787e-02 -2.501525543630123138e-02 8.137256652116775513e-02 -9.358056634664535522e-02 -6.527913361787796021e-02 -7.045321166515350342e-02 4.947627428919076920e-03 3.662792593240737915e-02 -2.065246459096670151e-03 3.032279387116432190e-02 -1.614218950271606445e-01 2.452921122312545776e-02 1.523508317768573761e-02 -1.230675876140594482e-01 6.413836777210235596e-02 6.202239170670509338e-02 6.405007094144821167e-02 1.004364807158708572e-02 -1.471734195947647095e-01 3.046577572822570801e-01 5.504947528243064880e-02 1.193437799811363220e-01 4.367115721106529236e-02 1.279130429029464722e-01 8.335743099451065063e-02 4.012889787554740906e-02 2.458001673221588135e-02 -2.297129668295383453e-02 2.392344176769256592e-02 -1.957834325730800629e-02 1.757414191961288452e-01 -2.751343883574008942e-02 -9.948086738586425781e-02 -1.264662891626358032e-01 1.014869138598442078e-01 -2.061785161495208740e-01 -5.467233061790466309e-02 8.378349244594573975e-03 1.885715126991271973e-02 7.108223158866167068e-03 1.207322403788566589e-01 1.900676488876342773e-01 3.461338207125663757e-02 -4.589202255010604858e-02 1.072522178292274475e-01 1.340968254953622818e-02 7.354799658060073853e-02 5.048190057277679443e-02 1.520933955907821655e-01 1.745836064219474792e-02 6.238897889852523804e-02 -2.023717015981674194e-02 4.693785309791564941e-02 6.226124987006187439e-02 -2.680615894496440887e-02 1.218165233731269836e-01 1.261656582355499268e-01 1.284728571772575378e-02 -2.537383139133453369e-02 -1.554091423749923706e-01 -6.421065889298915863e-03 -8.014470338821411133e-03 9.072022885084152222e-02 -1.047979965806007385e-01 7.791753858327865601e-02 -2.091030776500701904e-02 9.284362941980361938e-02 -1.318297069519758224e-02 2.153000980615615845e-02 6.098968163132667542e-02 -5.424419417977333069e-02 -1.192930936813354492e-01 1.030484810471534729e-01 -1.243764311075210571e-01 -5.944512784481048584e-03 -1.392507702112197876e-01 1.887721940875053406e-02 -7.953985035419464111e-02 -6.075011566281318665e-02 -1.062283962965011597e-01 -1.044824793934822083e-01 -8.379177004098892212e-02 8.200877159833908081e-02 6.933908909559249878e-02 1.103517189621925354e-01 -5.279545485973358154e-02 -2.251931838691234589e-02 1.484157592058181763e-01 9.682266414165496826e-02 1.963267624378204346e-01 -1.233869269490242004e-01 -4.616266116499900818e-02 1.360648870468139648e-01 -1.533173322677612305e-01 -1.537845134735107422e-01 -3.253186494112014771e-02 -2.507974505424499512e-01 -4.265468940138816833e-02 -8.696925640106201172e-02 -8.033322542905807495e-02 -1.121546328067779541e-01 7.221103459596633911e-02 -5.898802727460861206e-02 -4.680444300174713135e-02 -4.755114391446113586e-02 1.089025959372520447e-01 -5.821975693106651306e-02 8.414267748594284058e-02 8.808855712413787842e-02 2.116596698760986328e-01 -5.742673575878143311e-02 -6.371913850307464600e-02 -1.114477962255477905e-01 9.141067415475845337e-02 -1.118546426296234131e-01 -1.526254117488861084e-01 6.304873526096343994e-02 5.119963362812995911e-02 -1.917179673910140991e-01 -7.601112592965364456e-03 6.818895787000656128e-02 1.183879971504211426e-01 -2.117228507995605469e-01 -9.865653701126575470e-03 8.613771200180053711e-02 -7.772736717015504837e-03 -5.556306988000869751e-02 -1.030003353953361511e-01 -6.684367358684539795e-02 -1.450460553169250488e-01 2.756528928875923157e-02 -6.577321141958236694e-02 9.684111177921295166e-02 -1.140249893069267273e-02 5.203381925821304321e-02 7.170242816209793091e-02 -5.055715143680572510e-02 -1.583182951435446739e-03 1.319359391927719116e-01 4.339557141065597534e-02 -9.226252138614654541e-02 -1.059615090489387512e-01 -1.423359848558902740e-02 -1.630271375179290771e-01 -1.430158019065856934e-01 -9.206382185220718384e-02 -5.955132097005844116e-02 -1.927836537361145020e-01 -6.071406975388526917e-02 -5.006472766399383545e-02 -9.870843589305877686e-02 -8.193353563547134399e-02 -1.666668504476547241e-01 -3.665940836071968079e-02 -1.420073490589857101e-02 -2.365595400333404541e-01 -6.963542848825454712e-02 5.767633393406867981e-02 -9.585066698491573334e-03 1.326950192451477051e-01 5.660865083336830139e-02 -6.744766235351562500e-02 -7.751683890819549561e-02 6.139316782355308533e-02 8.334231376647949219e-02 -4.347687121480703354e-03 2.312654443085193634e-02 3.105311654508113861e-02 1.594745069742202759e-01 -1.436286717653274536e-01 -1.772839426994323730e-01 -9.483334422111511230e-02 -1.531184464693069458e-01 -1.945118606090545654e-02 8.948890864849090576e-02 -3.995575755834579468e-02 3.122840076684951782e-03 -1.089857667684555054e-01 -7.931883633136749268e-02 6.843937560915946960e-03 7.665061205625534058e-02 1.174099668860435486e-01 -1.589920185506343842e-02 9.349513798952102661e-02 4.791929945349693298e-02 1.830928325653076172e-01 1.055793613195419312e-01 -1.196786388754844666e-02 6.506787240505218506e-02 -7.707209791988134384e-03 6.206166464835405350e-03 -2.490742653608322144e-01 5.968894436955451965e-02 9.393385797739028931e-02 -8.833171427249908447e-02 -1.607147753238677979e-01 4.247817397117614746e-02 1.201124116778373718e-02 -8.865185827016830444e-02 1.996358856558799744e-02 7.814508676528930664e-02 -7.622299715876579285e-03 -6.911671906709671021e-02 -1.159718409180641174e-01 -2.606668882071971893e-02 6.127643212676048279e-02 8.944903314113616943e-02 -4.094947502017021179e-02 1.927140983752906322e-03 -5.834028124809265137e-02 1.209944188594818115e-01 9.983415901660919189e-02 1.099716946482658386e-01 -3.507192432880401611e-02 2.844894863665103912e-02 -9.339768439531326294e-03 -1.448962986469268799e-01 1.599475741386413574e-02 1.359125971794128418e-01 -9.023535996675491333e-02 -1.377727687358856201e-01 -1.905766129493713379e-02 1.296900957822799683e-01 -8.181866258382797241e-02 -6.755780428647994995e-02 4.202182218432426453e-02 -1.021312363445758820e-02 5.806417763233184814e-02 -4.640081897377967834e-02 3.718578442931175232e-02 6.284287571907043457e-02 1.413674056529998779e-01 1.513044983148574829e-01 3.450578823685646057e-02 1.286169141530990601e-01 7.208784669637680054e-02 2.420213073492050171e-03 3.273708745837211609e-02 1.302218530327081680e-02 -2.567050233483314514e-02 -2.060755789279937744e-01 -2.007355391979217529e-01 1.448760032653808594e-01 -1.245877444744110107e-01 -1.191829815506935120e-01 1.221950948238372803e-01 6.777135282754898071e-02 -4.073071107268333435e-02 2.716821432113647461e-02 3.719002380967140198e-02 1.429985314607620239e-01 1.781772077083587646e-02 -1.043862774968147278e-01 6.631305068731307983e-02 -7.005479186773300171e-02 1.068960428237915039e-01 7.672288268804550171e-02 6.770306266844272614e-03 1.347893849015235901e-02 5.167002603411674500e-02 2.646040320396423340e-01 -8.244712650775909424e-02 -5.004407837986946106e-02 -8.103545755147933960e-02 2.043442279100418091e-01 -1.040205657482147217e-01 -4.078630357980728149e-02 2.713861688971519470e-02 7.653873413801193237e-02 -1.183110103011131287e-01 -1.328101903200149536e-01 4.080155119299888611e-02 8.068236708641052246e-02 -9.274947643280029297e-02 -8.446063846349716187e-02 -3.856895491480827332e-02 5.193402990698814392e-02 1.047072261571884155e-01 1.271500717848539352e-02 -9.751701727509498596e-03 -1.531353034079074860e-02 -4.129598289728164673e-02 7.941611111164093018e-02 3.503374010324478149e-02 -7.253623753786087036e-02 -1.083803474903106689e-01 5.089502781629562378e-03 -5.133252963423728943e-02 -3.057244792580604553e-02 3.272624686360359192e-02 -1.878590881824493408e-01 1.699589937925338745e-01 1.222339179366827011e-02 2.728728763759136200e-02 -9.687356650829315186e-02 1.045008897781372070e-01 -3.549548238515853882e-02 -1.031266897916793823e-01 6.535295397043228149e-03 3.091898001730442047e-02 -7.857053726911544800e-02 -5.126353353261947632e-03 1.462124381214380264e-02 1.089012250304222107e-03 8.631550520658493042e-02 -1.682772487401962280e-02 -8.286009728908538818e-02 -1.866657100617885590e-02 4.412921145558357239e-02 3.195299953222274780e-02 -6.734008342027664185e-02 -1.212166771292686462e-01 -1.256155818700790405e-01 -5.482582375407218933e-02 -4.777444526553153992e-02 6.689417641609907150e-03 6.573789566755294800e-02 -6.225069239735603333e-02 -7.066311687231063843e-02 1.010698378086090088e-01 3.822239115834236145e-02 5.488223209977149963e-02 -9.807030111551284790e-02 1.195653527975082397e-02 2.043311670422554016e-02 -5.380921438336372375e-02 -8.856054395437240601e-02 -3.712699562311172485e-02 -5.693594366312026978e-02 4.193337261676788330e-02 -3.149252012372016907e-02 -3.048124781344085932e-04 8.472466841340065002e-03 -4.368702694773674011e-02 -1.023951172828674316e-01 9.135071933269500732e-02 9.162592887878417969e-02 -1.402818411588668823e-01 -7.406292855739593506e-02 1.135051324963569641e-01 1.512792259454727173e-01 -4.108539223670959473e-02 -2.595349773764610291e-02 1.872544735670089722e-01 3.131224587559700012e-02 -4.015783593058586121e-02 1.368386670947074890e-02 3.399707004427909851e-02 -1.074342057108879089e-01 5.627964809536933899e-02 8.328130096197128296e-02 -7.545261085033416748e-02 -1.207847055047750473e-02 1.748301833868026733e-02 8.630217611789703369e-02 -7.574813067913055420e-02 3.680032864212989807e-02 5.839976668357849121e-02 7.349083572626113892e-02 -1.461219936609268188e-01 -7.700634002685546875e-02 -9.203191101551055908e-02 8.864857256412506104e-02 -5.234484001994132996e-02 -2.119994908571243286e-02 9.800588339567184448e-02 9.029956161975860596e-02 9.358160942792892456e-02 1.027706861495971680e-01 1.207499876618385315e-01 6.668003648519515991e-02 -7.255427539348602295e-02 6.017057970166206360e-02 1.324790120124816895e-01 -5.388804897665977478e-02 7.775597274303436279e-02 4.193652048707008362e-02
-2.453968226909637451e-01 -1.467792689800262451e-01 1.091051772236824036e-01 1.289817243814468384e-01 7.344377040863037109e-02 -1.893298625946044922e-01 -5.462160706520080566e-02 5.450686067342758179e-02 1.396719962358474731e-01 3.176682591438293457e-01 -4.749315232038497925e-02 -3.879425302147865295e-02 1.072199866175651550e-01 4.660912603139877319e-02 5.372270196676254272e-02 2.983004041016101837e-02 1.640632599592208862e-01 2.512591890990734100e-02 5.371700227260589600e-02 -1.254122555255889893e-01 5.773084238171577454e-02 7.965166866779327393e-02 7.074072957038879395e-02 3.506078943610191345e-02 1.305411010980606079e-01 -2.110781846567988396e-03 -1.117888763546943665e-01 4.946707189083099365e-02 1.368355602025985718e-01 6.762580946087837219e-03 -9.709079563617706299e-02 6.483542919158935547e-02 1.309914439916610718e-01 1.081712767481803894e-01 2.234286367893218994e-01 -6.123255472630262375e-03 -3.935116901993751526e-02 -2.631685510277748108e-02 5.297553911805152893e-02 4.220985248684883118e-02 -5.203483998775482178e-02 -1.091747079044580460e-02 7.059651613235473633e-02 -6.344643887132406235e-03 3.108711726963520050e-02 -2.751067094504833221e-02 1.259469389915466309e-01 -4.751371592283248901e-02 9.340362250804901123e-02 8.358322829008102417e-02 1.107223927974700928e-01 -8.440152555704116821e-02 -1.687277406454086304e-01 -6.859796494245529175e-02 -5.668028071522712708e-02 -6.405097991228103638e-02 1.002520844340324402e-01 3.305429220199584961e-02 9.339595586061477661e-02 -7.389511913061141968e-02 -1.144857425242662430e-02 8.089947700500488281e-02 -1.710257530212402344e-01 -4.521700367331504822e-02 1.195351630449295044e-01 4.560292698442935944e-03 2.908111363649368286e-02 3.498419374227523804e-02 -6.592597812414169312e-02 -9.849493950605392456e-02 4.333890043199062347e-03 -3.485099971294403076e-02 1.476382315158843994e-01 -3.368390724062919617e-02 6.315661128610372543e-03 -1.760007441043853760e-01 -2.807884477078914642e-02 -2.833748795092105865e-02 -2.227316945791244507e-01 -2.631469257175922394e-02 3.291126713156700134e-02 -2.402614243328571320e-02 3.483736887574195862e-02 -6.784094031900167465e-03 -1.693736910820007324e-01 6.698456406593322754e-02 9.208474308252334595e-03 -8.893214911222457886e-02 4.233640059828758240e-02 3.470508381724357605e-02 -9.939372539520263672e-02 -5.164383724331855774e-02 -1.830472983419895172e-02 3.034676052629947662e-02 -9.502299875020980835e-02 1.134873330593109131e-01 -5.566404201090335846e-03 9.803505614399909973e-03 9.698872268199920654e-02 -3.780039027333259583e-02 4.662153497338294983e-02 2.585807628929615021e-02 6.523042172193527222e-02 1.228908170014619827e-02 5.365114286541938782e-02 7.939566671848297119e-02 -3.595952689647674561e-02 -8.386362344026565552e-03 1.196829080581665039e-01 3.388424590229988098e-02 9.468454867601394653e-02 7.589847594499588013e-02 3.924198076128959656e-02 -1.232702657580375671e-02 -4.676043987274169922e-02 4.335990175604820251e-02 -6.489387154579162598e-02 1.251017302274703979e-01 3.203890845179557800e-02 1.316103735007345676e-04 -4.187746439129114151e-03 -2.196682058274745941e-02 -6.570803374052047729e-02 8.697776496410369873e-02 5.653931200504302979e-02 1.025472730398178101e-01 -3.014739416539669037e-02 -6.761153787374496460e-02 8.555912226438522339e-02 1.166066452860832214e-01 7.605059444904327393e-02 -1.934635043144226074e-01 7.232540845870971680e-02 1.601083390414714813e-02 -1.325310617685317993e-01 5.518061574548482895e-03 2.248533517122268677e-01 8.803207427263259888e-02 -1.366780400276184082e-01 9.664439409971237183e-02 2.836215496063232422e-02 -4.726643860340118408e-02 2.675589919090270996e-02 -3.131057322025299072e-02 -6.025176867842674255e-02 -4.726016893982887268e-03 -8.846986293792724609e-02 7.589605171233415604e-03 2.519343979656696320e-02 -3.399754315614700317e-02 1.448724418878555298e-01 8.535405248403549194e-02 -4.884245246648788452e-02 -2.166214026510715485e-02 1.253047883510589600e-01 1.452348083257675171e-01 8.579395711421966553e-02 5.724775604903697968e-03 -7.465698756277561188e-03 -1.345250755548477173e-01 -1.766997203230857849e-02 1.071732640266418457e-01 -8.416441082954406738e-02 -4.563830792903900146e-02 -9.812218137085437775e-03 -4.687492176890373230e-02 -6.962770968675613403e-02 -9.539844840764999390e-02 -2.835535444319248199e-02 7.230111211538314819e-02 -8.415681123733520508e-02 8.935132995247840881e-03 2.358670905232429504e-02 6.590716540813446045e-02 -3.009739704430103302e-02 9.805569052696228027e-02 2.073797285556793213e-01 1.430949419736862183e-01 7.866024971008300781e-02 -2.188296429812908173e-02 2.169404737651348114e-02 -7.294069230556488037e-02 -1.417282968759536743e-01 1.056499332189559937e-01 -6.248793378472328186e-02 -3.423440456390380859e-02 -1.144523080438375473e-02 4.358190670609474182e-02 -1.181516721844673157e-01 -2.047896757721900940e-02 1.227340400218963623e-01 1.490145921707153320e-02 1.347722020000219345e-02 7.069922238588333130e-02 3.721663495525717735e-03 2.180647477507591248e-02 -1.489724069833755493e-01 -2.618925645947456360e-03 2.544180117547512054e-02 4.194423183798789978e-02 -4.834355786442756653e-02 3.656991943717002869e-02 9.593305177986621857e-03 -1.216319948434829712e-01 -3.956261277198791504e-02 8.923944830894470215e-02 -7.478950917720794678e-02 -1.856691539287567139e-01 -1.137071102857589722e-02 2.173751145601272583e-01 2.690739743411540985e-02 6.019663438200950623e-02 2.124683707952499390e-01 4.818506911396980286e-02 -6.870709359645843506e-02 -9.341348707675933838e-02 -1.708906888961791992e-02 1.020772233605384827e-01 9.681856632232666016e-02 5.737977474927902222e-02 3.292611986398696899e-02 -5.937983095645904541e-02 -9.601464867591857910e-02 -8.406967669725418091e-02 1.007905881851911545e-02 -1.084301024675369263e-01 -4.417949914932250977e-02 6.729038059711456299e-02 -6.149310618638992310e-02 -5.711762607097625732e-02 1.421935558319091797e-01 6.292041391134262085e-02 -9.097311645746231079e-02 -6.470336019992828369e-02 2.292073369026184082e-01 -5.575895309448242188e-03 8.756149560213088989e-03 1.538868844509124756e-01 8.550731837749481201e-02 -2.774762688204646111e-03 -3.858519950881600380e-03 -3.348581865429878235e-02 4.224510863423347473e-02 1.128468662500381470e-01 -1.571751083247363567e-03 1.171171814203262329e-01 7.563968002796173096e-02 -7.540982961654663086e-02 1.781288720667362213e-02 1.875953562557697296e-02 -3.861593082547187805e-02 -1.874674484133720398e-02 -1.389098167419433594e-01 -9.423279762268066406e-02 -3.380760177969932556e-02 2.859965339303016663e-02 6.084627239033579826e-04 -1.245929822325706482e-01 -1.217518225312232971e-01 8.510437607765197754e-02 -5.532811954617500305e-02 5.646850541234016418e-02 8.768271654844284058e-02 8.557100594043731689e-02 -7.538160681724548340e-02 1.038869768381118774e-01 -4.453254491090774536e-02 -4.926389455795288086e-02 7.592576742172241211e-02 1.274548936635255814e-02 -4.795854166150093079e-02 7.855527848005294800e-02 -9.856943041086196899e-02 -7.488755136728286743e-02 -2.114496007561683655e-02 -2.210353165864944458e-01 -7.417532801628112793e-02 2.647591754794120789e-02 -3.200181573629379272e-02 1.740814149379730225e-01 1.290553510189056396e-01 -8.292198181152343750e-02 -2.585600614547729492e-01 4.645818099379539490e-02 4.858470335602760315e-02 8.757487684488296509e-02 1.228143572807312012e-01 4.252811148762702942e-02 1.109148338437080383e-01 -1.958616077899932861e-01 7.840125262737274170e-02 -7.863237708806991577e-02 1.542725786566734314e-02 -4.152440000325441360e-03 9.552068077027797699e-04 2.011899836361408234e-02 -1.755158901214599609e-01 -9.789966791868209839e-02 -8.443555980920791626e-02 -4.180070757865905762e-02 9.098739922046661377e-02 -7.915706932544708252e-02 -3.439936041831970215e-02 -5.341648310422897339e-02 -2.695552259683609009e-02 8.670083433389663696e-02 1.357781887054443359e-01 1.039495691657066345e-01 -1.382547020912170410e-01 -2.401965260505676270e-01 -9.267093241214752197e-02 -1.205111443996429443e-01 -6.812249869108200073e-02 -4.784823954105377197e-02 1.528135314583778381e-02 -4.152102023363113403e-02 7.026371359825134277e-02 -1.547391898930072784e-02 1.789045706391334534e-02 1.443591713905334473e-01 -8.875324577093124390e-02 4.526625201106071472e-02 3.288515284657478333e-02 -1.004562675952911377e-01 8.295017480850219727e-02 2.048757523298263550e-01 6.020872388035058975e-03 -1.588257253170013428e-01 1.632617786526679993e-02 -1.092297118157148361e-02 -1.135407947003841400e-03 3.732809098437428474e-03 1.746697165071964264e-02 6.680282950401306152e-02 -1.996263265609741211e-01 -8.426477015018463135e-02 -8.549393713474273682e-02 -1.099483817815780640e-01 -6.958895921707153320e-02 -6.075639650225639343e-02 1.638672128319740295e-02 5.660402029752731323e-02 1.317759156227111816e-01 -4.341003298759460449e-02 -2.444891631603240967e-02 -8.634206652641296387e-02 -8.326551876962184906e-03 5.943471938371658325e-02 1.623255386948585510e-02 -1.044958233833312988e-01 -1.024332791566848755e-01 -6.158600375056266785e-02 1.293479055166244507e-01 1.826325431466102600e-02 -1.677836775779724121e-01 -2.048954553902149200e-02 -3.806326165795326233e-02 -1.578924506902694702e-01 -1.647506654262542725e-01 9.481436759233474731e-02 4.847994446754455566e-02 -7.715329062193632126e-03 1.082523837685585022e-01 4.358289763331413269e-02 -1.003863140940666199e-01 -8.383648842573165894e-02 1.236917637288570404e-02 -3.183046937920153141e-04 3.053849563002586365e-02 8.630852214992046356e-03 3.471376374363899231e-03 -1.187908127903938293e-01 -1.747822463512420654e-01 -7.369233295321464539e-03 -1.595101691782474518e-02 -3.531977301463484764e-03 7.393319159746170044e-02 2.609390914440155029e-01 8.762460947036743164e-02 1.394367516040802002e-01 -3.830271214246749878e-02 1.059768572449684143e-01 1.474773436784744263e-01 1.281592343002557755e-02 6.362316757440567017e-02 -2.222157269716262817e-02 1.025744527578353882e-01 -2.702700905501842499e-02 -2.854912169277667999e-02 4.511565342545509338e-02 2.422226360067725182e-03 3.251312300562858582e-02 -2.460944093763828278e-02 5.236597731709480286e-02 3.773614764213562012e-02 -2.506949007511138916e-02 -4.783120937645435333e-03 -2.631304971873760223e-02 4.974707262590527534e-04 7.461339235305786133e-02
-1.322951763868331909e-01 5.452832579612731934e-02 3.552247211337089539e-02 8.571760356426239014e-02 8.493379503488540649e-02 -3.543484956026077271e-02 -6.376889348030090332e-02 9.781696647405624390e-02 -5.518966540694236755e-02 -9.125784039497375488e-02 1.330222487449645996e-01 -3.938245028257369995e-02 4.827127978205680847e-02 -1.272095888853073120e-01 -2.071823924779891968e-01 1.132820695638656616e-01 -7.223271578550338745e-02 1.378962863236665726e-02 -9.414518624544143677e-02 -5.878389626741409302e-02 6.451002508401870728e-02 3.567935898900032043e-02 -6.621769815683364868e-02 -1.136902999132871628e-02 4.193142428994178772e-02 3.334910795092582703e-02 -8.921838551759719849e-02 -2.841558493673801422e-02 4.359064251184463501e-02 4.191637784242630005e-02 -3.418248519301414490e-02 -1.199959442019462585e-01 -1.773029863834381104e-01 1.326675713062286377e-02 -3.266690298914909363e-03 -1.000466048717498779e-01 -2.486542612314224243e-02 -1.959909796714782715e-01 -7.166714221239089966e-02 -4.313347488641738892e-02 -1.347088371403515339e-03 8.565168827772140503e-02 -1.095136534422636032e-02 -3.595461696386337280e-02 1.046840660274028778e-02 3.714272752404212952e-02 5.209962278604507446e-02 8.366815000772476196e-02 9.294477105140686035e-02 1.010489091277122498e-01 2.053115889430046082e-02 5.082182958722114563e-02 8.671540766954421997e-02 -1.046047955751419067e-01 -1.223236769437789917e-01 -3.754327446222305298e-02 1.819910481572151184e-02 2.257876656949520111e-02 -1.502360254526138306e-01 -1.574910432100296021e-01 -1.068811789155006409e-01 -4.338852316141128540e-02 1.337088495492935181e-01 4.690488055348396301e-02 -5.117548257112503052e-02 -1.821624673902988434e-02 -8.327251998707652092e-05 -1.307587604969739914e-02 8.338564075529575348e-03 5.334993079304695129e-02 1.168859004974365234e-01 -3.412411361932754517e-02 4.912767559289932251e-02 3.047563880681991577e-02 4.640898853540420532e-02 -1.415987610816955566e-01 -8.853270672261714935e-03 4.887720569968223572e-02 -1.244910955429077148e-01 -5.574045702815055847e-02 -6.505884230136871338e-02 -6.137610599398612976e-02 1.465636789798736572e-01 1.266524195671081543e-01 -1.010102480649948120e-01 -6.187539547681808472e-02 1.984193688258528709e-03 5.788115411996841431e-02 1.601145714521408081e-01 -8.338581025600433350e-02 1.735550817102193832e-03 -8.203560858964920044e-02 -4.920483753085136414e-02 6.953996419906616211e-02 -7.000173628330230713e-02 -1.752591505646705627e-02 -1.997385546565055847e-02 4.326779767870903015e-02 -3.868851438164710999e-02 -6.226594373583793640e-02 -1.335797552019357681e-02 -1.361273974180221558e-01 -2.616029046475887299e-02 5.176181346178054810e-02 -3.863189741969108582e-02 -4.560231789946556091e-02 -1.581614464521408081e-01 -1.057472676038742065e-01 9.102039970457553864e-03 8.682555635459721088e-04 -2.050796523690223694e-03 -1.411409527063369751e-01 -2.723745405673980713e-01 4.708754643797874451e-02 1.266377270221710205e-01 6.218299642205238342e-02 2.711484022438526154e-02 -1.590101234614849091e-02 1.165686398744583130e-01 4.102283716201782227e-02 -2.059888094663619995e-02 2.175952494144439697e-02 -3.091631643474102020e-02 -2.126466669142246246e-02 -1.580268591642379761e-01 -2.764618396759033203e-02 1.649988740682601929e-01 3.582939133048057556e-02 -1.050280481576919556e-01 -2.281010895967483521e-01 2.458675764501094818e-02 6.288125365972518921e-02 6.810685247182846069e-02 -1.352102607488632202e-01 -9.084748476743698120e-02 1.421884354203939438e-02 -7.482500374317169189e-02 -2.590750902891159058e-02 2.481674775481224060e-02 1.873762011528015137e-01 -7.469212263822555542e-02 6.690815836191177368e-02 8.123551495373249054e-03 4.783489927649497986e-02 6.114532053470611572e-02 -6.582669913768768311e-02 -2.408985421061515808e-02 -7.376380264759063721e-02 1.087701506912708282e-02 8.389077335596084595e-02 -9.351719915866851807e-02 7.094058394432067871e-02 -1.300658192485570908e-02 -1.200926154851913452e-01 7.601854391396045685e-03 4.876703396439552307e-02 7.586013525724411011e-02 6.930516660213470459e-02 -4.577077180147171021e-02 4.130712896585464478e-02 8.340030908584594727e-02 1.046477407217025757e-01 8.843513578176498413e-02 5.483231320977210999e-02 1.302796453237533569e-01 -5.927332676947116852e-03 1.106218621134757996e-01 -1.677519455552101135e-02 -5.512799136340618134e-03 -2.932531759142875671e-02 -8.960247784852981567e-02 4.780044034123420715e-02 8.465481922030448914e-03 3.672699257731437683e-02 -4.960623383522033691e-02 2.129471600055694580e-01 1.303590834140777588e-01 -2.371273487806320190e-01 8.576706796884536743e-02 5.566492327488958836e-04 -2.135728485882282257e-02 4.497861862182617188e-02 -1.376888304948806763e-01 -2.189830876886844635e-03 1.539089065045118332e-02 -2.048361580818891525e-03 1.573698669672012329e-01 -5.433534085750579834e-02 -1.183886229991912842e-01 1.027480363845825195e-01 -2.777388319373130798e-02 8.710074424743652344e-02 1.222331449389457703e-01 1.389501616358757019e-03 8.113018423318862915e-02 -5.380627140402793884e-02 8.896340429782867432e-02 4.584975913166999817e-02 -3.917306661605834961e-02 3.506196290254592896e-02 -1.236057728528976440e-01 -1.464538127183914185e-01 3.711031004786491394e-02 9.340707957744598389e-02 1.659656763076782227e-01 -5.580281466245651245e-02 -1.451223641633987427e-01 -1.277741976082324982e-02 4.503767937421798706e-02 7.733173668384552002e-02 -9.739723056554794312e-02 -2.131935805082321167e-01 -5.669662728905677795e-02 -3.136180341243743896e-03 7.678462425246834755e-04 -2.663017250597476959e-02 6.797339767217636108e-02 1.010580435395240784e-01 4.824446979910135269e-03 1.973968744277954102e-02 8.915313333272933960e-02 5.139898508787155151e-02 -1.639925129711627960e-02 -1.046301946043968201e-01 -1.272460222244262695e-01 -9.891436249017715454e-02 1.909709721803665161e-02 4.319694638252258301e-02 8.187587559223175049e-02 2.312422357499599457e-02 -6.237730011343955994e-02 -1.661862283945083618e-01 -6.461171805858612061e-02 1.638678312301635742e-01 7.538629323244094849e-02 -4.289677366614341736e-02 -1.329778730869293213e-01 -1.205558478832244873e-01 -3.557448089122772217e-02 -1.244579330086708069e-01 9.348993003368377686e-02 1.009410992264747620e-02 -6.643055938184261322e-03 1.631557010114192963e-02 -7.658092677593231201e-02 2.564650261774659157e-03 -2.682866528630256653e-02 2.274481952190399170e-02 -9.100321680307388306e-02 3.126987256109714508e-03 -1.577878445386886597e-01 -2.413841933012008667e-01 -2.898499928414821625e-02 1.378449201583862305e-01 1.360467821359634399e-01 -9.320193529129028320e-02 -1.806148141622543335e-01 -2.678733877837657928e-02 1.520048677921295166e-01 1.595548540353775024e-01 6.351907551288604736e-02 5.250603333115577698e-02 4.633517190814018250e-02 1.344832032918930054e-01 2.907289005815982819e-02 1.054818779230117798e-01 3.094655275344848633e-02 -2.121709659695625305e-02 3.090392984449863434e-02 -5.644710734486579895e-02 9.950094856321811676e-03 -2.959683164954185486e-02 1.456663012504577637e-02 -5.382129549980163574e-02 -1.256671547889709473e-01 2.105966769158840179e-02 4.260765761137008667e-02 6.445815414190292358e-02 1.377040445804595947e-01 1.107245162129402161e-01 -1.096967607736587524e-01 -5.138102546334266663e-02 9.150833636522293091e-02 4.562458395957946777e-02 -1.057257950305938721e-01 -7.801853865385055542e-02 -1.068225596100091934e-02 -3.674785792827606201e-02 -8.495185524225234985e-02 -1.072316318750381470e-01 9.799621999263763428e-02 3.296495229005813599e-02 1.790574342012405396e-01 -4.713856801390647888e-02 5.554367601871490479e-02 -1.768694669008255005e-01 -3.516977885738015175e-03 -6.496199406683444977e-03 -6.436127424240112305e-02 -2.487934753298759460e-02 6.266854703426361084e-02 6.774577498435974121e-02 -6.963185220956802368e-02 3.551380336284637451e-02 -4.917244613170623779e-02 1.016023308038711548e-01 1.481651067733764648e-01 -5.759896710515022278e-02 5.199184641242027283e-02 5.727402120828628540e-02 1.592072546482086182e-01 1.183809190988540649e-01 1.466533243656158447e-01 7.180476933717727661e-02 4.790583997964859009e-02 -3.379696235060691833e-02 -5.978804826736450195e-02 -3.154953569173812866e-02 -9.601310826838016510e-03 -3.446691855788230896e-02 -4.900327697396278381e-02 4.410896077752113342e-02 -2.333162538707256317e-02 -2.322124689817428589e-02 1.713476702570915222e-02 8.814705908298492432e-02 8.971760421991348267e-02 2.197216451168060303e-02 -2.794389612972736359e-02 -3.860072046518325806e-02 2.484397403895854950e-02 2.550681829452514648e-01 9.553486853837966919e-02 -9.908229857683181763e-02 -8.915150165557861328e-02 -5.291512701660394669e-03 1.922259777784347534e-01 7.149341702461242676e-02 -4.417976737022399902e-02 -7.916938513517379761e-02 -9.048940986394882202e-02 2.985863015055656433e-02 -8.255029469728469849e-02 -2.768484130501747131e-02 1.747059635818004608e-02 2.772606350481510162e-02 4.279042780399322510e-02 6.719616800546646118e-02 5.044494196772575378e-02 5.443425476551055908e-02 -5.121304094791412354e-02 1.633207798004150391e-01 3.087308630347251892e-02 -3.497780114412307739e-02 1.303208898752927780e-02 -1.777464300394058228e-01 -7.610090076923370361e-02 2.078162729740142822e-01 -7.082132995128631592e-02 -4.531925544142723083e-02 -8.666603267192840576e-02 -5.291069671511650085e-02 -3.598991781473159790e-02 -1.219492927193641663e-01 -1.709226369857788086e-01 3.772128745913505554e-02 -1.999123245477676392e-01 -2.025714702904224396e-02 1.365349143743515015e-01 -2.146445959806442261e-02 -8.579653501510620117e-02 -5.569890141487121582e-02 -5.162574723362922668e-02 5.119799450039863586e-02 8.896525204181671143e-02 -7.731210440397262573e-02 -2.302990406751632690e-01 -3.413746878504753113e-02 -1.049557887017726898e-02 6.565508246421813965e-02 -5.404279008507728577e-02 -3.309829831123352051e-01 -1.698502302169799805e-01 -6.831355392932891846e-02 -1.162415444850921631e-01 -8.263566344976425171e-02 -1.727488338947296143e-01 -1.035735607147216797e-01 -9.675771743059158325e-02 -7.937123626470565796e-02 3.442126885056495667e-02 1.017927601933479309e-01 9.319876879453659058e-02 6.937384605407714844e-02 -2.541379770264029503e-03 8.082110434770584106e-02 1.466247290372848511e-01 2.214545011520385742e-02 4.059633612632751465e-02 6.371513009071350098e-02
1.302312612533569336e-01 5.912676081061363220e-02 -3.109901584684848785e-02 6.205122917890548706e-02 5.935212597250938416e-03 -2.064909413456916809e-02 -1.313387751579284668e-01 -3.709185123443603516e-02 2.047854848206043243e-02 -7.629507686942815781e-03 -1.873105615377426147e-01 9.093832224607467651e-03 -2.077265828847885132e-01 -1.516811735928058624e-02 -7.888551801443099976e-02 -1.248921006917953491e-01 -1.016705185174942017e-01 -1.235392838716506958e-01 7.042463868856430054e-02 -1.071314290165901184e-01 -1.899751126766204834e-01 -9.808578342199325562e-02 -1.352414488792419434e-02 -6.689695268869400024e-02 1.732168905436992645e-02 -6.724944710731506348e-02 1.858153790235519409e-01 8.499751985073089600e-02 8.582205325365066528e-02 -9.534889459609985352e-02 1.551604419946670532e-01 1.653055399656295776e-01 -8.697357028722763062e-02 5.201434344053268433e-02 -1.107732858508825302e-02 4.433242231607437134e-02 1.310048699378967285e-01 -2.939156815409660339e-02 -9.380511194467544556e-02 6.907360255718231201e-02 1.824295893311500549e-02 2.335839206352829933e-03 -1.725606471300125122e-01 3.454658016562461853e-02 -2.897796966135501862e-02 5.956746265292167664e-02 -6.400354951620101929e-02 -1.016706898808479309e-01 -3.807311877608299255e-02 8.787918835878372192e-02 -8.288568258285522461e-02 -1.222373917698860168e-01 7.855559885501861572e-02 8.219188451766967773e-02 5.589145421981811523e-02 7.099308073520660400e-02 -1.159538552165031433e-01 -1.337891793809831142e-03 -8.247870206832885742e-02 -9.817103296518325806e-02 2.240554839372634888e-01 -6.381065398454666138e-02 3.793751820921897888e-02 -1.134650409221649170e-01 -1.042952667921781540e-02 -2.555751614272594452e-02 7.717514783143997192e-02 -7.871227711439132690e-02 1.207325905561447144e-01 6.921543180942535400e-02 -6.570750474929809570e-02 -5.061292904429137707e-04 6.483244895935058594e-02 -1.026414148509502411e-02 3.762700036168098450e-02 -1.730894111096858978e-02 8.907739818096160889e-02 1.329090595245361328e-01 6.013766303658485413e-02 4.155449196696281433e-02 1.786226406693458557e-02 -6.453508883714675903e-02 -2.085647732019424438e-01 7.034669816493988037e-02 -1.135814487934112549e-01 3.660311689600348473e-03 4.357435181736946106e-02 -1.960940062999725342e-01 -1.200729385018348694e-01 7.684590667486190796e-02 3.843126818537712097e-02 -6.727515161037445068e-02 2.402736246585845947e-02 -4.026489332318305969e-04 -2.855452895164489746e-02 -2.083913423120975494e-02 1.003921106457710266e-01 1.559723019599914551e-01 -7.899525761604309082e-02 -1.757018268108367920e-01 8.427574485540390015e-02 9.320213645696640015e-02 -5.447429046034812927e-02 -7.433775812387466431e-02 -2.008528821170330048e-02 -7.566469162702560425e-02 9.311126917600631714e-02 -6.276789307594299316e-02 3.886262653395533562e-03 7.259674370288848877e-02 2.847447246313095093e-02 1.311921775341033936e-01 2.707444727420806885e-01 4.449401423335075378e-02 6.880079209804534912e-02 -1.294069737195968628e-01 4.411676898598670959e-02 1.229590624570846558e-01 1.334473490715026855e-01 -1.231834478676319122e-02 -3.054791688919067383e-02 -1.236726418137550354e-01 -3.376024961471557617e-02 1.611526357010006905e-03 4.170545190572738647e-02 5.662620067596435547e-02 -1.060179322957992554e-01 5.006089061498641968e-02 -4.409490898251533508e-02 -4.188475012779235840e-02 -7.679457962512969971e-02 -6.986084580421447754e-02 1.537551432847976685e-01 1.283811181783676147e-01 -1.760893501341342926e-02 2.645051851868629456e-02 1.099730026908218861e-03 7.902893424034118652e-02 -1.758986860513687134e-01 -9.379375725984573364e-02 -2.393362484872341156e-02 5.971201881766319275e-02 -6.145013496279716492e-02 -1.100633740425109863e-01 2.579011395573616028e-02 -6.888648867607116699e-02 1.684202253818511963e-02 1.132267862558364868e-01 6.198175624012947083e-02 1.436370331794023514e-02 9.835336357355117798e-02 -6.040241941809654236e-02 2.355940453708171844e-02 -8.439344167709350586e-02 -1.888430863618850708e-02 -5.727631598711013794e-02 -6.272680312395095825e-02 -2.052874676883220673e-02 -3.070259839296340942e-02 -2.019073627889156342e-02 -1.346826087683439255e-02 1.590908132493495941e-02 1.628979891538619995e-01 -3.433841094374656677e-02 -4.697614535689353943e-02 -2.082769572734832764e-02 7.808757573366165161e-02 -1.085332501679658890e-02 -6.603968143463134766e-02 6.269681453704833984e-02 -4.767501354217529297e-02 -1.068664714694023132e-02 2.577629871666431427e-02 -3.051608614623546600e-02 -2.364714071154594421e-02 -3.656126931309700012e-02 1.251375079154968262e-01 -1.868472695350646973e-01 -1.265676040202379227e-02 -4.061640799045562744e-02 -2.179281711578369141e-01 -1.756970211863517761e-02 7.976644486188888550e-02 -1.276988536119461060e-01 2.034545876085758209e-02 2.631862461566925049e-02 -4.304445534944534302e-02 -5.343312025070190430e-02 5.319811031222343445e-02 -6.722193211317062378e-03 8.249612152576446533e-02 2.184884063899517059e-02 2.352790348231792450e-02 -9.866856969892978668e-03 6.295968592166900635e-02 2.655084431171417236e-02 7.600294053554534912e-02 -1.535847783088684082e-01 8.032078854739665985e-03 2.083719521760940552e-02 9.484832733869552612e-02 8.163442462682723999e-02 8.335708081722259521e-02 -4.881170392036437988e-02 -8.167546242475509644e-02 2.078900337219238281e-01 -4.086130857467651367e-02 -5.742427334189414978e-02 -8.736537396907806396e-02 5.836822092533111572e-02 9.386616945266723633e-02 1.520144790410995483e-01 9.740326553583145142e-02 1.171612069010734558e-01 6.391454488039016724e-02 1.701969094574451447e-02 5.799161270260810852e-02 1.270524114370346069e-01 -3.496782481670379639e-02 -6.347162276506423950e-02 -1.022466495633125305e-01 -1.541992425918579102e-01 -3.658655658364295959e-02 -4.057944752275943756e-03 2.325938828289508820e-02 5.807787925004959106e-02 2.781869843602180481e-02 6.280490010976791382e-02 -1.710443012416362762e-02 -6.367341428995132446e-02 1.366357058286666870e-01 -2.202355489134788513e-02 5.546059110201895237e-04 -1.001431643962860107e-01 9.600032866001129150e-02 -3.513277694582939148e-02 3.759415075182914734e-02 -6.284493207931518555e-02 3.914717212319374084e-02 1.043204143643379211e-01 4.427210241556167603e-02 3.298322483897209167e-02 1.832210808061063290e-03 6.079095974564552307e-02 -9.317485988140106201e-02 4.596897959709167480e-02 2.754148840904235840e-02 3.650848194956779480e-02 8.118626661598682404e-03 7.721216231584548950e-02 1.308691501617431641e-01 -5.906930565834045410e-02 -3.747586905956268311e-02 -4.869911447167396545e-02 -4.363244771957397461e-02 8.038276433944702148e-02 4.104018211364746094e-02 -4.293300211429595947e-02 1.238287612795829773e-02 1.368516832590103149e-01 5.318225920200347900e-02 -1.139538828283548355e-02 6.987182796001434326e-02 2.859379723668098450e-02 1.338708680123090744e-02 -9.278512001037597656e-02 5.242069438099861145e-02 1.554409321397542953e-02 -7.818421721458435059e-02 -4.734218865633010864e-02 -1.303382068872451782e-01 -2.999938726425170898e-01 -2.020288556814193726e-01 5.448289960622787476e-02 1.859952360391616821e-01 2.368132397532463074e-02 -3.717226907610893250e-03 -1.560720335692167282e-02 -1.644332520663738251e-02 -7.038543373346328735e-02 4.382240585982799530e-03 -4.456857219338417053e-02 -2.361338958144187927e-02 7.888833433389663696e-02 2.817815169692039490e-03 -1.351678520441055298e-01 -8.698444813489913940e-02 -1.227006036788225174e-02 1.420843154191970825e-01 -3.190181031823158264e-02 -5.820835754275321960e-02 -7.912437617778778076e-02 1.094970330595970154e-01 -2.214816771447658539e-02 -1.060033589601516724e-01 9.023196995258331299e-02 1.194883063435554504e-01 1.215284988284111023e-01 -9.674917161464691162e-02 3.863760456442832947e-02 5.942859686911106110e-03 2.439420297741889954e-02 -1.926956698298454285e-02 1.681554131209850311e-02 1.368138790130615234e-01 -9.288255870342254639e-02 1.332849413156509399e-01 7.071097195148468018e-02 -2.667898312211036682e-02 -3.272029012441635132e-02 2.121149562299251556e-02 4.136022552847862244e-02 -2.507823333144187927e-02 6.193329021334648132e-02 -2.783423475921154022e-02 -5.156337097287178040e-02 -2.492723800241947174e-02 6.651138514280319214e-02 -7.672826945781707764e-02 1.480744034051895142e-01 1.103518456220626831e-01 8.173108845949172974e-02 1.880070194602012634e-02 -3.980699181556701660e-02 -1.016016975045204163e-01 -1.103934720158576965e-01 -2.233089879155158997e-02 -4.515241831541061401e-02 9.100047871470451355e-03 1.413392275571823120e-02 -1.133533194661140442e-01 -1.170844137668609619e-01 1.053537353873252869e-01 5.553162470459938049e-02 5.759776104241609573e-03 -2.702461369335651398e-02 -1.601264625787734985e-01 9.853685647249221802e-02 1.471764221787452698e-02 -3.569518774747848511e-02 7.614418864250183105e-02 -2.087737768888473511e-01 5.218975991010665894e-02 -5.073652043938636780e-02 5.177652463316917419e-02 3.105994686484336853e-02 1.323806047439575195e-01 1.930812373757362366e-02 -6.693127006292343140e-02 1.484990958124399185e-02 -1.244972739368677139e-02 -5.998174846172332764e-02 6.423570960760116577e-02 -2.660016715526580811e-02 -1.975671760737895966e-02 5.308416485786437988e-02 -2.046275734901428223e-01 -1.101812124252319336e-01 3.136675059795379639e-02 -1.544660180807113647e-01 9.366133064031600952e-02 9.459073096513748169e-02 -1.131411939859390259e-01 4.934424161911010742e-02 1.092998608946800232e-01 4.529671370983123779e-02 2.684330008924007416e-02 1.197880581021308899e-01 1.000985503196716309e-01 -4.257129505276679993e-02 -2.186691574752330780e-02 1.972174197435379028e-01 1.356797665357589722e-01 -6.582236289978027344e-02 1.186921168118715286e-02 9.411011636257171631e-02 1.174531280994415283e-01 5.630426108837127686e-02 5.288650467991828918e-02 6.572996731847524643e-03 1.904167383909225464e-01 1.590152531862258911e-01 4.126457963138818741e-03 -9.731065481901168823e-02 5.448158830404281616e-02 1.397427022457122803e-01 2.047219276428222656e-01 -1.700311899185180664e-01 1.065562106668949127e-02 3.267404809594154358e-02 8.390754461288452148e-02 1.620329022407531738e-01 -5.271942541003227234e-02 7.711799442768096924e-02 5.965538322925567627e-02 2.077931761741638184e-01 -3.572237864136695862e-02 -1.032695472240447998e-01 -1.277153752744197845e-02 -7.921244204044342041e-02
-1.067456603050231934e-01 -1.060336232185363770e-01 5.619379878044128418e-02 9.403029829263687134e-02 5.820715427398681641e-02 -1.647028326988220215e-01 -5.516281351447105408e-03 7.513165473937988281e-02 2.606174647808074951e-01 1.282980144023895264e-01 -1.638166457414627075e-01 -4.226662963628768921e-02 -6.260753422975540161e-02 2.394988387823104858e-01 1.870764046907424927e-01 -1.410410855896770954e-03 -1.578807458281517029e-02 -4.372197389602661133e-02 6.049876287579536438e-02 -1.951740831136703491e-01 1.872414350509643555e-02 -2.195473015308380127e-02 7.882347702980041504e-02 -8.356549777090549469e-03 -2.110087499022483826e-02 7.779862731695175171e-03 9.584091603755950928e-02 9.269349277019500732e-02 1.248678714036941528e-01 -3.694747015833854675e-02 5.661809816956520081e-02 1.804532296955585480e-02 2.291464619338512421e-02 1.683112829923629761e-01 5.219520255923271179e-02 6.105982884764671326e-02 1.037142612040042877e-02 1.005903002806007862e-03 9.099686890840530396e-02 1.714243888854980469e-01 1.872431933879852295e-01 -3.004990331828594208e-02 -3.505008667707443237e-02 -3.334677312523126602e-03 2.277710288763046265e-02 2.154683694243431091e-02 -9.440792351961135864e-02 2.616548910737037659e-02 8.857958763837814331e-02 -1.360222548246383667e-01 4.401911422610282898e-02 -4.152963310480117798e-02 -1.936251521110534668e-01 1.654122956097126007e-02 8.641269803047180176e-02 -1.870773583650588989e-01 4.289850220084190369e-02 1.598919183015823364e-01 1.497409492731094360e-01 8.425437845289707184e-04 -6.583669036626815796e-02 -1.552357971668243408e-01 8.252668380737304688e-02 1.696088002063333988e-03 1.647177524864673615e-02 1.204717904329299927e-02 -1.852289773523807526e-02 1.999798230826854706e-03 -2.105418220162391663e-02 7.047875784337520599e-03 5.973637569695711136e-03 -3.594356821849942207e-04 4.783210903406143188e-02 -1.497027277946472168e-01 -4.308889620006084442e-03 2.910747751593589783e-02 2.517409436404705048e-02 -1.400655210018157959e-01 -7.892346009612083435e-03 -9.192149341106414795e-02 -3.164797648787498474e-02 -2.040040679275989532e-02 -1.503619016148149967e-03 -7.223646342754364014e-02 5.154949426651000977e-02 1.282851248979568481e-01 3.137912601232528687e-02 -2.077129483222961426e-01 1.608236320316791534e-02 -3.850560635328292847e-02 4.568893089890480042e-02 -3.481996804475784302e-02 4.024996608495712280e-02 1.305556893348693848e-01 9.448608756065368652e-02 1.219212114810943604e-01 7.012188434600830078e-02 6.474439520388841629e-03 -4.606984090059995651e-03 -2.729090861976146698e-02 4.984425753355026245e-02 5.200287327170372009e-02 8.602388948202133179e-02 6.062897667288780212e-02 1.126445308327674866e-01 1.294289529323577881e-01 5.379274860024452209e-02 4.909560456871986389e-02 8.763191848993301392e-02 6.594840437173843384e-02 1.763139218091964722e-01 5.866756662726402283e-02 3.034368716180324554e-02 -3.369639813899993896e-02 -8.601004630327224731e-02 1.617533154785633087e-02 8.830476552248001099e-02 3.848180547356605530e-02 -6.195585429668426514e-02 9.650782682001590729e-03 -5.466976761817932129e-02 2.173363463953137398e-03 9.852025657892227173e-02 7.122589647769927979e-02 -1.297656260430812836e-02 7.249282300472259521e-02 2.766929008066654205e-02 2.368123531341552734e-01 2.176658064126968384e-02 1.133054494857788086e-01 -3.411104902625083923e-02 -1.114874258637428284e-01 7.233431935310363770e-02 4.696663841605186462e-02 -1.490463018417358398e-01 -8.952747099101543427e-03 1.083834841847419739e-02 8.289471268653869629e-02 -7.013362366706132889e-03 -2.392106950283050537e-01 -6.485069543123245239e-02 2.276896266266703606e-03 -1.209659427404403687e-01 -3.737856820225715637e-02 2.179746627807617188e-01 1.049908474087715149e-01 1.735379099845886230e-01 3.074843436479568481e-02 1.144783454947173595e-04 5.024978145956993103e-02 1.624311357736587524e-01 8.953094482421875000e-02 1.388483345508575439e-01 -5.654023215174674988e-02 -2.767378464341163635e-02 7.187094539403915405e-02 1.709878706606104970e-04 -5.606069043278694153e-02 -8.476257324218750000e-02 -9.987996518611907959e-02 -3.665544465184211731e-02 -9.556100517511367798e-02 -2.778804302215576172e-02 -1.136356443166732788e-01 -1.734817773103713989e-01 -2.171371132135391235e-01 4.608856514096260071e-02 -1.963439770042896271e-02 -9.300386160612106323e-02 4.741264507174491882e-02 -1.660196459852159023e-03 3.286811988800764084e-03 -3.876705467700958252e-02 1.112124919891357422e-01 1.361555010080337524e-01 2.378575131297111511e-02 -1.015052571892738342e-01 2.343949526548385620e-01 8.299300074577331543e-02 -9.811846166849136353e-02 -1.103283604606986046e-03 1.490616053342819214e-02 -9.010423906147480011e-03 -3.285452350974082947e-02 -9.502520412206649780e-02 -5.397397093474864960e-03 3.802969353273510933e-03 -9.783547371625900269e-03 -4.736284539103507996e-02 -2.794194221496582031e-02 -4.810202121734619141e-02 -5.361062660813331604e-02 1.951544731855392456e-02 2.158764749765396118e-03 -2.478516474366188049e-02 1.363807320594787598e-01 -6.257467716932296753e-02 -8.407364785671234131e-02 1.504298448562622070e-01 1.121560558676719666e-01 -4.834436997771263123e-02 9.755438566207885742e-02 2.404861710965633392e-02 -4.609609767794609070e-02 3.947494551539421082e-02 2.236532978713512421e-02 -9.257002919912338257e-02 -5.974321812391281128e-02 -9.900439530611038208e-03 1.224341690540313721e-01 8.014972507953643799e-02 2.828370220959186554e-02 2.676421427167952061e-04 1.713513024151325226e-02 4.946039989590644836e-02 -2.653858065605163574e-02 -3.384584933519363403e-02 7.776866666972637177e-03 -1.213493570685386658e-02 -1.980395317077636719e-01 -1.445589661598205566e-01 8.419384062290191650e-02 1.840839534997940063e-02 -1.936560682952404022e-02 5.597353354096412659e-02 -7.096410542726516724e-02 5.612936243414878845e-02 9.562852233648300171e-02 -8.275550790131092072e-03 9.659864939749240875e-03 7.975016534328460693e-02 -3.151068836450576782e-02 -8.900562301278114319e-03 -4.288483038544654846e-02 5.566735193133354187e-02 1.929728984832763672e-01 7.234387844800949097e-02 -8.052749931812286377e-02 1.019790768623352051e-01 1.221416741609573364e-01 2.911109104752540588e-02 -4.279279336333274841e-02 -2.665226720273494720e-02 7.637588679790496826e-02 -8.956913650035858154e-02 -1.354733705520629883e-01 -1.770844124257564545e-02 7.498650997877120972e-02 -1.076499000191688538e-01 2.322619594633579254e-02 4.288056120276451111e-02 6.112002953886985779e-02 3.741383552551269531e-02 -7.822059094905853271e-02 -3.900235518813133240e-02 1.365695446729660034e-01 -5.471267178654670715e-02 -9.097056090831756592e-02 -1.012007221579551697e-01 4.276556894183158875e-03 7.232315093278884888e-02 2.249440550804138184e-02 -4.088089615106582642e-02 -2.404431439936161041e-02 -2.720987610518932343e-02 -6.232506409287452698e-02 7.777000218629837036e-02 4.788442049175500870e-03 -3.586883470416069031e-02 -1.358281373977661133e-01 -1.270716171711683273e-02 2.583350241184234619e-02 1.394350230693817139e-01 1.390437930822372437e-01 -2.636564336717128754e-02 -7.685498893260955811e-02 -5.824649333953857422e-02 4.012597724795341492e-03 1.413263231515884399e-01 1.177377700805664062e-01 6.242867559194564819e-02 -8.208206295967102051e-02 -9.298300743103027344e-02 1.100241467356681824e-01 1.640157960355281830e-02 1.871234476566314697e-01 1.971332356333732605e-02 2.368726022541522980e-02 2.108838111162185669e-01 -4.128747805953025818e-02 -7.366987317800521851e-02 -1.112131401896476746e-01 1.002059802412986755e-01 -3.093671053647994995e-02 -1.919202059507369995e-01 -6.502037495374679565e-02 -4.039367288351058960e-02 7.258627563714981079e-02 -7.353726774454116821e-02 1.338930279016494751e-01 2.970203384757041931e-02 1.711949706077575684e-02 -2.854133583605289459e-02 -8.178499341011047363e-02 -6.197222694754600525e-02 5.640434846282005310e-02 1.192373223602771759e-02 -1.753895921865478158e-04 -7.595733553171157837e-02 -8.699771016836166382e-02 -1.592277437448501587e-01 6.382094230502843857e-03 2.223506942391395569e-02 -3.170701116323471069e-02 -1.020098105072975159e-02 -4.378177970647811890e-02 2.700868248939514160e-02 5.481028556823730469e-02 -6.885308027267456055e-02 1.409946382045745850e-01 6.607038527727127075e-02 -1.255166828632354736e-01 1.169412285089492798e-01 1.538803279399871826e-01 7.228609174489974976e-02 4.545051138848066330e-03 -4.456949234008789062e-02 -7.619128376245498657e-02 9.697658009827136993e-03 -4.645878821611404419e-02 -7.022730261087417603e-02 2.881010249257087708e-02 2.219075523316860199e-02 3.416216745972633362e-02 -2.721995674073696136e-02 -1.355256885290145874e-01 -1.142704039812088013e-01 7.859785854816436768e-02 3.460226580500602722e-02 -1.003167033195495605e-01 -9.743317961692810059e-03 -2.321597002446651459e-02 1.879940927028656006e-02 -2.633098885416984558e-02 3.582609444856643677e-02 7.625071704387664795e-02 -5.591078847646713257e-02 -6.486493349075317383e-02 1.566167473793029785e-01 5.805986747145652771e-02 8.266957104206085205e-02 -1.336448937654495239e-01 -8.965095132589340210e-02 6.268337368965148926e-02 -8.200926706194877625e-03 6.397676467895507812e-02 3.468375653028488159e-02 -4.315272718667984009e-02 -1.165446266531944275e-02 5.722858756780624390e-02 7.618296146392822266e-02 8.962955325841903687e-03 1.304419618099927902e-02 5.354299023747444153e-02 5.604495480656623840e-02 5.326930806040763855e-02 -1.211756933480501175e-02 4.471096768975257874e-02 3.068262152373790741e-02 -9.219114482402801514e-02 5.256744101643562317e-02 1.040186285972595215e-01 -4.997888952493667603e-02 -1.798085719347000122e-01 -3.669180721044540405e-02 1.062622591853141785e-01 8.319406211376190186e-02 8.950072526931762695e-02 1.101040020585060120e-01 1.076264455914497375e-01 8.469243347644805908e-02 1.376188844442367554e-01 1.656392216682434082e-01 6.606855243444442749e-02 1.539805829524993896e-01 1.319339126348495483e-01 8.193168789148330688e-02 -3.152806311845779419e-02 7.025624066591262817e-02 8.046013861894607544e-02 1.151647344231605530e-01 -5.533074587583541870e-02 -3.121935762465000153e-02 6.796918064355850220e-02 -7.632175087928771973e-02 -5.512546002864837646e-02 -1.021442338824272156e-01 4.213695600628852844e-02 -1.670115068554878235e-02 -8.908014744520187378e-02
