8.367622643709182739e-02
-5.324742943048477173e-02
5.298459157347679138e-02
-2.376296557486057281e-02
1.048708632588386536e-01
-5.936297401785850525e-02
-3.662845119833946228e-02
2.680264599621295929e-02
-1.067911460995674133e-02
1.006832495331764221e-01
-7.089398801326751709e-02
-9.258696809411048889e-03
1.983545348048210144e-02
-1.060415059328079224e-01
6.688949465751647949e-02
6.151280552148818970e-02
1.438915543258190155e-02
-4.531393572688102722e-02
2.652826346457004547e-02
-6.871508061885833740e-02
1.837499625980854034e-02
1.110089197754859924e-01
2.102121710777282715e-02
-9.089140594005584717e-02
1.628695614635944366e-02
1.202295869588851929e-01
-5.105667188763618469e-02
-1.915959827601909637e-02
-2.202782779932022095e-02
1.712135970592498779e-02
-6.808601319789886475e-02
5.112531408667564392e-02
2.323109842836856842e-02
-1.847969554364681244e-02
3.623925521969795227e-02
5.976699665188789368e-02
-2.499668486416339874e-02
3.101985156536102295e-02
-1.440980099141597748e-02
6.093326956033706665e-02
-2.694425359368324280e-02
-1.112046279013156891e-02
2.847652509808540344e-02
-6.762474775314331055e-02
4.703999310731887817e-02
-2.654414623975753784e-02
-1.817267946898937225e-02
-3.371047601103782654e-02
1.793039143085479736e-01
-1.619189046323299408e-02
1.078672036528587341e-01
3.156587481498718262e-02
6.173910200595855713e-02
1.680573821067810059e-02
-4.807521402835845947e-02
-1.012775488197803497e-02
4.920880869030952454e-02
4.139216989278793335e-02
-4.412658046931028366e-03
-1.478540804237127304e-02
2.827665209770202637e-02
6.059850100427865982e-03
8.065438270568847656e-02
1.674596369266510010e-01
2.863602340221405029e-02
8.123467117547988892e-02
-4.241357371211051941e-02
6.781385093927383423e-02
-6.630837917327880859e-02
-8.732987940311431885e-02
7.977171987295150757e-02
1.980371959507465363e-02
-1.838832646608352661e-01
3.965930547565221786e-03
1.167607959359884262e-02
4.089251533150672913e-02
-2.209117263555526733e-02
-6.169610470533370972e-02
-5.760093778371810913e-02
-1.152793318033218384e-01
3.273618640378117561e-03
-7.757861167192459106e-02
-8.368422836065292358e-02
4.763891454786062241e-03
6.156691908836364746e-02
-1.354107912629842758e-02
-5.257770791649818420e-02
4.893378354609012604e-03
-1.312912702560424805e-01
-4.017809405922889709e-02
4.387742653489112854e-02
-2.221754007041454315e-02
5.295475572347640991e-02
7.156158238649368286e-02
-4.838006105273962021e-03
-1.033902540802955627e-02
1.481090951710939407e-02
4.043107479810714722e-02
6.453370302915573120e-02
6.831289827823638916e-02
-7.662388379685580730e-04
-2.924381941556930542e-02
-1.054577995091676712e-02
-1.891222782433032990e-02
6.258606165647506714e-02
-7.161971926689147949e-02
6.520590186119079590e-02
-3.467256203293800354e-02
3.982608020305633545e-02
4.572633653879165649e-02
-4.234194755554199219e-02
5.083239451050758362e-02
-2.911701798439025879e-02
5.628598481416702271e-02
-1.196259185671806335e-01
-1.601436585187911987e-01
6.762739270925521851e-02
-3.525415435433387756e-02
8.867423981428146362e-03
1.459883451461791992e-01
