-1.286845058202743530e-01
-1.435177959501743317e-02
9.381962567567825317e-02
8.441724628210067749e-02
-3.557653725147247314e-02
-1.304211169481277466e-01
-1.913044601678848267e-03
-5.590015649795532227e-02
-2.142630219459533691e-01
-8.769173175096511841e-02
6.817528605461120605e-02
-4.017438739538192749e-02
-9.782610833644866943e-02
-3.445654734969139099e-02
2.401997335255146027e-02
1.655325107276439667e-02
2.017803257331252098e-03
-9.785868972539901733e-02
-6.382716447114944458e-02
1.817511767148971558e-02
-5.965857580304145813e-02
-3.565276786684989929e-02
-1.056970655918121338e-01
-3.578770160675048828e-02
7.705906778573989868e-02
1.525747030973434448e-01
-1.029364243149757385e-01
-4.610585421323776245e-02
-1.610727864317595959e-03
-5.799055844545364380e-02
-5.107427015900611877e-03
5.742397904396057129e-02
1.595985703170299530e-02
-1.096831634640693665e-01
-6.947317719459533691e-02
-8.123907260596752167e-03
-4.652555286884307861e-02
-6.613898277282714844e-02
8.118096739053726196e-02
2.600637497380375862e-03
9.997577965259552002e-02
8.647574111819267273e-03
-3.080160170793533325e-02
1.256458312273025513e-01
-7.023541629314422607e-02
-3.865314181894063950e-03
1.147809624671936035e-01
-8.049724996089935303e-02
8.087508380413055420e-02
-1.768086850643157959e-01
-6.327016279101371765e-03
7.162930816411972046e-02
-5.728805437684059143e-02
1.555855572223663330e-01
1.477855443954467773e-01
-1.000258475542068481e-01
9.170225262641906738e-02
4.279058892279863358e-03
4.296690598130226135e-02
3.272855281829833984e-02
-1.682003140449523926e-01
2.090268209576606750e-02
1.810947991907596588e-02
1.195408683270215988e-02
-6.199972704052925110e-02
6.848710030317306519e-02
2.870267815887928009e-02
6.110366433858871460e-02
1.427821516990661621e-01
-4.566745366901159286e-03
1.278578042984008789e-01
-1.476843208074569702e-01
-5.605975911021232605e-02
-5.768028646707534790e-02
-3.670019656419754028e-02
1.019076183438301086e-01
1.078240945935249329e-01
-1.305446028709411621e-01
-6.399694085121154785e-02
-4.505333490669727325e-03
-3.629688173532485962e-02
-1.508533060550689697e-01
-8.334290236234664917e-02
-5.950968340039253235e-02
