-8.790956810116767883e-03 1.769011765718460083e-01 -2.539227530360221863e-02 2.003763020038604736e-01 9.449972957372665405e-02 6.961917132139205933e-02 1.039425879716873169e-01 -5.517996847629547119e-02 3.730607777833938599e-02 -1.150773093104362488e-01 -1.038077473640441895e-01 1.268906742334365845e-01 1.368307173252105713e-01 -1.430096775293350220e-01 -1.740439608693122864e-02 -2.426906824111938477e-01 -8.943063020706176758e-02 1.859240382909774780e-01 1.381432712078094482e-01 -6.222356483340263367e-02 -1.056919842958450317e-01 -8.887226879596710205e-02 -3.150425851345062256e-02 4.539294540882110596e-02 1.752385497093200684e-01 -1.868099719285964966e-01 -1.828007996082305908e-01 1.324597448110580444e-01 -1.793676465749740601e-01 1.130583584308624268e-01 2.313121408224105835e-01 9.354981034994125366e-02 4.744601994752883911e-02 1.188666597008705139e-01 -4.574737325310707092e-02 1.893353760242462158e-01 3.953143209218978882e-02 -1.663365662097930908e-01 -6.010503042489290237e-03 -2.167451009154319763e-02 -2.158697396516799927e-01 -1.676542907953262329e-01 4.727176949381828308e-02 -1.076310500502586365e-01 -3.116990439593791962e-02 8.253662288188934326e-02 8.303159475326538086e-02 -1.341810822486877441e-01 -2.497805207967758179e-01 -1.340259164571762085e-01 -2.704634070396423340e-01 7.057351619005203247e-02 1.262293476611375809e-02 4.013614729046821594e-02 -2.025409489870071411e-01 -7.251105457544326782e-02 -2.056422382593154907e-01 -3.015474602580070496e-02 -1.878618076443672180e-02 -8.074291795492172241e-02 -1.051199957728385925e-01 -1.626024581491947174e-02 -5.221688188612461090e-03 -1.811699122190475464e-01 1.945578306913375854e-01 9.430611133575439453e-02 -2.875340878963470459e-01 -9.701492637395858765e-02 2.173235267400741577e-01 1.724586784839630127e-01 1.074716970324516296e-01 1.900163143873214722e-01 5.999203398823738098e-02 -9.863492101430892944e-03 -7.143071293830871582e-02 1.949047446250915527e-01 -1.365833356976509094e-02 -7.229243405163288116e-03 1.634061336517333984e-01 1.700247973203659058e-01 -9.027236141264438629e-03 -7.899764180183410645e-02 1.728416234254837036e-01 8.855301141738891602e-02 4.447982832789421082e-02 -1.078214421868324280e-01 2.495454996824264526e-01 -3.678018972277641296e-02 -5.102338641881942749e-02 -1.610630303621292114e-01 -7.264430820941925049e-02 -1.234008446335792542e-01 -1.229595020413398743e-01 1.101435068994760513e-02 -1.861792616546154022e-02 -1.708598881959915161e-01 -1.617054790258407593e-01 -2.976321801543235779e-02 -8.268809318542480469e-02 2.438526041805744171e-02 5.607552453875541687e-02 1.163649633526802063e-01 2.225090749561786652e-02 1.858092099428176880e-01 -1.866764575242996216e-01 1.857120776548981667e-03 2.278070449829101562e-01 -1.256119310855865479e-01 -1.175654008984565735e-01 -2.085364423692226410e-02 1.245956029742956161e-02 -1.482280045747756958e-01 6.611897051334381104e-02 -2.342319339513778687e-01 1.132062003016471863e-01 1.736089587211608887e-01 8.743914961814880371e-02 -5.945133045315742493e-02 2.553785406053066254e-02 4.013229906558990479e-02
-1.637719869613647461e-01 -1.190564036369323730e-01 -2.530743926763534546e-02 1.789816021919250488e-01 -5.231111869215965271e-02 -1.050323471426963806e-01 -1.210082843899726868e-01 -2.100105136632919312e-01 -1.444933563470840454e-01 -1.601350903511047363e-01 1.629891097545623779e-01 -1.425769776105880737e-01 -2.571953237056732178e-01 1.611043363809585571e-01 1.425946801900863647e-01 1.365118324756622314e-01 8.568889647722244263e-02 3.153220936655998230e-02 1.524122059345245361e-01 -1.553487405180931091e-02 1.887144148349761963e-01 -2.300675511360168457e-01 1.862651854753494263e-01 -1.830845177173614502e-01 -1.841212250292301178e-02 3.489604964852333069e-02 1.077371537685394287e-01 -9.497895836830139160e-02 1.671615988016128540e-01 -6.857870519161224365e-02 1.544866338372230530e-02 -4.357690736651420593e-02 2.939356304705142975e-02 -4.650954902172088623e-02 -4.711801558732986450e-02 9.330357611179351807e-02 -2.186569012701511383e-02 -1.203430816531181335e-02 7.583642005920410156e-02 -2.337002158164978027e-01 5.666327476501464844e-02 1.352393161505460739e-02 -1.787015199661254883e-01 8.544101146981120110e-04 6.874839309602975845e-04 -4.182608053088188171e-02 1.865746267139911652e-02 1.105664819478988647e-01 -4.680597782135009766e-02 5.058920383453369141e-02 7.866804301738739014e-02 5.934981629252433777e-02 4.801324382424354553e-02 -2.296988219022750854e-01 8.598946966230869293e-03 7.083365321159362793e-02 -1.094371899962425232e-01 9.919374436140060425e-02 -1.417067795991897583e-01 2.319359406828880310e-02 1.355860680341720581e-01 2.413583453744649887e-03 2.139241844415664673e-01 4.260735213756561279e-02 -1.630526185035705566e-01 -2.091034501791000366e-01 2.584565281867980957e-01 1.763077378273010254e-01 -1.297483444213867188e-01 4.123962670564651489e-02 -1.782977283000946045e-01 -4.395828768610954285e-02 1.627253144979476929e-01 1.282183080911636353e-01 1.688869297504425049e-01 -1.747603118419647217e-01 -8.610584586858749390e-02 -1.021393984556198120e-01 -5.849392339587211609e-02 4.982279613614082336e-02 -5.242415517568588257e-02 1.114409640431404114e-01 3.057663701474666595e-02 -1.601284593343734741e-01 -7.856588810682296753e-02 4.623223096132278442e-02 -1.028228104114532471e-01 -2.251103967428207397e-01 -1.177535131573677063e-01 1.258258670568466187e-01 7.520472258329391479e-02 3.294187039136886597e-02 -1.579396277666091919e-01 -1.424472779035568237e-01 -1.283095926046371460e-01 2.228856459259986877e-02 -2.725230716168880463e-02 -1.747415363788604736e-01 6.504287011921405792e-03 -9.279155731201171875e-02 6.640064716339111328e-02 -9.876468777656555176e-02 -1.520607713609933853e-02 3.628083140938542783e-05 1.983108073472976685e-01 1.381804198026657104e-01 7.968755811452865601e-02 -1.322637349367141724e-01 2.666412107646465302e-02 -1.764894276857376099e-01 1.920357048511505127e-01 -2.074210196733474731e-01 -6.275345385074615479e-02 1.530372351408004761e-01 4.917275905609130859e-02 1.470181196928024292e-01 1.154110655188560486e-01 6.882331520318984985e-02 6.266755610704421997e-02 1.024774368852376938e-02
-4.074330627918243408e-02 5.601666495203971863e-02 1.936241984367370605e-01 -4.253314435482025146e-02 4.854612797498703003e-02 -1.645098626613616943e-02 -1.375503689050674438e-01 1.457409858703613281e-01 -4.099956713616847992e-03 5.227439850568771362e-02 -1.298158317804336548e-01 -7.566431071609258652e-03 1.661622375249862671e-01 -6.466396898031234741e-02 6.980683654546737671e-02 7.941482216119766235e-02 1.435714662075042725e-01 -2.054327875375747681e-01 -1.407696008682250977e-01 -8.467063307762145996e-02 5.724042421206831932e-04 1.637360155582427979e-01 -1.481485962867736816e-01 -1.551366597414016724e-01 4.226253181695938110e-02 1.743620187044143677e-01 1.054503992199897766e-01 -1.054211854934692383e-01 -1.468370109796524048e-01 -1.083639264106750488e-01 -8.214183151721954346e-02 4.636340960860252380e-02 -2.058584392070770264e-01 3.759467974305152893e-02 5.161773785948753357e-02 1.080338582396507263e-01 -6.560121476650238037e-02 4.159225896000862122e-02 -1.189622059464454651e-01 2.352769672870635986e-02 8.776488155126571655e-02 1.296165734529495239e-01 7.986366748809814453e-02 8.649386465549468994e-02 1.165655553340911865e-01 -2.248509088531136513e-03 -5.693968757987022400e-02 -8.086924254894256592e-02 3.094945847988128662e-01 8.167362958192825317e-02 2.724321186542510986e-01 -1.122637093067169189e-02 -4.606056958436965942e-02 4.503775388002395630e-02 1.120745837688446045e-01 1.235684379935264587e-01 9.105783700942993164e-02 -1.859711706638336182e-01 2.386665344238281250e-01 -4.056356847286224365e-02 6.089343689382076263e-03 -1.315665543079376221e-01 1.283707171678543091e-01 2.209486365318298340e-01 1.551312208175659180e-02 1.096248775720596313e-01 3.494445467367768288e-03 -8.164846152067184448e-02 -3.231587409973144531e-01 -1.916455328464508057e-01 1.114476658403873444e-02 -5.491507425904273987e-02 -3.191559314727783203e-01 -7.588301599025726318e-02 -6.925611943006515503e-02 -5.034045875072479248e-02 -1.291616074740886688e-02 1.317472606897354126e-01 -1.464076191186904907e-01 -1.140927374362945557e-01 -5.175728816539049149e-03 -3.436444327235221863e-02 -2.324608713388442993e-01 -1.934352144598960876e-02 -2.962411753833293915e-02 6.751084327697753906e-02 -1.589624732732772827e-01 -6.098185479640960693e-02 -3.869603946805000305e-02 2.119954442605376244e-03 1.508406698703765869e-01 1.248372718691825867e-02 1.250614039599895477e-02 1.778378188610076904e-01 -3.798229387030005455e-03 1.801002621650695801e-01 1.781399697065353394e-01 1.858205944299697876e-01 -5.597470793873071671e-03 2.226627469062805176e-01 -1.635105609893798828e-01 3.180005028843879700e-02 7.066503167152404785e-02 -7.675979286432266235e-02 5.375352501869201660e-02 -7.212761789560317993e-02 -1.934691369533538818e-01 2.414081692695617676e-01 3.884670138359069824e-02 2.082327008247375488e-01 -1.400161683559417725e-01 9.024993330240249634e-02 2.473007701337337494e-02 3.152481913566589355e-01 -1.785345226526260376e-01 -2.714772224426269531e-01 5.101354420185089111e-02 2.099943906068801880e-01 2.689927071332931519e-02 -7.326495647430419922e-02
-1.863594353199005127e-01 -1.951964572072029114e-02 1.754851341247558594e-01 1.177499368786811829e-01 2.285376004874706268e-02 1.712965220212936401e-02 -1.009993702173233032e-01 4.855782538652420044e-02 5.689015239477157593e-02 6.211485713720321655e-02 1.808061748743057251e-01 -1.130162104964256287e-01 5.327715724706649780e-02 -1.045474708080291748e-01 -4.466836899518966675e-02 -1.349977254867553711e-01 -1.132905855774879456e-01 1.107941847294569016e-02 9.074595570564270020e-02 -1.374225914478302002e-01 6.463427096605300903e-02 2.510012499988079071e-02 -1.224910169839859009e-01 -1.320871263742446899e-01 -8.030149340629577637e-02 -4.416107386350631714e-02 4.603786766529083252e-02 -2.067629098892211914e-01 -2.829903662204742432e-01 -1.018048822879791260e-01 1.068783774971961975e-01 1.401661187410354614e-01 -2.066045626997947693e-02 1.357793062925338745e-01 8.815373480319976807e-02 8.499816805124282837e-02 -6.558586657047271729e-02 -7.616495341062545776e-02 -1.703586727380752563e-01 1.090343296527862549e-01 -6.325160712003707886e-02 -1.100737154483795166e-01 -1.615619957447052002e-01 9.318180382251739502e-02 -5.790749937295913696e-02 1.042687669396400452e-01 4.380261152982711792e-02 -1.066430136561393738e-01 1.802964694797992706e-02 6.555287539958953857e-02 1.588534563779830933e-01 1.221079751849174500e-01 -1.236514523625373840e-01 9.489769488573074341e-02 -1.436979770660400391e-01 -4.843719676136970520e-02 -6.421837955713272095e-02 -1.105329915881156921e-01 -1.969798505306243896e-01 -4.596951231360435486e-02 1.531382948160171509e-01 -1.635886281728744507e-01 4.522459581494331360e-02 3.602092340588569641e-02 -1.112637445330619812e-01 -4.434185847640037537e-02 1.440744474530220032e-02 -4.584804922342300415e-02 -5.607711616903543472e-03 9.132335335016250610e-02 1.067234948277473450e-01 -1.848414391279220581e-01 -7.009369134902954102e-02 5.775143951177597046e-02 -1.900985836982727051e-01 9.642875194549560547e-02 -1.061851680278778076e-01 1.399253415002021939e-05 3.101508319377899170e-02 -1.161584910005331039e-02 -4.031020682305097580e-03 -2.787187099456787109e-01 -4.129680246114730835e-02 4.436214640736579895e-02 -1.110135540366172791e-01 6.025613285601139069e-03 1.485510617494583130e-01 -2.994223497807979584e-02 6.899396888911724091e-03 -1.007838100194931030e-01 -3.580062389373779297e-01 -8.697964251041412354e-02 -4.935298487544059753e-02 1.309898942708969116e-01 -1.479752957820892334e-01 -2.215142697095870972e-01 -1.812927797436714172e-02 -1.502155559137463570e-03 -8.678990416228771210e-03 2.464653998613357544e-01 1.308259069919586182e-01 -3.451372683048248291e-02 1.844173646531999111e-03 2.709336951375007629e-02 5.180439725518226624e-02 -1.781318187713623047e-01 2.330082207918167114e-01 -9.011748433113098145e-02 -2.840958535671234131e-02 -1.003829911351203918e-01 2.602661028504371643e-02 1.526124477386474609e-01 2.859361097216606140e-02 1.019993275403976440e-01 6.163317337632179260e-02 7.816131412982940674e-02 2.342157065868377686e-02 4.313080012798309326e-02 8.652428537607192993e-02 1.276534795761108398e-01
1.052465066313743591e-01 6.706964224576950073e-02 4.382326267659664154e-03 -5.528110265731811523e-02 -2.299928478896617889e-02 7.453676313161849976e-02 5.353574641048908234e-03 1.739849597215652466e-01 1.309202015399932861e-01 7.038508355617523193e-02 5.069540813565254211e-02 1.222089901566505432e-01 -5.831599235534667969e-02 3.569199517369270325e-02 -4.760934039950370789e-02 -5.385935306549072266e-03 1.922413147985935211e-02 1.396463960409164429e-01 1.702647805213928223e-01 4.371951520442962646e-02 2.588897943496704102e-02 -8.969103544950485229e-02 -5.086018145084381104e-02 1.872485578060150146e-01 1.807810552418231964e-02 -1.656714975833892822e-01 -6.805751472711563110e-02 -8.749692700803279877e-03 -9.969737380743026733e-03 4.148883279412984848e-03 1.706885695457458496e-01 5.251719430088996887e-02 1.436074823141098022e-01 5.522816628217697144e-02 -3.199487552046775818e-02 -3.739030361175537109e-01 3.365854024887084961e-01 2.110677212476730347e-02 3.982246667146682739e-02 1.415546983480453491e-01 -1.034441515803337097e-01 -7.617847621440887451e-02 1.244534626603126526e-01 1.540413647890090942e-01 -4.771990329027175903e-02 1.000918596982955933e-01 9.257176518440246582e-02 6.567337363958358765e-02 1.556566916406154633e-02 -8.922343142330646515e-03 -9.668558090925216675e-02 5.319043993949890137e-03 -2.332162708044052124e-01 9.418763220310211182e-02 -1.214509159326553345e-01 -3.020779788494110107e-01 1.038497015833854675e-01 3.640621155500411987e-02 -1.401754468679428101e-01 1.245541572570800781e-01 -5.083934217691421509e-02 -5.683348700404167175e-02 -2.200103253126144409e-01 -1.019591689109802246e-01 -4.944315552711486816e-02 2.620045281946659088e-02 -1.642193198204040527e-01 -1.153579950332641602e-01 1.410440951585769653e-01 -3.410939499735832214e-02 6.366026401519775391e-02 -8.052335679531097412e-02 5.977743864059448242e-02 -7.001719623804092407e-02 -4.281256347894668579e-02 7.144856452941894531e-02 1.769689619541168213e-01 -7.306846231222152710e-02 5.664429068565368652e-02 1.283397376537322998e-01 3.035359084606170654e-02 -2.491979748010635376e-01 1.893984675407409668e-01 4.237346723675727844e-02 -9.591950476169586182e-02 7.792549580335617065e-02 -1.413811743259429932e-01 1.219738423824310303e-01 6.016781181097030640e-02 -2.522296905517578125e-01 7.638400793075561523e-02 3.958940878510475159e-02 1.561984568834304810e-01 9.008650481700897217e-02 1.854671165347099304e-03 -1.257960200309753418e-01 -2.426163703203201294e-01 -9.164002537727355957e-02 -3.408373892307281494e-02 -2.259923331439495087e-02 2.311762794852256775e-02 -1.043479442596435547e-01 1.684968173503875732e-01 -7.842945307493209839e-02 -1.046223714947700500e-01 -3.386286087334156036e-03 -3.514248877763748169e-03 1.559280157089233398e-01 -1.048803925514221191e-01 6.272368133068084717e-02 -6.864979863166809082e-02 1.156808715313673019e-02 1.457421034574508667e-01 -2.435138225555419922e-01 1.072307378053665161e-01 2.700751721858978271e-01 6.827246397733688354e-02 -1.455482393503189087e-01 4.561694338917732239e-02 -1.674762815237045288e-01
8.927065879106521606e-02 5.032834783196449280e-02 -2.209060639142990112e-01 -1.341250240802764893e-01 -8.243168145418167114e-02 1.632651314139366150e-02 9.119333326816558838e-02 -4.493223503232002258e-02 -3.561330959200859070e-02 1.028756871819496155e-01 1.393980234861373901e-01 -4.173369333148002625e-02 -3.100265562534332275e-01 2.402581125497817993e-01 3.520325198769569397e-02 7.061053067445755005e-02 1.872438341379165649e-01 4.654951393604278564e-02 -7.684914767742156982e-02 -5.696563422679901123e-02 2.135740965604782104e-01 -1.251824796199798584e-01 -6.886174436658620834e-03 1.017869636416435242e-01 -7.893159240484237671e-02 1.171790957450866699e-01 4.232342913746833801e-02 2.528528869152069092e-01 1.944606304168701172e-01 1.127272564917802811e-02 -1.012740582227706909e-01 2.306237816810607910e-02 -1.027417704463005066e-01 -1.259894520044326782e-01 -8.732512593269348145e-02 -1.038359850645065308e-01 1.530053932219743729e-02 -1.465340144932270050e-02 8.040734380483627319e-02 -2.837714552879333496e-01 2.239754050970077515e-01 -3.910028841346502304e-03 7.374761998653411865e-02 6.925678253173828125e-02 9.435163438320159912e-02 -4.768110066652297974e-02 -2.236701175570487976e-02 1.546654701232910156e-01 -1.015021875500679016e-01 -5.181583017110824585e-02 1.009872928261756897e-01 9.159969538450241089e-02 9.254202991724014282e-02 6.870610266923904419e-02 3.623452484607696533e-01 -1.232585981488227844e-01 9.046693891286849976e-02 -3.761572763323783875e-02 1.149667799472808838e-01 -2.438896335661411285e-02 3.387205675244331360e-02 2.227625697851181030e-01 5.331136658787727356e-02 -3.246149048209190369e-02 -1.872760802507400513e-01 -4.408830031752586365e-02 5.824644584208726883e-03 1.695188879966735840e-01 1.003208383917808533e-01 5.629759654402732849e-02 -6.731149274855852127e-03 -6.593536585569381714e-03 4.005599394440650940e-02 -1.145615875720977783e-01 4.298932105302810669e-02 -1.824296116828918457e-01 1.558887958526611328e-01 1.307827234268188477e-01 -3.881397843360900879e-02 3.218653425574302673e-02 -5.261537805199623108e-02 1.774686276912689209e-01 -2.218136750161647797e-02 9.582829475402832031e-02 -2.565755844116210938e-01 2.093139737844467163e-01 -1.139312162995338440e-01 -4.322251677513122559e-02 1.722939610481262207e-01 2.952352166175842285e-01 1.778766214847564697e-01 1.083900555968284607e-01 -1.202608738094568253e-02 4.285364598035812378e-02 5.864817276597023010e-02 1.470324397087097168e-01 6.100813392549753189e-03 1.135199889540672302e-01 -4.897148907184600830e-02 -1.804075390100479126e-01 -9.436705708503723145e-02 7.358985487371683121e-03 -4.611545801162719727e-02 -9.710796177387237549e-02 -1.264172047376632690e-01 2.798023223876953125e-01 -1.125830486416816711e-01 1.223745346069335938e-01 4.090507328510284424e-02 1.031359210610389709e-01 8.090096712112426758e-02 3.226461261510848999e-02 -7.232496887445449829e-02 5.867925658822059631e-02 -1.397217512130737305e-01 -8.359855972230434418e-03 -4.257449507713317871e-02 1.195195876061916351e-02 -2.579896748065948486e-01 -1.679488122463226318e-01
-7.048341631889343262e-02 -8.016335219144821167e-02 1.655910909175872803e-01 1.073731482028961182e-01 1.595908254384994507e-01 4.475337266921997070e-02 -8.071973919868469238e-03 4.496657848358154297e-02 6.022854894399642944e-02 1.802071332931518555e-01 2.352868169546127319e-01 -7.387036830186843872e-02 -1.112965494394302368e-01 3.053156472742557526e-02 5.333564803004264832e-02 1.337759196758270264e-01 -1.958305388689041138e-01 2.200341410934925079e-02 5.226654931902885437e-03 4.212489351630210876e-02 1.749478876590728760e-01 1.056450977921485901e-02 1.266991645097732544e-01 -2.720208652317523956e-02 -9.105040132999420166e-02 9.727749973535537720e-02 5.409594252705574036e-02 -6.060331128537654877e-03 -2.018091529607772827e-01 -1.399947553873062134e-01 2.571910992264747620e-02 1.835358887910842896e-01 -4.300247132778167725e-02 7.159855216741561890e-02 3.021846525371074677e-02 -2.694971114397048950e-02 2.054870575666427612e-01 -8.252535760402679443e-02 3.326844796538352966e-02 1.996217221021652222e-01 -2.643856704235076904e-01 -3.172968327999114990e-01 -1.523051559925079346e-01 -6.502062827348709106e-02 -4.433938115835189819e-02 1.520450413227081299e-01 1.029583662748336792e-01 2.697220072150230408e-02 6.041761115193367004e-02 9.924960136413574219e-02 1.540044993162155151e-01 -1.815904118120670319e-02 -3.625406026840209961e-01 1.809132844209671021e-01 3.075738903135061264e-03 -9.528742730617523193e-02 2.368868701159954071e-02 5.588162690401077271e-03 -2.386207431554794312e-01 7.577304542064666748e-02 -1.003120616078376770e-01 -1.971760094165802002e-01 5.585408210754394531e-02 1.645976677536964417e-03 -1.130662262439727783e-01 1.508881598711013794e-01 -4.750440642237663269e-02 -2.090820819139480591e-01 -3.632825240492820740e-02 -1.892547607421875000e-01 1.344837546348571777e-01 -1.873633712530136108e-01 -7.196957617998123169e-02 1.165080219507217407e-01 -1.459179520606994629e-01 4.775213077664375305e-02 1.474656630307435989e-03 -5.526630207896232605e-02 8.411432802677154541e-02 -1.714850962162017822e-01 -2.447629123926162720e-01 -7.965265214443206787e-02 -3.181948140263557434e-02 1.323236823081970215e-01 5.871332809329032898e-02 1.518841385841369629e-01 7.506740093231201172e-02 7.181483507156372070e-02 3.117903769016265869e-01 -1.172120720148086548e-01 -1.534054055809974670e-02 -1.199722513556480408e-01 -3.806929662823677063e-02 1.210503801703453064e-01 -1.058825552463531494e-01 -5.828260257840156555e-02 1.495048310607671738e-02 1.035191267728805542e-01 1.137795597314834595e-01 2.924087643623352051e-01 5.460133403539657593e-02 -1.987046748399734497e-01 -2.737567946314811707e-02 5.568815395236015320e-02 3.097294457256793976e-02 -1.937842071056365967e-01 1.171798184514045715e-01 1.352932006120681763e-01 -3.464391455054283142e-02 5.633669439703226089e-03 -1.522395610809326172e-01 -3.625065460801124573e-02 -4.078243300318717957e-02 1.469902098178863525e-01 -1.985115408897399902e-01 2.011866718530654907e-01 1.023462116718292236e-01 -1.764036566019058228e-01 7.926017791032791138e-02 -8.467785269021987915e-02
-8.382999151945114136e-02 1.981827802956104279e-02 -1.333685666322708130e-01 -2.470878362655639648e-01 8.595295995473861694e-02 -1.293996116146445274e-03 1.457352340221405029e-01 5.476113781332969666e-02 -2.517414977774024010e-03 1.186695694923400879e-01 9.849938564002513885e-03 -4.034722968935966492e-02 1.052764281630516052e-01 -2.518337778747081757e-02 -4.410216212272644043e-02 -6.895454972982406616e-02 5.767972394824028015e-02 -2.495486140251159668e-01 5.250196158885955811e-02 1.129847094416618347e-01 -5.907120928168296814e-02 1.363905221223831177e-01 1.043312475085258484e-01 2.006893604993820190e-02 -8.980454504489898682e-02 -8.554024249315261841e-02 1.750132143497467041e-01 5.087012797594070435e-02 1.577576547861099243e-01 2.391545772552490234e-01 1.462117731571197510e-01 -1.434351354837417603e-01 2.066343575716018677e-01 4.033675789833068848e-02 -2.171496152877807617e-01 -1.984882950782775879e-01 7.577202469110488892e-02 1.337447762489318848e-01 5.046934634447097778e-02 -1.416496187448501587e-02 2.545351721346378326e-02 -4.590006545186042786e-02 5.146132037043571472e-02 2.250969409942626953e-02 -3.269269764423370361e-01 -2.077167853713035583e-02 -7.987633347511291504e-02 -2.203200012445449829e-01 1.236875429749488831e-01 5.423818156123161316e-02 -5.677665770053863525e-02 -1.000700294971466064e-01 -4.252208024263381958e-02 -3.351789712905883789e-02 -1.617248505353927612e-01 -2.098546028137207031e-01 1.673124581575393677e-01 7.479481399059295654e-02 9.380418807268142700e-02 1.766417771577835083e-01 -9.770832955837249756e-02 -1.524781715124845505e-02 -1.643200814723968506e-01 -8.489220589399337769e-02 1.036698296666145325e-01 2.744959481060504913e-02 8.291707187891006470e-02 -1.889655590057373047e-01 4.901148006319999695e-02 -2.881337143480777740e-02 -1.478878501802682877e-02 -6.096102669835090637e-02 9.933058917522430420e-02 7.430334109812974930e-03 5.605986341834068298e-02 7.885477691888809204e-02 2.262943983078002930e-01 -8.495891094207763672e-02 -2.078477591276168823e-01 3.125758469104766846e-01 -1.017593741416931152e-01 -8.515776693820953369e-02 3.293790817260742188e-01 -4.220809042453765869e-02 1.380419079214334488e-02 -1.003990396857261658e-01 -1.884875595569610596e-01 5.926776304841041565e-02 -9.152076393365859985e-02 -2.971237599849700928e-01 -3.627508133649826050e-02 -7.863920181989669800e-02 9.450094401836395264e-02 -1.758477464318275452e-02 -1.176287382841110229e-01 -7.494130730628967285e-02 -1.477106958627700806e-01 -8.649477362632751465e-02 1.659859865903854370e-01 3.798364894464612007e-03 8.313287794589996338e-02 -1.357908546924591064e-01 3.173849731683731079e-02 1.233801841735839844e-01 5.478784814476966858e-02 -1.356872469186782837e-01 -1.978291012346744537e-02 -4.817859828472137451e-02 5.259762704372406006e-02 1.985166966915130615e-01 -1.161055043339729309e-01 6.171172857284545898e-02 1.224055141210556030e-01 -9.705858677625656128e-02 7.192501425743103027e-02 2.004193961620330811e-01 -2.810619175434112549e-01 -9.154266677796840668e-03 5.871436744928359985e-02 1.131325587630271912e-01
-1.127011701464653015e-02 1.376421153545379639e-01 -2.524306438863277435e-02 -4.687497392296791077e-02 -6.893929839134216309e-02 1.111249700188636780e-01 2.934334874153137207e-01 3.771786019206047058e-02 3.097215294837951660e-02 -8.153024315834045410e-02 -4.003148525953292847e-03 -8.212509565055370331e-03 2.835187874734401703e-02 9.406048804521560669e-02 -3.122015111148357391e-02 -6.542138755321502686e-02 -1.070221234112977982e-02 2.036479115486145020e-01 1.739870011806488037e-01 7.532992959022521973e-02 -8.847557008266448975e-02 4.192179068922996521e-02 -2.126186937093734741e-01 6.968865543603897095e-02 -4.606731608510017395e-02 -2.020460367202758789e-02 -7.045041024684906006e-02 -4.725996404886245728e-02 -3.396591171622276306e-02 -8.419226109981536865e-02 2.842051163315773010e-02 -5.553226545453071594e-02 1.161453202366828918e-01 4.026072099804878235e-02 -1.625623553991317749e-01 -3.095334470272064209e-01 1.834901869297027588e-01 9.921189397573471069e-02 9.270440042018890381e-02 3.923484683036804199e-02 2.494458295404911041e-02 4.944564402103424072e-02 2.194852195680141449e-02 1.562938392162322998e-01 -1.423361599445343018e-01 6.490028649568557739e-02 9.806114435195922852e-02 6.714716553688049316e-02 -1.773061454296112061e-01 -6.022808328270912170e-02 -9.184790775179862976e-03 -1.003082096576690674e-01 -1.182616949081420898e-01 -3.672613203525543213e-02 -6.950101256370544434e-02 -8.255342394113540649e-02 6.920256465673446655e-02 2.360727405175566673e-03 1.611206308007240295e-02 -9.538558870553970337e-02 -6.288869678974151611e-02 -8.442085236310958862e-02 -3.164540603756904602e-02 -1.869600862264633179e-01 -1.440851250663399696e-03 4.616220295429229736e-02 -2.148783504962921143e-01 2.974135428667068481e-02 1.813226938247680664e-01 1.141775101423263550e-01 -3.515481948852539062e-02 -7.289075106382369995e-02 1.858323216438293457e-01 -2.439298778772354126e-01 -1.350022703409194946e-01 -3.477158024907112122e-02 -2.177674323320388794e-01 -1.285362392663955688e-01 -6.291154026985168457e-02 2.109427750110626221e-01 2.213019132614135742e-01 -2.521190941333770752e-01 1.849753968417644501e-02 7.847097516059875488e-02 -1.324241161346435547e-01 -9.296863526105880737e-02 9.064218960702419281e-03 1.121610477566719055e-01 1.561240851879119873e-02 -9.834115952253341675e-02 -1.078440323472023010e-01 5.600042268633842468e-02 -1.003605872392654419e-01 -4.793385043740272522e-03 -1.291855890303850174e-02 -2.281994372606277466e-01 7.778698951005935669e-02 -1.119800284504890442e-01 -1.948240846395492554e-01 4.977553337812423706e-02 6.733718514442443848e-02 1.965481191873550415e-01 2.269745618104934692e-01 2.261638641357421875e-02 -5.831232666969299316e-02 -2.527734637260437012e-02 1.964166462421417236e-01 -5.818347446620464325e-03 -1.541684120893478394e-01 -1.534763872623443604e-01 -1.472972035408020020e-01 2.310207299888134003e-02 2.870877832174301147e-02 -2.612423002719879150e-01 1.220501884818077087e-01 3.000299334526062012e-01 -1.152952611446380615e-01 -6.310247629880905151e-02 2.672973871231079102e-01 -1.361535936594009399e-01
6.360559910535812378e-02 -9.485217183828353882e-02 -7.673078030347824097e-02 1.430922150611877441e-01 -6.799421459436416626e-02 -5.676259845495223999e-02 -1.905507594347000122e-01 -9.891541302204132080e-02 1.056467220187187195e-01 1.528921425342559814e-01 -6.411544978618621826e-02 1.226402167230844498e-02 -7.744392752647399902e-02 -1.413521617650985718e-01 -3.307866677641868591e-02 -6.712108850479125977e-02 -1.786641776561737061e-02 -6.650273501873016357e-02 2.584474347531795502e-02 2.260478287935256958e-01 6.308452039957046509e-02 -1.530008465051651001e-01 2.169383503496646881e-02 -3.977098315954208374e-02 -7.994689792394638062e-02 -7.708440721035003662e-02 6.140693649649620056e-02 8.395305275917053223e-02 2.220402099192142487e-02 2.679975926876068115e-01 1.640633791685104370e-01 1.318723112344741821e-01 2.383210882544517517e-02 1.589213609695434570e-01 -2.385412715375423431e-02 -1.117673236876726151e-03 3.089967742562294006e-02 -9.398819529451429844e-04 -1.206367537379264832e-01 6.440673023462295532e-02 1.359536796808242798e-01 -1.109957098960876465e-01 1.351653337478637695e-01 -2.109967917203903198e-01 -1.171499490737915039e-01 5.160304531455039978e-02 -1.410102844238281250e-01 4.786024242639541626e-02 -5.776870250701904297e-02 5.310592800378799438e-02 -6.469430029392242432e-02 6.585606839507818222e-03 4.933964833617210388e-02 2.136701196432113647e-01 9.271216392517089844e-02 -9.171789884567260742e-02 -6.746553629636764526e-02 -1.697149127721786499e-02 -1.129690483212471008e-01 1.247928962111473083e-01 5.329859629273414612e-02 5.905062705278396606e-02 -4.715788736939430237e-02 2.339464798569679260e-02 4.120073281228542328e-03 -7.750979065895080566e-02 1.757333874702453613e-01 -2.151289880275726318e-01 1.064398959279060364e-01 1.113459467887878418e-02 -5.820647254586219788e-02 -7.735232822597026825e-03 1.870625466108322144e-01 6.400663405656814575e-02 9.142466820776462555e-03 -8.684588968753814697e-02 4.997669532895088196e-02 1.821093410253524780e-01 1.134052425622940063e-01 7.336364686489105225e-02 -6.728497892618179321e-02 2.059125602245330811e-01 1.526424288749694824e-02 6.207069382071495056e-02 1.774766296148300171e-01 -1.239977180957794189e-01 -8.299196511507034302e-02 -5.501129478216171265e-02 -1.472155004739761353e-02 -6.642700731754302979e-02 1.867352426052093506e-01 7.699164003133773804e-02 -2.066221833229064941e-01 8.028713054955005646e-03 -2.913999930024147034e-02 1.845578700304031372e-01 9.995148330926895142e-02 -5.753884464502334595e-02 2.666300162672996521e-02 -1.430599950253963470e-02 2.126024216413497925e-01 -2.194438576698303223e-01 -2.228979915380477905e-01 -3.054310753941535950e-02 -3.454907983541488647e-02 -2.418167144060134888e-01 7.923030853271484375e-02 1.068108677864074707e-01 -6.156884506344795227e-02 5.154580250382423401e-02 1.773760318756103516e-01 -3.453916907310485840e-01 2.101623266935348511e-01 3.875481663271784782e-03 -2.343374639749526978e-01 1.168796494603157043e-01 1.247197240591049194e-01 1.215545609593391418e-01 -6.234267726540565491e-02 1.446876078844070435e-01
9.534717351198196411e-02 2.310777902603149414e-01 -7.561859488487243652e-02 -6.366544961929321289e-02 -1.453856974840164185e-01 6.800651550292968750e-02 2.851984202861785889e-01 8.531576395034790039e-02 -1.296091377735137939e-01 -1.548141092061996460e-01 -5.403247103095054626e-02 -1.143698021769523621e-01 6.223381683230400085e-02 -1.411655694246292114e-01 1.430833935737609863e-01 -1.525267362594604492e-01 1.258598268032073975e-01 -5.735545605421066284e-02 -1.338565535843372345e-02 3.048716671764850616e-02 -1.059188470244407654e-01 -5.360137671232223511e-03 -7.170736789703369141e-02 7.032711058855056763e-02 1.610869616270065308e-01 -8.267426490783691406e-02 -2.423106431961059570e-01 -9.357490390539169312e-02 -7.425585389137268066e-02 5.154604464769363403e-02 -7.942618429660797119e-02 -1.241160277277231216e-02 4.385044798254966736e-02 -2.276030331850051880e-01 1.550068054348230362e-02 -3.583800792694091797e-02 -9.191811829805374146e-02 1.878261193633079529e-02 -1.407065545208752155e-03 -2.042099684476852417e-01 -4.214877262711524963e-02 2.765961885452270508e-01 2.617894411087036133e-01 -3.011324815452098846e-02 1.377562154084444046e-02 -9.656413644552230835e-02 -2.290315181016921997e-01 5.557215586304664612e-02 1.491108685731887817e-01 1.743914633989334106e-01 -7.684499770402908325e-02 -1.797286421060562134e-02 1.488068848848342896e-01 -1.532714907079935074e-02 3.790870774537324905e-03 -1.883620023727416992e-01 1.837455928325653076e-01 3.151025623083114624e-02 1.379328072071075439e-01 -1.124612838029861450e-01 5.910143256187438965e-03 -9.716214612126350403e-03 -2.685759365558624268e-01 7.654368132352828979e-02 -6.877715699374675751e-03 3.267839929321780801e-05 -5.272817239165306091e-02 5.110032483935356140e-02 5.546870082616806030e-02 -4.806738719344139099e-02 -3.978067077696323395e-03 1.158764734864234924e-01 5.025063827633857727e-02 -1.838284432888031006e-01 5.426267907023429871e-02 -4.259592294692993164e-02 -7.608580589294433594e-02 -4.082384984940290451e-03 -2.200535535812377930e-01 -6.279510911554098129e-03 4.236863926053047180e-02 6.901151686906814575e-02 1.929417997598648071e-01 1.155071184039115906e-01 2.298482693731784821e-02 -9.190112352371215820e-02 -1.308793723583221436e-01 -1.035903319716453552e-01 -2.378341555595397949e-01 -1.035315990447998047e-01 1.748562790453433990e-02 2.143578529357910156e-01 1.470141410827636719e-01 4.955476149916648865e-03 1.527561843395233154e-01 1.611739546060562134e-01 1.169667169451713562e-01 -5.975233018398284912e-02 1.327941715717315674e-01 -1.113881543278694153e-01 -4.994293674826622009e-02 2.631042897701263428e-01 2.076776027679443359e-01 -8.874317258596420288e-02 -5.893026292324066162e-02 1.190686151385307312e-01 -1.048683971166610718e-01 3.069681487977504730e-02 1.083086729049682617e-01 5.713910609483718872e-02 7.620791345834732056e-02 -3.314359858632087708e-02 1.013063862919807434e-01 -3.083116002380847931e-02 2.233216315507888794e-01 -4.001820832490921021e-02 -2.089389860630035400e-01 -2.446957805659621954e-04 -7.804495841264724731e-02 -5.069747567176818848e-02
1.103202104568481445e-01 5.029919743537902832e-02 4.940796643495559692e-02 -1.000934466719627380e-01 -2.906131148338317871e-01 4.424205422401428223e-02 1.608047634363174438e-01 2.237633988261222839e-02 9.716128557920455933e-02 6.894463300704956055e-02 -8.266197144985198975e-02 -6.501386314630508423e-02 -5.038803443312644958e-02 9.711440652608871460e-02 4.454101622104644775e-02 -2.662304788827896118e-03 2.722471654415130615e-01 1.189326029270887375e-02 -4.003233276307582855e-03 1.233157217502593994e-01 1.357224397361278534e-02 1.162645295262336731e-01 -1.024591401219367981e-01 1.491984575986862183e-01 -2.811394631862640381e-02 -1.235213782638311386e-02 1.211444810032844543e-01 -1.581900268793106079e-01 1.127649173140525818e-01 -8.654240518808364868e-02 -2.554051578044891357e-01 -1.590898185968399048e-01 7.093993574380874634e-02 -1.618599146604537964e-01 1.051923111081123352e-01 -2.136229723691940308e-01 8.791886270046234131e-02 2.134594172239303589e-01 1.022060886025428772e-01 -1.699856221675872803e-01 2.191550582647323608e-01 2.497614473104476929e-01 1.559252887964248657e-01 1.406182721257209778e-02 -5.845059826970100403e-02 4.839069768786430359e-02 1.937801204621791840e-02 1.123176813125610352e-01 1.700553297996520996e-01 2.618500292301177979e-01 1.301587074995040894e-01 -6.759234517812728882e-02 -1.097765192389488220e-01 -5.919701233506202698e-02 2.134721959009766579e-03 -2.830940997228026390e-03 5.310052260756492615e-02 -5.866669118404388428e-02 1.527099031955003738e-02 -2.377861887216567993e-01 1.091412827372550964e-01 4.721604660153388977e-02 -1.483950018882751465e-01 2.602374181151390076e-02 -1.316869556903839111e-01 -9.055837243795394897e-02 1.762523502111434937e-01 1.643957197666168213e-01 1.157520152628421783e-02 5.742549896240234375e-03 -2.099849581718444824e-01 -1.870658248662948608e-01 -3.757867962121963501e-04 -1.754347532987594604e-01 6.055498495697975159e-02 -1.499861180782318115e-01 6.726963818073272705e-02 -3.169364109635353088e-02 -1.317935287952423096e-01 2.313375286757946014e-02 1.695383936166763306e-01 8.881689608097076416e-02 -1.950198709964752197e-01 -4.679182544350624084e-02 -1.425978839397430420e-01 -1.091028330847620964e-03 -1.417170912027359009e-01 -1.020639985799789429e-01 -5.351850390434265137e-02 8.440515026450157166e-03 1.138125658035278320e-01 1.839884966611862183e-01 1.458736360073089600e-01 -1.304362900555133820e-02 8.474658429622650146e-02 5.221592262387275696e-02 1.706607490777969360e-01 -1.310786306858062744e-01 -7.637391984462738037e-02 5.247261375188827515e-03 9.892765432596206665e-02 -3.454242274165153503e-02 1.698089241981506348e-01 -1.632941812276840210e-01 -2.700672950595617294e-03 7.503747195005416870e-02 -2.236158251762390137e-01 1.322840750217437744e-01 -5.529946647584438324e-03 1.299554016441106796e-02 9.861638396978378296e-02 -8.088114112615585327e-02 -9.129139780998229980e-02 1.069890409708023071e-01 -9.370304644107818604e-02 2.366155944764614105e-02 -1.340609639883041382e-01 1.069122701883316040e-01 -4.604160413146018982e-02 -2.004774361848831177e-01
-8.335180580615997314e-02 -4.458596184849739075e-02 -2.336963117122650146e-01 2.195053733885288239e-02 -5.292567983269691467e-02 4.161458462476730347e-02 1.565386056900024414e-01 -1.273279041051864624e-01 1.110540404915809631e-01 -1.147122085094451904e-01 8.247417211532592773e-02 4.037903156131505966e-03 -1.666888892650604248e-01 6.710191816091537476e-02 2.436456270515918732e-02 -9.513680823147296906e-03 -5.624628067016601562e-02 1.926941126585006714e-01 1.499170362949371338e-01 1.414251625537872314e-01 1.057995185256004333e-01 -2.509469687938690186e-01 1.459306180477142334e-01 1.198676526546478271e-01 -1.861961185932159424e-02 -2.272013425827026367e-01 -3.741441294550895691e-02 2.699089646339416504e-01 8.400422334671020508e-02 1.959320344030857086e-02 1.672354489564895630e-01 -3.887223824858665466e-02 1.715925186872482300e-01 7.132200896739959717e-02 -8.364805951714515686e-03 -5.848402529954910278e-02 7.924592494964599609e-02 -1.727447509765625000e-01 1.326914429664611816e-01 -2.301919087767601013e-02 4.666332527995109558e-02 -8.365480601787567139e-02 -5.546909943222999573e-02 1.722799614071846008e-02 -6.687946617603302002e-02 -5.732097104191780090e-02 9.506857395172119141e-02 1.872626245021820068e-01 -2.966807186603546143e-01 -2.478193491697311401e-01 -1.414104402065277100e-01 3.291396424174308777e-02 -1.488018780946731567e-02 -1.566399335861206055e-01 1.762867905199527740e-02 -6.680373102426528931e-02 2.242315933108329773e-02 2.855796813964843750e-01 -1.000989004969596863e-01 2.029155381023883820e-03 -3.506409749388694763e-02 1.520045995712280273e-01 1.874734833836555481e-02 -1.815239936113357544e-01 -1.160508953034877777e-02 -1.710974052548408508e-02 -7.212617248296737671e-02 -1.859957701526582241e-03 1.551525145769119263e-01 2.900504767894744873e-01 -1.215576454997062683e-01 -1.170335616916418076e-02 2.301702797412872314e-01 -4.862211178988218307e-03 4.252707958221435547e-02 -2.834810316562652588e-02 8.246211707592010498e-02 -2.459990382194519043e-01 8.623978495597839355e-02 1.473702192306518555e-01 -7.826383411884307861e-02 -3.039653412997722626e-02 1.334451436996459961e-01 -1.356878504157066345e-02 -9.684656560420989990e-02 1.192419379949569702e-01 -1.606131158769130707e-02 1.277569979429244995e-01 4.845358803868293762e-02 2.444689534604549408e-02 -9.600263088941574097e-02 -1.205227300524711609e-01 -1.226523369550704956e-01 -1.729791611433029175e-01 1.053199265152215958e-02 1.523554138839244843e-02 -5.750872194766998291e-02 -1.024596840143203735e-01 5.704512447118759155e-02 -1.246942207217216492e-01 1.553757637739181519e-01 -1.115170717239379883e-01 -1.215764433145523071e-01 4.751564934849739075e-02 -3.304951265454292297e-02 2.010926008224487305e-01 3.139545768499374390e-02 -2.793196737766265869e-01 -1.038419082760810852e-01 -2.073898911476135254e-01 1.355894058942794800e-01 3.744995687156915665e-03 -5.389802902936935425e-02 -1.130685061216354370e-01 1.250104159116744995e-01 2.372380495071411133e-01 -1.397651433944702148e-01 -2.293161600828170776e-01 -6.226003752090036869e-04 3.575462475419044495e-02
-4.197602719068527222e-02 -2.778804395347833633e-03 7.247723639011383057e-02 -8.979473263025283813e-02 5.616414174437522888e-02 -2.136071622371673584e-01 -3.638858720660209656e-02 -1.554864943027496338e-01 -1.629776507616043091e-01 7.463296409696340561e-03 -2.341727912425994873e-01 -2.075725346803665161e-01 1.594724208116531372e-01 7.046401500701904297e-02 -9.662915021181106567e-02 -3.445562720298767090e-01 -8.921749889850616455e-02 1.796146184206008911e-01 -2.991611603647470474e-03 1.468919515609741211e-01 2.746176905930042267e-02 -1.399173587560653687e-01 -1.421643644571304321e-01 9.381515905261039734e-03 -2.344210445880889893e-01 -1.736541092395782471e-01 1.503939628601074219e-01 7.334854453802108765e-02 4.957006871700286865e-02 -1.402387022972106934e-01 2.034647911787033081e-01 -2.739059031009674072e-01 6.542100012302398682e-02 7.685811817646026611e-02 -2.075780779123306274e-01 -7.901123911142349243e-02 2.361554652452468872e-01 -7.275812327861785889e-02 -1.648814976215362549e-01 -5.741069465875625610e-02 1.390076726675033569e-01 -3.562544658780097961e-02 -6.634497549384832382e-03 -6.270457804203033447e-02 -9.420581907033920288e-02 9.014081954956054688e-02 2.300248593091964722e-01 -7.602163404226303101e-02 -2.215607166290283203e-01 1.320975720882415771e-01 3.997102752327919006e-02 -1.801989823579788208e-01 1.908042728900909424e-01 1.658910214900970459e-01 -7.714775949716567993e-02 1.627949476242065430e-01 -2.112388908863067627e-01 -4.745196551084518433e-02 -1.372057944536209106e-01 -1.866330504417419434e-01 -1.601221263408660889e-01 -8.386509865522384644e-02 1.110935956239700317e-01 -1.283402889966964722e-01 8.339949697256088257e-02 -8.722558617591857910e-02 -4.341542720794677734e-03 1.864054799079895020e-02 -2.509325370192527771e-02 -3.227931261062622070e-02 -9.114703536033630371e-02 -1.006674394011497498e-01 -1.091626659035682678e-02 -1.779641211032867432e-01 -7.309283316135406494e-02 -6.168441101908683777e-02 1.045440137386322021e-01 -1.693242788314819336e-01 -8.796463161706924438e-02 2.008724957704544067e-01 1.223299950361251831e-01 -2.092025429010391235e-02 1.584634035825729370e-01 -2.185724303126335144e-02 -9.301244467496871948e-02 -7.572794705629348755e-02 2.522297799587249756e-01 1.424932479858398438e-02 1.931908875703811646e-01 -3.810929134488105774e-02 4.313310980796813965e-02 6.003705412149429321e-02 -1.131928637623786926e-01 6.441843509674072266e-02 -1.465432941913604736e-01 1.367262601852416992e-01 5.817215517163276672e-02 -5.274593457579612732e-02 -1.916378438472747803e-01 -6.310812197625637054e-03 2.140308171510696411e-01 -1.584054087288677692e-03 -1.641833931207656860e-01 4.040121287107467651e-02 -5.947759374976158142e-02 1.195480301976203918e-02 3.386046364903450012e-02 -1.547566335648298264e-02 -3.071085177361965179e-02 2.097712010145187378e-01 -5.999041348695755005e-02 -4.869863018393516541e-02 -9.279230237007141113e-02 -1.898576617240905762e-01 -1.156040281057357788e-01 4.532014578580856323e-02 -2.902397140860557556e-02 1.677574962377548218e-01 -1.111860051751136780e-01 4.720778390765190125e-02
-7.709395885467529297e-02 -1.651287227869033813e-01 -2.224768698215484619e-02 2.664972245693206787e-01 3.383539617061614990e-01 -1.823418587446212769e-01 -2.655136585235595703e-01 -7.193865627050399780e-02 -2.062777616083621979e-02 -1.053514257073402405e-01 -1.269181165844202042e-02 8.190130814909934998e-03 4.818746820092201233e-02 9.277849458158016205e-04 -6.192451715469360352e-02 -9.694586694240570068e-02 -7.698745280504226685e-02 1.931545324623584747e-02 1.304584443569183350e-01 4.034024849534034729e-02 7.957450300455093384e-02 -6.197541207075119019e-02 8.614757657051086426e-02 -1.363175064325332642e-01 -1.479766070842742920e-01 -3.777779266238212585e-02 -1.254009827971458435e-02 -1.427791714668273926e-01 -1.009094119071960449e-01 8.553506433963775635e-02 9.647593647241592407e-02 -5.380152910947799683e-02 -1.456777658313512802e-02 -1.501106563955545425e-02 -2.042659744620323181e-02 2.290187180042266846e-01 -6.554530560970306396e-02 -5.706437863409519196e-03 -1.311224400997161865e-01 1.706532984972000122e-01 4.416301846504211426e-02 -8.037940412759780884e-02 -2.535342872142791748e-01 3.764917701482772827e-02 -4.071727022528648376e-02 -9.066326916217803955e-02 1.821054816246032715e-01 -8.113561570644378662e-02 -2.533868253231048584e-01 -7.034668326377868652e-02 -1.106997728347778320e-01 1.981233619153499603e-02 1.197311282157897949e-01 -2.032989263534545898e-02 7.681849598884582520e-02 2.248599529266357422e-01 -2.914675772190093994e-01 4.759250953793525696e-02 -1.500480175018310547e-01 8.036137372255325317e-02 1.704971194267272949e-01 1.179977413266897202e-02 1.541265547275543213e-01 5.633835867047309875e-02 1.335461856797337532e-03 -3.371833637356758118e-02 2.220831811428070068e-01 7.558456156402826309e-03 -9.328050911426544189e-02 1.870826035737991333e-01 -8.186104893684387207e-02 2.479163408279418945e-01 -9.556601755321025848e-03 1.615372747182846069e-01 -7.798263803124427795e-03 -6.427725404500961304e-02 1.455249357968568802e-02 -2.121732383966445923e-02 1.674214303493499756e-01 -1.930359601974487305e-01 -9.942166507244110107e-02 1.496499329805374146e-01 -6.343529373407363892e-02 -9.602514654397964478e-02 1.585300862789154053e-01 -4.881443455815315247e-02 9.633752703666687012e-02 -2.166069746017456055e-01 -2.387045510113239288e-02 7.472756505012512207e-02 1.005235388875007629e-01 -1.087523996829986572e-01 -1.894529759883880615e-01 -1.268133372068405151e-01 -1.046450808644294739e-01 -9.221236407756805420e-02 -4.813780635595321655e-02 -1.209325268864631653e-01 1.130216941237449646e-01 -7.524802535772323608e-02 7.760811597108840942e-02 -1.833095960319042206e-02 -2.303412258625030518e-01 1.979094594717025757e-01 1.883428841829299927e-01 2.614876441657543182e-02 1.732166409492492676e-01 -2.834013998508453369e-01 -8.336280286312103271e-02 -1.401536166667938232e-01 -3.123559616506099701e-02 -1.517474353313446045e-01 4.944954067468643188e-02 6.616693735122680664e-02 -1.371358782052993774e-01 2.627482870593667030e-03 1.855972558259963989e-01 4.594927281141281128e-02 8.404240012168884277e-02 9.244897961616516113e-02
-4.426939703989773989e-04 4.604808054864406586e-03 1.832975633442401886e-02 -3.673318028450012207e-01 7.736799120903015137e-02 6.254035979509353638e-02 2.029327601194381714e-01 1.189178600907325745e-01 -6.416220217943191528e-02 1.930808126926422119e-01 -3.576269745826721191e-02 -1.982318013906478882e-01 -1.194032281637191772e-01 6.977815926074981689e-02 5.940601602196693420e-02 5.895596370100975037e-02 1.234235763549804688e-01 -9.947364777326583862e-02 -3.114576339721679688e-01 -2.666174247860908508e-02 1.235158741474151611e-01 -6.251185387372970581e-02 -1.118925679475069046e-02 1.412288006395101547e-02 -7.403728365898132324e-02 1.498747467994689941e-01 1.154906302690505981e-01 1.327115446329116821e-01 -3.685864433646202087e-02 -1.260868161916732788e-01 -1.864304542541503906e-01 -6.982414424419403076e-02 -1.265126466751098633e-01 -7.251488417387008667e-02 -3.817875683307647705e-02 -1.576428413391113281e-01 -2.574248611927032471e-02 -9.543035924434661865e-02 4.571909457445144653e-02 -1.953704208135604858e-01 8.588001132011413574e-02 8.688177168369293213e-02 4.140305146574974060e-02 1.018769368529319763e-01 1.640016734600067139e-01 1.224046107381582260e-02 3.512281691655516624e-03 -1.188520109280943871e-03 1.690318286418914795e-01 1.685444079339504242e-02 1.421748697757720947e-01 3.602295368909835815e-02 7.919272780418395996e-02 1.417707651853561401e-01 2.593346536159515381e-01 -1.671343855559825897e-02 2.293769717216491699e-01 1.040567159652709961e-01 5.457101762294769287e-02 2.353296615183353424e-02 -4.200961068272590637e-02 1.125904843211174011e-01 4.747850447893142700e-02 6.138559803366661072e-02 -3.910637274384498596e-02 4.297988861799240112e-02 -4.513595253229141235e-03 -1.556465961039066315e-02 -1.337862312793731689e-01 -9.182084351778030396e-02 -1.110701039433479309e-01 -2.021565586328506470e-01 -1.588676869869232178e-01 -5.194719880819320679e-03 7.662954926490783691e-02 -1.601634621620178223e-01 7.578081637620925903e-02 -9.733476489782333374e-02 -2.460289895534515381e-01 -3.748194547370076180e-03 7.128429412841796875e-02 1.165803819894790649e-01 -3.159546107053756714e-02 8.142861723899841309e-02 -2.658418416976928711e-01 2.891405671834945679e-02 -1.148068811744451523e-02 -1.151106972247362137e-02 8.340554684400558472e-02 6.796684861183166504e-02 -4.068320989608764648e-02 3.984652459621429443e-02 1.177208870649337769e-01 1.156054735183715820e-01 -1.709291711449623108e-02 4.130485653877258301e-02 9.802154265344142914e-03 1.310295164585113525e-01 4.943140223622322083e-02 -8.335720747709274292e-02 -1.063274890184402466e-01 2.278785780072212219e-02 3.558273613452911377e-02 -4.228272289037704468e-02 1.654853075742721558e-01 2.138678282499313354e-01 -1.819868534803390503e-01 6.643499433994293213e-02 5.296418443322181702e-02 1.174729242920875549e-01 2.064952999353408813e-02 2.793989777565002441e-01 -1.228415518999099731e-01 -1.907980255782604218e-02 3.480629250407218933e-02 -2.927038876805454493e-04 -1.531413644552230835e-01 7.486528158187866211e-02 -2.535846531391143799e-01 5.256331712007522583e-02
7.020662724971771240e-02 1.543313413858413696e-01 -3.119696862995624542e-02 -5.459889769554138184e-02 1.979761570692062378e-02 1.728851199150085449e-01 2.340702265501022339e-01 -1.319153904914855957e-01 1.850364655256271362e-01 -4.104137793183326721e-02 -1.818331144750118256e-02 -4.591548070311546326e-02 6.402169167995452881e-02 -1.838208921253681183e-02 -9.829606860876083374e-02 5.192536488175392151e-02 -1.316450387239456177e-01 3.478141874074935913e-02 -2.058124989271163940e-01 -6.915261596441268921e-02 -1.201893668621778488e-02 -1.416695713996887207e-01 -3.838864341378211975e-02 1.078435778617858887e-01 -7.447247952222824097e-02 -1.389424949884414673e-01 1.802147030830383301e-01 3.879585564136505127e-01 5.660832300782203674e-02 -1.222741380333900452e-01 5.871266592293977737e-03 -1.023072451353073120e-01 -1.612783819437026978e-01 1.246721297502517700e-01 -8.366725593805313110e-02 -2.045135051012039185e-01 -1.305233500897884369e-02 -5.056024342775344849e-02 1.541463583707809448e-01 -1.654587686061859131e-01 4.810417536646127701e-03 -1.379648894071578979e-01 1.655803024768829346e-01 6.024160236120223999e-02 -2.987436205148696899e-02 6.262940168380737305e-02 -2.017916738986968994e-02 -1.717223823070526123e-01 -6.296243518590927124e-02 -9.738630056381225586e-02 -1.640713214874267578e-02 -9.092225134372711182e-02 9.953570365905761719e-02 3.287455439567565918e-01 1.074907705187797546e-01 -1.425591483712196350e-02 2.962426224257797003e-04 1.467001289129257202e-01 2.462301962077617645e-02 9.255474805831909180e-02 -2.036439329385757446e-01 2.514867782592773438e-01 1.218722388148307800e-02 -3.644321858882904053e-02 1.616910248994827271e-01 1.820080280303955078e-01 -1.731342524290084839e-01 1.321080978959798813e-02 7.515911012887954712e-03 -1.248873993754386902e-01 -5.733336135745048523e-02 -2.844006009399890900e-02 5.911222472786903381e-02 -9.821201860904693604e-02 -5.307404696941375732e-02 1.830438971519470215e-01 1.086603552103042603e-01 5.988565832376480103e-02 -1.135198771953582764e-02 -6.181890610605478287e-03 -9.649829939007759094e-03 2.098334729671478271e-01 1.104875336750410497e-04 2.236522883176803589e-01 -1.262591332197189331e-01 2.446537017822265625e-01 5.722823366522789001e-02 1.929161846637725830e-01 1.934820413589477539e-01 1.995928287506103516e-01 3.663396462798118591e-02 -1.842507869005203247e-01 -1.169888600707054138e-01 -1.375958207063376904e-03 5.325883254408836365e-02 4.824820160865783691e-02 -3.186342120170593262e-02 1.806560158729553223e-01 1.745402999222278595e-02 2.940161712467670441e-02 -4.561020433902740479e-02 -1.110496446490287781e-01 -2.905029058456420898e-02 7.197657227516174316e-02 -9.905504062771797180e-03 3.095573782920837402e-01 -1.248307600617408752e-01 2.026857733726501465e-01 1.567066833376884460e-02 1.135294064879417419e-01 5.083897616714239120e-03 -5.050570517778396606e-02 -2.114974260330200195e-01 -8.569730818271636963e-02 -9.020426124334335327e-02 1.312780380249023438e-01 -3.786845877766609192e-02 -1.913519948720932007e-01 -2.384231835603713989e-01 -3.978594020009040833e-02
1.512503772974014282e-01 -8.360330015420913696e-03 4.184413701295852661e-02 1.034689769148826599e-01 -1.336479485034942627e-01 -2.335041947662830353e-02 3.004467301070690155e-02 6.610262393951416016e-02 4.850247502326965332e-02 -9.632392972707748413e-02 -1.765918545424938202e-02 -9.792932542040944099e-04 8.651735633611679077e-02 -8.448861539363861084e-02 -1.414600200951099396e-02 -3.481668829917907715e-01 -2.420911751687526703e-02 -3.966772928833961487e-03 1.125583574175834656e-01 1.011846661567687988e-01 8.873528568074107170e-04 4.398909397423267365e-03 -1.712908595800399780e-01 1.495128311216831207e-02 1.333908550441265106e-02 -6.281848251819610596e-02 -7.685601711273193359e-02 6.154364719986915588e-02 -1.914041936397552490e-01 2.521664202213287354e-01 1.344379931688308716e-01 -2.498485893011093140e-02 -8.972337096929550171e-02 -3.441760316491127014e-02 -3.689305484294891357e-02 1.252645403146743774e-01 1.535222679376602173e-02 -7.524983584880828857e-02 -3.274959623813629150e-01 1.480274498462677002e-01 -1.167296320199966431e-01 1.473387330770492554e-01 8.851072937250137329e-02 -2.012918293476104736e-01 -9.747491031885147095e-02 1.517421603202819824e-01 5.787569680251181126e-04 -1.020858660340309143e-01 -1.766222119331359863e-01 2.361880987882614136e-02 -1.428580433130264282e-01 2.778359875082969666e-02 1.289401799440383911e-01 1.333802044391632080e-01 -2.041704803705215454e-01 5.502855777740478516e-02 -1.277045607566833496e-01 -1.344067156314849854e-01 -1.948851794004440308e-01 -2.269979566335678101e-01 8.012079447507858276e-02 1.743027754127979279e-02 -1.862642019987106323e-01 -1.204042509198188782e-01 8.581896871328353882e-02 1.768424063920974731e-01 -7.254363596439361572e-02 -2.167718410491943359e-01 2.068099677562713623e-01 2.092298418283462524e-01 3.070452064275741577e-02 1.478792428970336914e-01 2.171758115291595459e-01 -9.567894041538238525e-02 -1.445945501327514648e-01 7.241699099540710449e-02 -1.519075185060501099e-01 1.530500203371047974e-01 2.550687789916992188e-01 -3.490726696327328682e-03 3.070721402764320374e-02 3.585032373666763306e-02 2.529363706707954407e-02 3.534087911248207092e-02 2.938262820243835449e-01 -2.302103638648986816e-01 1.698472946882247925e-01 -5.446243658661842346e-02 -3.765534237027168274e-02 -6.145419552922248840e-02 1.852139085531234741e-02 1.019812971353530884e-01 -1.540235430002212524e-01 -1.580872684717178345e-01 -4.369150847196578979e-02 -5.228061694651842117e-03 1.584816426038742065e-01 -5.314210429787635803e-02 -6.093925610184669495e-02 -4.619931802153587341e-02 2.238731980323791504e-01 1.545643955469131470e-01 -1.942314356565475464e-01 1.501337587833404541e-01 -1.238075569272041321e-01 -2.062464952468872070e-01 2.150076180696487427e-01 -2.073879167437553406e-02 -3.052324429154396057e-02 -5.305637419223785400e-02 1.227008923888206482e-01 -2.293232083320617676e-01 2.764916419982910156e-01 -1.003939732909202576e-01 1.552073955535888672e-01 -7.156653702259063721e-02 5.214217677712440491e-02 1.022521629929542542e-01 1.689654290676116943e-01 -1.173744276165962219e-01
-1.102349460124969482e-01 -6.893553584814071655e-02 -1.728374063968658447e-01 1.368322074413299561e-01 5.343153327703475952e-02 1.663704216480255127e-01 1.374518871307373047e-01 -1.004138123244047165e-02 -4.675152525305747986e-02 -2.394462004303932190e-02 2.737824916839599609e-01 5.469293147325515747e-02 -5.611637979745864868e-02 3.104407340288162231e-02 -3.204731270670890808e-02 2.405404895544052124e-01 -2.069287449121475220e-01 -1.120772436261177063e-01 -2.957767061889171600e-02 -4.541613161563873291e-02 1.402687132358551025e-01 -1.251175254583358765e-01 9.952206164598464966e-02 3.972042724490165710e-02 1.466787233948707581e-02 -3.587554022669792175e-02 1.502487901598215103e-02 1.947268694639205933e-01 1.296005547046661377e-01 1.269685663282871246e-02 3.499805182218551636e-02 -1.449539605528116226e-02 1.250666826963424683e-01 6.015722081065177917e-02 -1.974036842584609985e-01 -1.273388508707284927e-02 4.627532884478569031e-02 -4.979345574975013733e-02 1.923632770776748657e-01 1.259089726954698563e-02 -4.010642692446708679e-02 -3.878493979573249817e-02 -3.102434426546096802e-02 6.709864735603332520e-02 -5.727456137537956238e-02 -9.433651715517044067e-02 1.399533748626708984e-01 -1.652587763965129852e-02 3.294651210308074951e-02 -3.010419309139251709e-01 8.685807138681411743e-02 8.856669068336486816e-03 -1.683364808559417725e-01 -9.291870146989822388e-02 3.588021174073219299e-02 -9.850220382213592529e-02 6.690147519111633301e-02 3.198879957199096680e-01 -1.585345119237899780e-01 2.093741595745086670e-01 5.605521425604820251e-02 7.897468283772468567e-03 1.173922270536422729e-01 -9.679459780454635620e-02 -1.274144351482391357e-01 2.333624288439750671e-02 5.999772623181343079e-02 -6.313884258270263672e-02 -5.581183731555938721e-02 4.701081663370132446e-03 5.000570788979530334e-02 -3.292091190814971924e-01 -8.708323352038860321e-03 1.514764279127120972e-01 1.229566186666488647e-01 2.746021607890725136e-03 5.769570544362068176e-02 -2.443423122167587280e-01 -9.556900709867477417e-02 9.143973141908645630e-02 -1.565558463335037231e-01 -1.826229989528656006e-01 1.049059927463531494e-01 -7.402227073907852173e-02 -1.697340756654739380e-01 1.665625721216201782e-01 -9.115059673786163330e-02 5.557172000408172607e-02 1.345428377389907837e-01 -7.941974699497222900e-02 -1.686023920774459839e-01 -1.685109138488769531e-01 -1.177422106266021729e-01 -1.488982588052749634e-01 -8.263955265283584595e-02 -1.140062958002090454e-01 -1.775542050600051880e-01 5.130323395133018494e-02 1.686563491821289062e-01 8.388800919055938721e-02 -9.006271138787269592e-03 -1.987193673849105835e-01 3.420837223529815674e-02 -1.075652316212654114e-01 -1.155502498149871826e-01 1.359754502773284912e-01 1.117515936493873596e-01 -4.817139729857444763e-02 -3.066785819828510284e-02 -1.349421292543411255e-01 1.366542279720306396e-01 9.409196674823760986e-02 -9.434329718351364136e-02 -1.069750040769577026e-01 2.883546985685825348e-02 1.199782043695449829e-01 -8.766912668943405151e-02 -1.939889043569564819e-01 -5.013757199048995972e-02 1.516678091138601303e-02
1.755678355693817139e-01 2.738560736179351807e-01 3.865939751267433167e-02 -2.035430818796157837e-01 -2.220295965671539307e-01 -1.683747582137584686e-02 -2.885248139500617981e-02 2.073602974414825439e-01 7.694005221128463745e-02 -1.006984114646911621e-01 -1.434517949819564819e-01 -2.836253494024276733e-03 5.637026950716972351e-02 -1.608429998159408569e-01 -3.444250300526618958e-02 -7.951325923204421997e-02 8.810459822416305542e-02 2.632489204406738281e-01 2.592047750949859619e-01 -2.880386449396610260e-02 -1.959082782268524170e-01 -1.317661106586456299e-01 9.506119787693023682e-02 1.189063191413879395e-01 9.179762005805969238e-02 -2.279924750328063965e-01 -2.673729360103607178e-01 3.912144899368286133e-02 -5.858493223786354065e-02 -5.569803761318325996e-04 2.394118532538414001e-02 -1.896423846483230591e-01 5.151942372322082520e-02 -1.516164094209671021e-01 2.355189323425292969e-01 -1.865839399397373199e-02 8.883415162563323975e-02 -1.026448141783475876e-02 1.568856537342071533e-01 -3.723561763763427734e-01 -5.113194929435849190e-04 2.734858393669128418e-01 1.585237681865692139e-01 1.982752978801727295e-01 2.070654034614562988e-01 7.219044119119644165e-02 -4.176687821745872498e-02 1.256795227527618408e-01 9.066343307495117188e-02 5.313787981867790222e-02 -1.209776625037193298e-01 1.455462574958801270e-01 1.068812459707260132e-01 -9.093358367681503296e-02 -1.506163030862808228e-01 -1.517183333635330200e-01 -8.157856017351150513e-02 8.989222347736358643e-03 8.430784940719604492e-02 -1.380419638007879257e-02 1.840137178078293800e-03 9.669739007949829102e-02 -1.470066756010055542e-01 2.460187114775180817e-02 4.124062880873680115e-02 1.148776635527610779e-01 -2.400725036859512329e-01 1.701226979494094849e-01 2.589549310505390167e-02 -7.783888280391693115e-02 7.097545266151428223e-02 1.097164899110794067e-01 5.743246525526046753e-02 -2.786650359630584717e-01 8.947576396167278290e-03 1.247470229864120483e-01 1.924950629472732544e-01 3.398573398590087891e-02 7.522285729646682739e-02 -2.027424238622188568e-02 9.383395314216613770e-02 -1.752072945237159729e-02 3.811942413449287415e-03 8.775588870048522949e-02 -5.624712631106376648e-02 -2.592079341411590576e-02 -7.767472416162490845e-02 -3.138114139437675476e-02 -1.822031140327453613e-01 1.696419552899897099e-03 1.538319587707519531e-01 1.951613835990428925e-02 1.361990272998809814e-01 1.297849267721176147e-01 2.314898520708084106e-01 2.904277108609676361e-02 2.188944816589355469e-02 -1.453106254339218140e-01 1.538466196507215500e-02 -3.327373862266540527e-01 -1.694175601005554199e-01 1.336015760898590088e-01 1.051094233989715576e-01 -8.411622792482376099e-02 -6.169164180755615234e-02 1.869124323129653931e-01 -4.497835785150527954e-02 9.136343747377395630e-02 3.001786768436431885e-01 5.391740426421165466e-02 -2.575422450900077820e-02 -8.594932407140731812e-02 -1.453208969905972481e-03 -1.183865889906883240e-01 2.785179205238819122e-02 -3.944270685315132141e-02 -8.333171159029006958e-02 -1.067535355687141418e-01 3.104255720973014832e-02 2.941335551440715790e-03
1.137418523430824280e-01 -8.003745973110198975e-02 -1.747641265392303467e-01 -3.112673163414001465e-01 5.864131078124046326e-02 4.245415702462196350e-02 1.068755015730857849e-01 -1.045538783073425293e-01 -5.730227008461952209e-02 1.687196642160415649e-01 -1.010412946343421936e-01 9.927183389663696289e-03 -1.453793520340695977e-04 1.234102398157119751e-01 -1.438765823841094971e-01 2.804535627365112305e-02 1.582161188125610352e-01 -1.847268082201480865e-02 6.519220024347305298e-02 4.428206756711006165e-02 1.963165961205959320e-02 4.001498594880104065e-02 3.054465167224407196e-02 1.230245381593704224e-01 -1.669275015592575073e-01 -1.215953230857849121e-01 5.653230845928192139e-02 5.592015013098716736e-02 2.871317863464355469e-01 4.646261408925056458e-02 6.304857879877090454e-02 -1.259578764438629150e-01 7.715357095003128052e-02 -6.205879524350166321e-02 -1.899766921997070312e-01 -2.411865293979644775e-01 1.952558308839797974e-01 1.654280871152877808e-01 1.839919835329055786e-01 -2.719444781541824341e-02 1.928827464580535889e-01 1.871002651751041412e-02 -9.820247441530227661e-02 -9.628183324821293354e-04 -2.615681588649749756e-01 -1.602374464273452759e-01 1.346409916877746582e-01 1.019840501248836517e-02 5.205976963043212891e-02 -8.427853882312774658e-02 -9.522353112697601318e-02 -1.721401512622833252e-01 9.065227955579757690e-02 -2.034074999392032623e-02 6.127323955297470093e-02 -8.782002329826354980e-02 1.208790764212608337e-01 9.065009653568267822e-02 4.975172504782676697e-02 2.617256157100200653e-02 -1.263353079557418823e-01 1.233868971467018127e-01 -8.278586715459823608e-02 -2.827306389808654785e-01 -3.804501518607139587e-02 -9.010249376296997070e-02 8.349838666617870331e-03 9.435021877288818359e-02 9.938542544841766357e-02 -1.306788921356201172e-01 -1.424424350261688232e-01 -5.011698231101036072e-02 -7.106957584619522095e-02 2.416075952351093292e-02 1.975691020488739014e-01 -5.249733850359916687e-02 1.895761638879776001e-01 -4.711971431970596313e-02 -1.465984880924224854e-01 1.758349537849426270e-01 -1.065689250826835632e-01 2.094560265541076660e-01 1.979343742132186890e-01 -3.088005818426609039e-02 -1.429311037063598633e-01 -4.363150894641876221e-02 -1.339830905199050903e-01 1.247899010777473450e-01 7.444617897272109985e-02 7.725514471530914307e-02 1.785169690847396851e-01 1.013360098004341125e-01 1.567466929554939270e-02 -1.451703608036041260e-01 -3.066991828382015228e-02 -2.199217211455106735e-03 -9.948612004518508911e-02 -1.418624967336654663e-01 1.933047547936439514e-02 -4.046996310353279114e-02 8.361952006816864014e-02 -1.435490101575851440e-01 -7.477569859474897385e-03 5.697251483798027039e-02 1.450098603963851929e-01 1.432206034660339355e-01 -5.893974006175994873e-02 -4.550242330878973007e-03 1.115446090698242188e-01 2.160812765359878540e-01 -1.944133825600147247e-02 1.219883933663368225e-01 -2.160547673702239990e-02 -1.563635468482971191e-01 -9.831634908914566040e-02 6.708689779043197632e-02 -1.810640692710876465e-01 2.959798090159893036e-02 3.527259454131126404e-02 5.408838018774986267e-02
2.085845619440078735e-01 -7.714506983757019043e-02 8.388102054595947266e-02 2.326782941818237305e-01 -4.013143107295036316e-02 -2.346184663474559784e-02 -2.016464024782180786e-01 6.699277460575103760e-02 9.827248007059097290e-02 1.246601194143295288e-01 -1.903395801782608032e-01 7.438680529594421387e-02 8.560942858457565308e-02 -1.413405090570449829e-01 -9.007071144878864288e-03 -3.341504037380218506e-01 -6.263619661331176758e-02 -7.031334191560745239e-02 8.617497980594635010e-03 6.258255243301391602e-02 1.254625469446182251e-01 8.753729984164237976e-03 2.692822366952896118e-02 1.308458447456359863e-01 -9.599100053310394287e-02 -3.851107135415077209e-02 -4.646592214703559875e-02 6.055231019854545593e-02 -1.386301070451736450e-01 3.163269460201263428e-01 1.939513832330703735e-01 -3.375790268182754517e-02 5.736904218792915344e-02 -8.100789040327072144e-03 1.324705779552459717e-02 1.287139505147933960e-01 -6.284213811159133911e-02 -6.650306284427642822e-02 -1.466321200132369995e-01 7.314109802246093750e-02 2.890172228217124939e-02 6.773090362548828125e-02 2.287408560514450073e-01 -2.891096472740173340e-01 -2.107117511332035065e-02 1.205596998333930969e-01 -2.151287533342838287e-02 -9.897251427173614502e-02 7.610820978879928589e-02 3.886816278100013733e-02 6.584309041500091553e-02 1.161290183663368225e-01 1.528856009244918823e-01 1.310940235853195190e-01 -4.567125067114830017e-02 -2.749223634600639343e-02 -1.133717820048332214e-01 -1.222416162490844727e-01 -3.264063224196434021e-02 -9.931513108313083649e-03 -1.537719368934631348e-01 6.870654970407485962e-02 -1.193889304995536804e-01 -4.097595810890197754e-02 -1.900355704128742218e-02 1.446312963962554932e-01 -7.232051342725753784e-02 -1.988359242677688599e-01 1.536968648433685303e-01 -4.199782013893127441e-02 2.478255480527877808e-01 6.610041111707687378e-02 -2.336532250046730042e-02 -1.029929742217063904e-01 -6.900320202112197876e-02 1.329545676708221436e-01 2.057551294565200806e-01 2.638969719409942627e-01 1.778136342763900757e-01 -6.253572553396224976e-02 4.189683869481086731e-02 5.260996520519256592e-02 -1.742364652454853058e-02 6.747902929782867432e-02 3.176425993442535400e-01 -1.012347489595413208e-01 1.199317164719104767e-02 -8.539608865976333618e-02 1.621817983686923981e-02 -1.369816213846206665e-01 3.936079517006874084e-02 -8.072888851165771484e-02 2.728792279958724976e-02 -1.930202543735504150e-02 -1.816917769610881805e-02 1.857679784297943115e-01 -6.203676015138626099e-02 -3.820654749870300293e-02 1.836458444595336914e-01 -1.340613979846239090e-02 7.666347175836563110e-02 -1.871588081121444702e-01 -1.176394969224929810e-01 -9.646596014499664307e-02 -1.392327547073364258e-01 -1.548322439193725586e-01 1.764339208602905273e-02 1.331612169742584229e-01 1.809879988431930542e-01 1.874859482049942017e-01 7.170593738555908203e-02 -1.837425976991653442e-01 3.302815556526184082e-01 -5.458197742700576782e-02 -1.564278304576873779e-01 -5.503958836197853088e-02 2.507297322154045105e-02 8.127349615097045898e-02 -2.620181813836097717e-02 7.231724448502063751e-03
5.388411134481430054e-02 -1.194112896919250488e-01 -1.332569867372512817e-01 -4.124960675835609436e-02 1.016669943928718567e-01 1.584637761116027832e-01 1.740116626024246216e-01 -1.339627951383590698e-01 -4.739080742001533508e-02 4.333499819040298462e-02 3.627448901534080505e-02 -1.940579712390899658e-02 -8.924075216054916382e-02 2.088558673858642578e-01 -1.581646949052810669e-01 -6.352427601814270020e-02 9.903487563133239746e-02 1.241667866706848145e-01 7.336610555648803711e-02 1.846146285533905029e-01 5.974426865577697754e-02 -9.102796018123626709e-02 -3.041317313909530640e-02 1.519296616315841675e-01 -1.621423661708831787e-01 -1.697582602500915527e-01 8.689160645008087158e-02 1.629039496183395386e-01 4.585858061909675598e-02 6.633487343788146973e-02 -2.130637131631374359e-02 -1.117331162095069885e-01 1.890731006860733032e-01 7.887558639049530029e-02 -7.559270411729812622e-02 -9.315851330757141113e-02 5.186953395605087280e-02 3.890510182827711105e-03 -3.908092156052589417e-02 -8.021526038646697998e-02 2.256169617176055908e-01 -1.221566870808601379e-01 -1.008231416344642639e-01 -3.464413434267044067e-02 -2.345741987228393555e-01 -6.822574138641357422e-02 2.534719556570053101e-02 1.514502465724945068e-01 -1.028710603713989258e-01 -2.927852328866720200e-03 -1.275108456611633301e-01 -5.217310786247253418e-02 7.157173752784729004e-02 -7.262101024389266968e-02 -1.239019725471735001e-02 -6.840363144874572754e-02 -1.704310625791549683e-02 6.364277750253677368e-02 -1.638589799404144287e-01 -8.744796365499496460e-02 3.174234554171562195e-02 1.434962451457977295e-01 -1.258888561278581619e-02 -3.070608377456665039e-01 -1.425691395998001099e-01 5.355997011065483093e-02 1.228860318660736084e-01 5.598341301083564758e-02 2.106279134750366211e-01 3.906787559390068054e-02 -2.332732975482940674e-01 6.489995867013931274e-03 2.698556184768676758e-01 -1.361934393644332886e-01 -3.079642727971076965e-02 -1.868128329515457153e-01 5.909300595521926880e-02 -3.319316729903221130e-02 5.023553594946861267e-02 2.438756078481674194e-01 4.266428202390670776e-02 2.206755727529525757e-01 1.504556089639663696e-01 -1.711799651384353638e-01 -5.357212573289871216e-02 -9.193195402622222900e-02 3.960077092051506042e-02 2.205884829163551331e-02 3.478352725505828857e-02 8.479330688714981079e-02 -1.367517467588186264e-02 -4.160993266850709915e-03 -4.615941643714904785e-02 -2.803235054016113281e-01 2.693031914532184601e-02 1.230968758463859558e-01 5.632301047444343567e-02 -1.779703199863433838e-01 -5.400666221976280212e-02 -7.476746290922164917e-02 1.726912409067153931e-01 -7.887116074562072754e-02 -2.595460228621959686e-02 5.133126676082611084e-02 1.011154055595397949e-01 1.248499602079391479e-01 -5.192575231194496155e-02 -2.332185208797454834e-01 -8.778936229646205902e-03 3.275872394442558289e-02 6.592492572963237762e-04 -1.702781468629837036e-01 -2.045516856014728546e-02 -1.525491327047348022e-01 -8.926717191934585571e-02 2.286827862262725830e-01 -1.029732003808021545e-01 9.236148744821548462e-02 1.155698150396347046e-01 -7.403765618801116943e-02
-6.051689013838768005e-02 -2.108413726091384888e-01 -1.754036843776702881e-01 8.905464410781860352e-02 -7.056442648172378540e-02 -3.286711126565933228e-02 -9.633381664752960205e-02 -1.470177769660949707e-01 -8.895317465066909790e-02 -1.291634738445281982e-01 6.890155375003814697e-02 -6.115346774458885193e-02 -2.140589058399200439e-01 -4.605097323656082153e-02 1.036265268921852112e-01 1.079782694578170776e-01 3.461166517809033394e-03 1.913890987634658813e-01 1.385135762393474579e-02 1.027683913707733154e-02 7.446408271789550781e-02 -1.243679970502853394e-02 1.357248127460479736e-01 -4.744023829698562622e-02 -1.884436756372451782e-01 -6.772650778293609619e-02 -8.000174164772033691e-02 2.154359221458435059e-02 -2.547821216285228729e-02 -2.921767346560955048e-02 7.873942703008651733e-02 -8.058235980570316315e-03 -3.290381655097007751e-02 2.289190329611301422e-02 7.004770636558532715e-02 7.548934966325759888e-02 -1.011079698801040649e-01 -7.719081640243530273e-02 9.010358154773712158e-02 -8.197883144021034241e-03 1.571514308452606201e-01 -1.646238751709461212e-02 -2.126578986644744873e-01 -2.209399044513702393e-01 6.286772433668375015e-03 7.109683007001876831e-02 7.143344730138778687e-02 1.964746564626693726e-01 -3.127802312374114990e-01 -1.321786046028137207e-01 -6.678607314825057983e-02 2.254770323634147644e-02 1.575138121843338013e-01 -6.489801406860351562e-02 1.028051078319549561e-01 1.479775756597518921e-01 -2.893965244293212891e-01 6.889599561691284180e-02 -1.130136698484420776e-01 -1.373656392097473145e-01 1.765765249729156494e-01 7.851007580757141113e-02 1.951760500669479370e-01 -1.347925066947937012e-01 5.739647429436445236e-03 -1.352556496858596802e-01 2.767260670661926270e-01 8.438025414943695068e-02 -3.975670784711837769e-02 1.539608389139175415e-01 -1.184094697237014771e-01 1.604156196117401123e-01 1.680674552917480469e-01 1.458156853914260864e-01 1.368630230426788330e-01 -6.118937954306602478e-02 -4.884603619575500488e-02 -9.109765291213989258e-02 1.297857463359832764e-01 -1.248465701937675476e-01 6.359810940921306610e-03 2.070484459400177002e-01 -1.237816959619522095e-01 -1.314462423324584961e-01 2.573915384709835052e-02 1.100719161331653595e-02 -9.522003121674060822e-03 -1.178386434912681580e-01 -3.896897286176681519e-02 2.032932937145233154e-01 1.471473276615142822e-01 1.477532535791397095e-01 -2.016325443983078003e-01 -1.209189221262931824e-01 -4.668083414435386658e-02 7.635419070720672607e-02 1.395350992679595947e-01 -1.519440710544586182e-01 -6.602496653795242310e-02 -6.280156224966049194e-02 1.281182020902633667e-01 -2.224605716764926910e-02 -2.207021564245223999e-01 1.169612780213356018e-01 9.401455521583557129e-02 1.378192305564880371e-01 8.015973120927810669e-02 -3.473172783851623535e-01 4.848587512969970703e-02 -1.436911225318908691e-01 8.029822260141372681e-02 -1.916212886571884155e-01 -7.403386384248733521e-02 -1.128715053200721741e-01 6.773605197668075562e-02 9.462046436965465546e-03 -5.313450004905462265e-03 -1.163346618413925171e-01 -1.397408992052078247e-01 -1.044842824339866638e-01
-2.173508144915103912e-02 6.123375892639160156e-02 -9.312595427036285400e-02 -2.104608118534088135e-01 2.711943089962005615e-01 -7.577177882194519043e-02 1.009937655180692673e-02 -4.278488084673881531e-02 -6.805638968944549561e-02 1.337349563837051392e-01 3.242231160402297974e-02 -2.768369019031524658e-01 6.217772886157035828e-02 -2.224053442478179932e-02 -4.229533486068248749e-03 1.197031289339065552e-01 -1.604290455579757690e-01 8.411283791065216064e-02 1.172691583633422852e-01 -1.413341015577316284e-01 6.529878824949264526e-02 1.798803918063640594e-02 4.124519601464271545e-02 -1.454754383303225040e-03 -9.201648086309432983e-02 -2.922300249338150024e-03 1.627220660448074341e-01 1.394978612661361694e-01 5.883111804723739624e-02 -1.512746512889862061e-01 4.773673415184020996e-02 5.544305220246315002e-02 1.716934889554977417e-01 7.895645499229431152e-02 -5.553004890680313110e-02 -1.058180704712867737e-01 -4.610811918973922729e-02 -6.848885212093591690e-03 2.217393815517425537e-01 -6.981176137924194336e-02 6.469213217496871948e-02 -5.974652618169784546e-02 -1.503620445728302002e-01 6.955318152904510498e-02 -4.003987088799476624e-02 -1.296015679836273193e-01 2.796419560909271240e-01 -8.752305060625076294e-02 7.921206206083297729e-02 -2.438964247703552246e-01 -1.085524260997772217e-02 -6.115746498107910156e-02 -1.426634192466735840e-01 -3.008890710771083832e-02 -2.809258922934532166e-02 -6.836707144975662231e-02 -1.046052351593971252e-01 1.981379985809326172e-01 -4.300287365913391113e-02 1.328412294387817383e-01 1.122798654250800610e-03 2.367573603987693787e-02 3.040457516908645630e-02 2.080544643104076385e-02 8.087079226970672607e-02 -1.127001270651817322e-01 -3.730713203549385071e-02 1.225753948092460632e-01 3.727188799530267715e-03 -8.018544316291809082e-02 -1.429945379495620728e-01 -2.932184040546417236e-01 6.491601467132568359e-02 1.767372041940689087e-01 3.503093495965003967e-02 1.191536709666252136e-01 1.468781232833862305e-01 -2.585025131702423096e-01 -3.348869681358337402e-01 2.460125274956226349e-02 -1.517782211303710938e-01 -1.887074708938598633e-01 1.023098826408386230e-01 -1.460348069667816162e-02 -8.319976925849914551e-02 6.270880252122879028e-02 -4.620200023055076599e-02 1.444895565509796143e-01 -1.443920135498046875e-01 -1.776376366615295410e-01 -2.000675648450851440e-01 -1.205010265111923218e-01 9.575413912534713745e-02 5.881991237401962280e-03 -1.078039482235908508e-01 -1.985994875431060791e-01 -1.317447870969772339e-01 1.343316491693258286e-02 4.714291542768478394e-02 5.468290299177169800e-02 4.873635619878768921e-02 -7.082837820053100586e-02 9.390974044799804688e-02 1.141528189182281494e-01 7.417729496955871582e-02 9.780076891183853149e-02 5.903023853898048401e-02 -1.497353911399841309e-01 -8.603853173553943634e-03 -6.545021384954452515e-02 -6.374605745077133179e-02 2.633200883865356445e-01 -1.738124638795852661e-01 -1.013599410653114319e-01 -3.507112711668014526e-02 8.873140066862106323e-02 -2.625372707843780518e-01 -1.841695234179496765e-02 -6.288200616836547852e-02 1.305632144212722778e-01
-7.797768712043762207e-02 1.972216069698333740e-01 2.007571309804916382e-01 -4.348462447524070740e-02 2.357564633712172508e-03 -1.453478932380676270e-01 -7.013455778360366821e-02 6.982418149709701538e-02 4.860335588455200195e-02 1.307975500822067261e-01 -4.936262033879756927e-03 2.047850564122200012e-02 1.855534166097640991e-01 -1.152590215206146240e-01 -9.241469204425811768e-02 8.363205194473266602e-02 -1.555257141590118408e-01 -3.031361103057861328e-02 6.703604757785797119e-02 -1.157866790890693665e-01 -2.003762722015380859e-01 6.743837893009185791e-02 9.588027745485305786e-02 -1.288976613432168961e-02 5.340175237506628036e-03 8.655207604169845581e-02 -5.420073401182889938e-03 -2.708761394023895264e-01 -6.737016886472702026e-02 -1.111807022243738174e-02 -2.177948132157325745e-02 9.420002251863479614e-02 2.607587724924087524e-02 -4.748122394084930420e-02 1.779573597013950348e-02 -4.215902835130691528e-02 4.304058477282524109e-02 -5.043352395296096802e-02 -1.147583276033401489e-01 1.336478143930435181e-01 -1.899643093347549438e-01 5.940062552690505981e-02 -1.978319138288497925e-02 1.851432472467422485e-01 5.157713219523429871e-02 1.205017641186714172e-01 -6.849385052919387817e-02 -2.292734384536743164e-01 1.851752698421478271e-01 -1.654114760458469391e-02 6.785730831325054169e-03 -3.389833495020866394e-02 -1.849548071622848511e-01 4.664097726345062256e-02 -1.074053049087524414e-01 -1.109171658754348755e-03 -4.137333016842603683e-03 -4.420180618762969971e-02 7.877853512763977051e-02 3.874288126826286316e-02 -8.130735903978347778e-02 -1.622529476881027222e-01 -3.619673848152160645e-02 1.318764686584472656e-01 1.453264504671096802e-01 7.292732596397399902e-02 8.105577901005744934e-03 1.672435738146305084e-02 2.702945843338966370e-02 -1.929651498794555664e-01 1.215543821454048157e-01 -5.969429761171340942e-02 -1.353751718997955322e-01 1.021848320960998535e-01 -7.128061354160308838e-02 1.911493390798568726e-01 -3.214938193559646606e-02 1.054626926779747009e-01 -7.026554644107818604e-02 -9.275944530963897705e-02 9.198301285505294800e-02 -2.727639973163604736e-01 -1.584670692682266235e-01 1.449159085750579834e-01 9.605412930250167847e-02 -1.019435301423072815e-01 3.334238380193710327e-02 2.399240620434284210e-02 -1.509236991405487061e-01 -2.627375125885009766e-01 -1.430286467075347900e-01 -6.186764314770698547e-02 8.837690949440002441e-02 1.751061379909515381e-01 -1.236559227108955383e-01 -2.330227941274642944e-01 -7.338672876358032227e-02 4.463563114404678345e-02 5.896221101284027100e-02 8.961846679449081421e-02 -9.765703231096267700e-02 1.059430018067359924e-01 7.557363063097000122e-02 1.503740996122360229e-01 -7.531318813562393188e-02 -2.477910071611404419e-01 -2.525577880442142487e-02 2.007443755865097046e-01 4.930939897894859314e-02 1.156629323959350586e-01 -1.970164179801940918e-01 1.364085823297500610e-01 -5.650144815444946289e-02 1.395242065191268921e-01 2.855966985225677490e-02 -3.900789842009544373e-02 9.035187959671020508e-02 -1.771916151046752930e-01 1.175693571567535400e-01 -4.271214455366134644e-02
1.048003882169723511e-01 -4.358668252825737000e-02 -2.708486318588256836e-01 -1.008085790090262890e-03 -1.368055492639541626e-01 1.170789748430252075e-01 1.806857883930206299e-01 -7.218416035175323486e-02 -6.191742792725563049e-02 -7.052464038133621216e-02 1.713136956095695496e-02 1.191163957118988037e-01 -1.093549802899360657e-01 1.607251465320587158e-01 -4.332565888762474060e-02 2.093411535024642944e-01 6.438124179840087891e-02 1.518037021160125732e-01 -6.981548666954040527e-02 1.234311088919639587e-01 1.835319101810455322e-01 -1.410019397735595703e-01 1.152961999177932739e-01 1.156276240944862366e-01 -5.802336335182189941e-02 -1.504797786474227905e-01 -1.323027014732360840e-01 3.082629144191741943e-01 1.586171090602874756e-01 -2.555802091956138611e-02 3.908365964889526367e-03 -9.885424375534057617e-02 -2.225512824952602386e-02 -8.127338252961635590e-03 -1.271694600582122803e-01 1.833465322852134705e-02 8.556384593248367310e-02 -9.161085635423660278e-02 2.715813219547271729e-01 -1.709024459123611450e-01 9.460014849901199341e-02 -4.313711076974868774e-02 3.359957039356231689e-02 2.137494459748268127e-02 1.066705584526062012e-01 -1.702935099601745605e-01 2.742807194590568542e-02 2.211810201406478882e-01 -1.005150079727172852e-01 -2.110009491443634033e-01 1.188508048653602600e-02 3.260036557912826538e-02 7.204498350620269775e-02 7.897447049617767334e-02 2.386885583400726318e-01 -6.609937548637390137e-02 -8.623450994491577148e-02 1.700178831815719604e-01 1.174047887325286865e-01 1.101085320115089417e-01 3.716327995061874390e-02 3.086220920085906982e-01 1.354055106639862061e-01 -1.922209858894348145e-01 -1.941338181495666504e-01 -9.789211302995681763e-02 4.475573543459177017e-03 1.996862441301345825e-01 -6.378262490034103394e-02 9.309231489896774292e-02 -5.233775451779365540e-02 1.533347368240356445e-02 -3.494821861386299133e-02 -5.894452705979347229e-02 3.963451087474822998e-02 -1.669478118419647217e-01 1.713149398565292358e-01 1.319855302572250366e-01 1.619880497455596924e-01 9.363108128309249878e-02 -5.889002606272697449e-02 1.884505897760391235e-01 -1.193941757082939148e-01 -3.134964033961296082e-02 6.453142967075109482e-03 2.382421046495437622e-01 -9.851211309432983398e-02 -4.518534615635871887e-02 5.461728200316429138e-02 2.284442484378814697e-01 2.110107541084289551e-01 1.318223774433135986e-01 -1.110704839229583740e-01 -7.066034525632858276e-02 1.787983626127243042e-02 1.726570278406143188e-01 -1.801934838294982910e-01 -3.503600135445594788e-02 -7.796307653188705444e-02 -1.235754862427711487e-01 3.700834140181541443e-02 -7.458394765853881836e-02 -3.169744834303855896e-02 -2.256672363728284836e-03 -1.168849691748619080e-01 2.405923008918762207e-01 -1.812599897384643555e-01 -3.395378962159156799e-02 5.160239338874816895e-02 -7.340718060731887817e-02 1.698149293661117554e-01 -1.114949285984039307e-01 -1.147203147411346436e-02 -3.597023338079452515e-02 -7.550778333097696304e-03 1.292886286973953247e-01 1.019338332116603851e-02 -1.711702346801757812e-02 -1.209135055541992188e-01 -6.567277759313583374e-02
1.705235838890075684e-01 1.830171495676040649e-01 1.896832734346389771e-01 -1.456784456968307495e-02 -6.027220934629440308e-02 1.146298870444297791e-01 -1.071336939930915833e-01 2.031716257333755493e-01 2.249844139441847801e-03 8.156850934028625488e-03 -8.912699669599533081e-02 -4.201271012425422668e-02 7.094439119100570679e-02 -2.292785346508026123e-01 8.314907550811767578e-02 -1.894019544124603271e-01 -1.358439624309539795e-01 6.893374025821685791e-02 -5.246660113334655762e-02 -4.559339955449104309e-02 -1.164539605379104614e-01 1.867428235709667206e-02 -6.006884574890136719e-02 9.615938179194927216e-03 1.826752275228500366e-01 2.668740786612033844e-02 -1.333861704915761948e-02 1.880038976669311523e-01 -1.564643532037734985e-01 -8.073377609252929688e-02 -1.476962715387344360e-01 -3.776368126273155212e-02 -6.160455197095870972e-02 -9.183097630739212036e-03 1.799841672182083130e-01 -1.245026662945747375e-01 -6.563728302717208862e-02 -2.166055738925933838e-01 2.904327586293220520e-03 4.348595812916755676e-02 -8.690319955348968506e-02 -1.523324996232986450e-01 9.018646925687789917e-02 9.086827933788299561e-02 2.721809148788452148e-01 1.819150894880294800e-01 -3.259037807583808899e-02 -4.320414736866950989e-02 -5.922932177782058716e-03 4.585183784365653992e-02 -9.137052297592163086e-02 -4.923965409398078918e-02 9.628120064735412598e-02 8.630842715501785278e-02 -9.578160941600799561e-02 6.181276217103004456e-02 9.903851151466369629e-02 -5.791357532143592834e-02 1.134945303201675415e-01 -7.338154315948486328e-02 -1.288735121488571167e-01 -1.001452207565307617e-01 7.183055579662322998e-02 9.352160245180130005e-02 1.197593510150909424e-01 2.506341338157653809e-01 -3.055084049701690674e-01 7.195635885000228882e-02 -1.163620576262474060e-01 -1.194645315408706665e-01 1.642437577247619629e-01 5.946555733680725098e-02 -1.221657246351242065e-01 -9.727189689874649048e-02 -1.048574745655059814e-01 2.019011974334716797e-01 -1.309107393026351929e-01 3.676043357700109482e-03 -5.417858436703681946e-02 -1.622556746006011963e-01 8.183862268924713135e-02 1.762240380048751831e-02 -8.508548140525817871e-02 2.582207620143890381e-01 5.341994017362594604e-02 1.030294522643089294e-01 1.879393756389617920e-01 2.132696211338043213e-01 -1.000859662890434265e-01 -9.741698205471038818e-02 -1.705318838357925415e-01 -1.729736030101776123e-01 -2.662282437086105347e-02 1.543843448162078857e-01 1.660636663436889648e-01 -5.940508842468261719e-02 3.861870989203453064e-02 1.154835894703865051e-01 9.418429806828498840e-03 2.042876482009887695e-01 -1.836330890655517578e-01 1.368354409933090210e-01 5.608070641756057739e-02 -1.106641218066215515e-01 -1.715413182973861694e-01 -1.031256839632987976e-01 -2.018803730607032776e-03 1.829122751951217651e-01 -2.115831524133682251e-02 2.007647603750228882e-02 -9.056909382343292236e-02 -2.544516231864690781e-03 -1.507311165332794189e-01 -5.692981556057929993e-02 7.412083446979522705e-02 -1.631268858909606934e-01 2.592558600008487701e-02 -1.103774607181549072e-01 -4.832101985812187195e-02 -6.113973632454872131e-02
8.500588685274124146e-02 -1.712482273578643799e-01 1.029879078269004822e-01 1.353088915348052979e-01 3.689458593726158142e-03 -3.491307049989700317e-02 -7.364858686923980713e-02 -5.362744629383087158e-02 -1.157811656594276428e-01 1.416926980018615723e-01 -1.361053884029388428e-01 -5.107114836573600769e-02 1.074040681123733521e-02 2.082013934850692749e-01 -2.792497873306274414e-01 -1.085950434207916260e-01 7.088904827833175659e-02 1.406273841857910156e-01 1.547891199588775635e-01 1.427038162946701050e-01 2.557296305894851685e-02 3.791853785514831543e-02 -9.807628393173217773e-02 -1.300483196973800659e-01 -7.397847622632980347e-02 3.136155428364872932e-04 1.763035953044891357e-01 -1.548670046031475067e-02 -3.777131810784339905e-02 1.909430325031280518e-02 5.042514577507972717e-02 -6.288083642721176147e-02 -2.471161819994449615e-02 2.803836762905120850e-02 4.783380031585693359e-02 -9.701908379793167114e-02 1.884294748306274414e-01 6.009178981184959412e-02 1.741810142993927002e-02 1.536235213279724121e-01 1.145985275506973267e-01 -5.069610849022865295e-02 -3.587186709046363831e-02 -9.516066871583461761e-03 -7.686067372560501099e-02 1.446693688631057739e-01 2.339458316564559937e-01 -5.644965544342994690e-02 -1.558604389429092407e-01 -5.822007358074188232e-02 -4.127944633364677429e-02 -6.712054461240768433e-02 -7.982358336448669434e-02 9.834592789411544800e-02 4.748890642076730728e-03 1.373630166053771973e-01 -2.247768640518188477e-01 -2.520152367651462555e-02 -1.451685577630996704e-01 -1.480507850646972656e-01 -1.027448102831840515e-01 -5.198304355144500732e-02 2.390756756067276001e-01 3.093951195478439331e-02 2.193012833595275879e-02 1.549113839864730835e-01 -9.888150542974472046e-02 -7.619927078485488892e-02 4.621655493974685669e-02 -1.421243101358413696e-01 -1.654480993747711182e-01 9.047112613916397095e-02 -7.679646462202072144e-02 -7.402986288070678711e-02 -1.106746345758438110e-01 1.381018310785293579e-01 -6.799624115228652954e-02 3.234685957431793213e-02 -1.357235386967658997e-02 4.090646281838417053e-02 1.803301423788070679e-01 -7.856626994907855988e-03 -1.234762445092201233e-01 -8.527825772762298584e-02 1.118426322937011719e-01 -2.370165288448333740e-02 1.474100649356842041e-01 2.332782372832298279e-02 1.170381754636764526e-01 -7.297563552856445312e-02 1.133254766464233398e-01 1.646364033222198486e-01 -2.233885675668716431e-01 1.479317992925643921e-01 -1.325341016054153442e-01 6.204143911600112915e-02 1.341142505407333374e-01 -5.276352539658546448e-02 -2.230902761220932007e-01 -1.553716370835900307e-03 1.341502815485000610e-01 6.356371939182281494e-02 -1.177552342414855957e-01 1.232453957200050354e-01 -4.902329761534929276e-03 -1.873459517955780029e-01 1.571837812662124634e-01 1.405818462371826172e-01 -2.824060022830963135e-01 -1.319577731192111969e-02 8.050602674484252930e-02 -8.891925960779190063e-02 8.699636906385421753e-02 -6.606820225715637207e-02 -1.191137209534645081e-01 3.690935298800468445e-02 -1.193218491971492767e-02 9.882168471813201904e-02 2.165722846984863281e-01 -6.497856229543685913e-02
-1.255625113844871521e-02 -9.496260434389114380e-02 -1.542052477598190308e-01 1.599361002445220947e-01 -5.333082750439643860e-02 -3.015921637415885925e-02 -1.967983692884445190e-01 -1.005084142088890076e-01 -1.239947825670242310e-01 5.208810046315193176e-02 1.353469043970108032e-01 2.381426468491554260e-02 -2.664611935615539551e-01 5.861732363700866699e-02 -5.416852235794067383e-02 5.288063734769821167e-02 9.028043597936630249e-02 2.628359496593475342e-01 1.877700984477996826e-01 1.019107773900032043e-01 5.254468694329261780e-02 -2.032515779137611389e-02 1.915499120950698853e-01 5.770734325051307678e-02 -1.261038631200790405e-01 -1.015008017420768738e-01 -8.216990530490875244e-02 2.609013579785823822e-02 9.034100919961929321e-02 1.155140399932861328e-01 2.184885367751121521e-02 5.005900561809539795e-02 -9.968323260545730591e-02 -9.807495772838592529e-02 -2.988649159669876099e-02 -8.717986196279525757e-02 2.412526495754718781e-02 -2.751463837921619415e-02 6.079284846782684326e-02 -6.247636303305625916e-02 9.335009753704071045e-02 -1.146189346909523010e-01 -2.807775437831878662e-01 -2.030880153179168701e-01 2.401065826416015625e-02 1.244034525007009506e-02 1.769708991050720215e-01 3.529394790530204773e-02 -2.284408658742904663e-01 -1.675693243741989136e-01 -1.910270899534225464e-01 5.030665919184684753e-02 1.413076967000961304e-01 -6.054338440299034119e-02 -8.812468498945236206e-02 9.654789417982101440e-02 -1.784775555133819580e-01 8.873214013874530792e-03 -2.204810380935668945e-01 -1.131728664040565491e-01 1.249940246343612671e-01 1.562238931655883789e-01 2.066530473530292511e-02 -2.101527005434036255e-01 2.317956462502479553e-02 -1.038921549916267395e-01 7.175636291503906250e-02 9.485677629709243774e-02 4.001582507044076920e-03 2.368438988924026489e-01 -6.886205170303583145e-03 2.185621559619903564e-01 9.595553576946258545e-02 1.306883692741394043e-01 1.608182303607463837e-02 -3.222537785768508911e-02 -1.198660465888679028e-03 -6.929728202521800995e-03 2.202049344778060913e-01 -3.438260778784751892e-02 -1.362343430519104004e-01 2.852426469326019287e-01 -6.613811012357473373e-03 -1.606116145849227905e-01 7.159801665693521500e-03 -4.436019808053970337e-02 -8.079504966735839844e-02 -8.334951847791671753e-02 5.251109600067138672e-02 1.067784428596496582e-01 2.035011351108551025e-01 1.058727800846099854e-01 -1.920711696147918701e-01 -1.437006741762161255e-01 -1.455450356006622314e-01 8.602337539196014404e-02 5.676103755831718445e-02 -1.318055391311645508e-01 -1.204871479421854019e-02 -6.742392480373382568e-02 1.192467138171195984e-01 -1.151174157857894897e-01 -2.402813583612442017e-01 1.618297696113586426e-01 3.488651290535926819e-02 1.429224163293838501e-01 5.674498528242111206e-02 -3.003647029399871826e-01 2.007233211770653725e-03 -1.523921191692352295e-01 1.503524184226989746e-01 -1.468618810176849365e-01 -8.219391107559204102e-02 -1.906735152006149292e-01 -7.127717137336730957e-02 1.172780841588973999e-01 2.847925946116447449e-02 -7.872236520051956177e-02 2.042741887271404266e-02 7.460046559572219849e-02
1.754447966814041138e-01 -4.905746504664421082e-02 7.718451321125030518e-02 -9.558386355638504028e-02 -7.010791450738906860e-02 -5.867027863860130310e-02 -2.007664591073989868e-01 1.301406025886535645e-01 1.031813118606805801e-02 5.290431901812553406e-02 -1.165775880217552185e-01 -7.712806016206741333e-02 1.605182439088821411e-01 -1.194547787308692932e-01 5.319791659712791443e-02 -2.053551524877548218e-01 1.524265669286251068e-02 -6.534163653850555420e-02 2.609937787055969238e-01 5.022685602307319641e-02 1.761872321367263794e-01 7.005482167005538940e-02 -5.602362100034952164e-03 7.802257686853408813e-02 -6.856154650449752808e-02 -1.094559729099273682e-01 -2.061176002025604248e-01 -2.391950935125350952e-01 -1.139646172523498535e-01 2.002709507942199707e-01 7.180995307862758636e-03 -1.202921420335769653e-01 -1.342208534479141235e-01 -8.574436604976654053e-02 -2.436734270304441452e-03 -5.818560719490051270e-02 1.094014793634414673e-01 -8.027983456850051880e-02 -1.916454732418060303e-01 2.394576668739318848e-01 1.244704052805900574e-02 -2.417917363345623016e-02 3.720838110893964767e-03 -4.484395310282707214e-02 -4.347188770771026611e-02 6.206209957599639893e-02 -7.728628406766802073e-05 1.095514222979545593e-01 1.354261487722396851e-01 9.164498001337051392e-02 -1.080373078584671021e-01 3.673467785120010376e-02 -5.809491500258445740e-03 1.038332283496856689e-01 5.498202517628669739e-03 1.449230164289474487e-01 -7.103230804204940796e-02 -2.634187638759613037e-01 -9.114350378513336182e-02 -1.073544751852750778e-02 -8.830158412456512451e-02 8.856116235256195068e-02 -1.368008255958557129e-01 -8.079513162374496460e-02 -2.045374363660812378e-02 -2.574527077376842499e-02 3.806209564208984375e-02 -1.026602014899253845e-01 2.856408357620239258e-01 9.882397949695587158e-02 2.444441169500350952e-01 1.410255730152130127e-01 -4.755973815917968750e-02 -4.492485150694847107e-02 -2.268040329217910767e-01 1.106836050748825073e-01 -2.457976713776588440e-02 2.315809279680252075e-01 2.342805415391921997e-01 -1.196465268731117249e-01 1.060362458229064941e-01 9.104240685701370239e-02 -5.555560067296028137e-02 4.610924050211906433e-03 2.701991498470306396e-01 -1.462368220090866089e-01 -1.604664921760559082e-01 -9.595306217670440674e-02 -1.113026365637779236e-01 -8.838783204555511475e-02 1.704313009977340698e-01 6.759636849164962769e-02 1.301071047782897949e-01 1.044475436210632324e-01 1.555800735950469971e-01 5.421214550733566284e-02 5.175976455211639404e-02 -2.055345326662063599e-01 9.649718552827835083e-02 -1.669921875000000000e-01 5.648259073495864868e-02 -8.089516311883926392e-02 -6.029577925801277161e-02 -1.833333373069763184e-01 -1.198390275239944458e-01 -5.960195884108543396e-02 -4.898738488554954529e-02 1.447165906429290771e-01 1.061057578772306442e-02 2.373628467321395874e-01 -9.531299024820327759e-02 -2.275157868862152100e-01 3.229298293590545654e-01 1.180649399757385254e-01 -1.080939248204231262e-01 -1.177144125103950500e-01 9.101995825767517090e-02 3.607855364680290222e-02 9.303314983844757080e-02 -2.347458340227603912e-02
-6.623839586973190308e-02 4.611371550709009171e-03 -3.951810300350189209e-02 3.105957508087158203e-01 2.333765774965286255e-01 -1.055134609341621399e-01 -2.662833034992218018e-01 -9.997174888849258423e-02 4.782722890377044678e-02 -1.382911205291748047e-01 -6.734032649546861649e-03 1.572238355875015259e-01 -5.840675532817840576e-02 -8.645027875900268555e-02 1.250295639038085938e-01 8.309220522642135620e-02 -1.390573009848594666e-02 -8.268552273511886597e-02 -9.379521943628787994e-03 -1.169360354542732239e-01 7.772733271121978760e-02 6.577057391405105591e-02 7.528936862945556641e-02 -2.300533205270767212e-01 1.793035417795181274e-01 4.300677403807640076e-02 -1.067831069231033325e-01 -5.740418564528226852e-03 -4.226278886198997498e-02 9.837123565375804901e-03 -1.429827362298965454e-01 6.145695224404335022e-02 -1.040706131607294083e-02 6.047834455966949463e-02 7.047489751130342484e-03 4.439685046672821045e-01 -1.546007394790649414e-01 -1.383211612701416016e-01 6.875045597553253174e-02 2.520591393113136292e-02 -2.225370705127716064e-01 -2.433304116129875183e-02 -8.483243733644485474e-02 5.518137477338314056e-03 2.291171401739120483e-01 -8.649433404207229614e-02 -7.650706451386213303e-03 4.442495852708816528e-02 -6.719721853733062744e-02 -2.901424467563629150e-01 5.913186818361282349e-02 1.766467839479446411e-01 1.615273803472518921e-01 -7.924202084541320801e-02 8.262991905212402344e-02 1.415393408387899399e-02 -5.739236995577812195e-02 2.231904268264770508e-01 1.745341420173645020e-01 1.026827767491340637e-01 7.377687096595764160e-02 6.361072510480880737e-02 1.811281889677047729e-01 2.202365249395370483e-01 -1.268083602190017700e-01 -2.075236290693283081e-02 7.424148917198181152e-02 1.302507589571177959e-04 -1.518314927816390991e-01 1.365754157304763794e-01 5.253447964787483215e-02 1.297828257083892822e-01 -2.506048679351806641e-01 1.988095045089721680e-01 1.064548939466476440e-01 -4.007096961140632629e-02 -5.345461145043373108e-02 1.862080395221710205e-02 6.708657741546630859e-02 -3.050901889801025391e-01 -8.571261167526245117e-02 -9.119403548538684845e-03 -2.360602170228958130e-01 -5.858285352587699890e-02 2.164206057786941528e-01 1.489423662424087524e-01 -3.686396032571792603e-02 4.842064529657363892e-02 -1.364721953868865967e-01 1.297891885042190552e-01 5.371650680899620056e-02 -8.812694251537322998e-02 -1.476814895868301392e-01 2.097019925713539124e-02 -4.199454933404922485e-02 -8.984614908695220947e-02 -6.336969882249832153e-02 8.329524099826812744e-02 5.551635473966598511e-02 -2.818697597831487656e-03 -5.356962606310844421e-02 -4.699238017201423645e-02 -1.710323616862297058e-02 3.290299326181411743e-02 8.535305410623550415e-02 -8.011768572032451630e-03 8.907545357942581177e-02 -8.959963917732238770e-02 -7.595345377922058105e-03 -1.223235800862312317e-01 1.184885352849960327e-01 8.366236090660095215e-02 2.603971585631370544e-02 1.555620133876800537e-01 -9.469310194253921509e-02 -1.797647625207901001e-01 1.844204664230346680e-01 -1.354620903730392456e-01 -2.548392713069915771e-01 1.617542952299118042e-01
