5.792472362518310547e-01 2.349634468555450439e-01 -5.628572106361389160e-01 1.678982526063919067e-01 -1.286602169275283813e-01 -3.225567638874053955e-01 -1.657750159502029419e-01 -4.072980284690856934e-01 1.600069701671600342e-01 -1.263895034790039062e-01 -1.093482598662376404e-02 -2.620494961738586426e-01 4.103969037532806396e-01 2.422447204589843750e-01 4.335594177246093750e-01 -3.106888234615325928e-01 -1.590553969144821167e-01 2.773312628269195557e-01 -7.819643616676330566e-02 2.690954506397247314e-01 -2.640787959098815918e-01 -2.020254135131835938e-01 -1.282824128866195679e-01 3.650528192520141602e-01 2.380019426345825195e-01 1.679784804582595825e-01 -1.123326942324638367e-01 9.917777031660079956e-02 1.792594194412231445e-01 4.737280309200286865e-01 -6.530585885047912598e-02 3.243659138679504395e-01 2.823440134525299072e-01 2.002339214086532593e-01 1.475823670625686646e-01 -2.083007246255874634e-01 -1.617098450660705566e-01 -4.647367000579833984e-01 1.595626957714557648e-02 -1.408949494361877441e-01 -2.836251258850097656e-01 -2.445985376834869385e-01 1.193180233240127563e-01 -1.607043743133544922e-01 2.312025576829910278e-01 -5.190877616405487061e-02 3.441978394985198975e-01 -1.812606900930404663e-01 -5.206694602966308594e-01 -1.192292273044586182e-01 3.439754247665405273e-01 -1.787179410457611084e-01 2.094744145870208740e-01 1.622644811868667603e-01 -3.399524092674255371e-01 -4.884544014930725098e-01 -3.668770194053649902e-01 -3.092930912971496582e-01 3.336681798100471497e-02 -6.054981052875518799e-02 1.466526091098785400e-01 1.495392806828022003e-02 -3.743744194507598877e-01 3.379857242107391357e-01 -3.646111488342285156e-01 -9.503436088562011719e-02 2.279245555400848389e-01 -4.058824181556701660e-01 5.239217877388000488e-01 3.166992366313934326e-01 1.593943983316421509e-01 -6.259091943502426147e-02 -2.553822994232177734e-01 2.585543394088745117e-01 3.123071491718292236e-01 1.719320863485336304e-01 -1.209266409277915955e-01 -1.674748659133911133e-01 5.498247593641281128e-02 1.849960535764694214e-02 9.418550133705139160e-02 2.930099666118621826e-01 3.377384543418884277e-01 -2.521056234836578369e-01
6.453216820955276489e-02 -1.957253664731979370e-01 6.981164216995239258e-02 -2.504223585128784180e-01 3.564944565296173096e-01 -1.348785124719142914e-02 1.788616031408309937e-01 6.587853282690048218e-02 -3.806649148464202881e-01 3.705013915896415710e-02 3.946873545646667480e-02 -3.172091841697692871e-01 3.031720174476504326e-03 -2.187794595956802368e-01 -7.432377431541681290e-03 -1.541122794151306152e-01 2.744264602661132812e-01 -5.283919572830200195e-01 3.471321165561676025e-01 2.597832977771759033e-01 1.873134635388851166e-02 3.675316572189331055e-01 -3.828527629375457764e-01 -2.265319526195526123e-01 1.406197249889373779e-01 2.236289381980895996e-01 2.925835549831390381e-01 1.287739127874374390e-01 -2.971906661987304688e-01 -7.693497836589813232e-02 1.997145861387252808e-01 4.509493112564086914e-01 -1.940492242574691772e-01 3.955025076866149902e-01 -2.304729670286178589e-01 2.510879039764404297e-01 3.146886229515075684e-01 -1.286158859729766846e-01 4.111375212669372559e-01 1.258485615253448486e-01 7.692805677652359009e-02 3.267156779766082764e-01 2.556174993515014648e-01 3.095699548721313477e-01 -2.200408428907394409e-01 3.216480016708374023e-01 1.522825956344604492e-01 -4.709686934947967529e-01 1.736553758382797241e-01 3.321298630908131599e-03 3.964354097843170166e-01 -2.904604077339172363e-01 -2.377137094736099243e-01 -2.755974531173706055e-01 1.888924390077590942e-01 -2.910929024219512939e-01 7.608027011156082153e-02 -2.493016421794891357e-01 6.233987864106893539e-03 2.754135131835937500e-01 -2.854403853416442871e-01 -2.478004097938537598e-01 2.792460918426513672e-01 -2.217855900526046753e-01 -8.029421418905258179e-02 3.742965161800384521e-01 -2.939219176769256592e-01 1.190798208117485046e-01 3.129699826240539551e-01 -2.028076052665710449e-01 -2.152336984872817993e-01 5.333742499351501465e-02 -3.448294699192047119e-01 -2.580825090408325195e-01 -1.763603687286376953e-01 2.645580768585205078e-01 4.160929322242736816e-01 2.126698493957519531e-01 -3.215861618518829346e-01 -3.643694519996643066e-01 1.244357600808143616e-01 -2.731563746929168701e-01 2.700443193316459656e-02 2.286859303712844849e-01
-2.898730635643005371e-01 3.440531790256500244e-01 2.559391260147094727e-01 -2.756591141223907471e-01 -3.468636870384216309e-01 1.597876399755477905e-01 -1.654567569494247437e-01 -1.982118636369705200e-01 -3.852020502090454102e-01 3.123603463172912598e-01 1.281777918338775635e-01 1.939090639352798462e-01 -2.665106952190399170e-01 4.334677942097187042e-03 4.190593659877777100e-01 -1.330216079950332642e-01 -3.340386450290679932e-01 1.946583986282348633e-01 -3.437095284461975098e-01 5.315264221280813217e-03 1.262799650430679321e-01 1.873535513877868652e-01 1.762988865375518799e-01 4.454357624053955078e-01 -3.211303055286407471e-01 -3.039577603340148926e-01 1.198755577206611633e-01 -4.247723221778869629e-01 1.127543766051530838e-02 4.243990778923034668e-01 2.827374339103698730e-01 1.520020216703414917e-01 9.550590068101882935e-02 -3.820083141326904297e-01 2.015205770730972290e-01 -2.576244436204433441e-02 -3.074513971805572510e-01 1.194181740283966064e-01 -2.080561034381389618e-02 -3.051553368568420410e-01 -3.694980442523956299e-01 -3.639320784714072943e-04 1.253331750631332397e-01 3.310890197753906250e-01 2.815083861351013184e-01 -6.712134927511215210e-02 -1.565419584512710571e-01 -3.823047876358032227e-01 -4.254018366336822510e-01 -4.308471083641052246e-01 -8.706544339656829834e-02 -1.515159755945205688e-01 -1.492102146148681641e-01 1.763895601034164429e-01 2.193779945373535156e-01 -2.481563240289688110e-01 7.650103420019149780e-02 -1.527816057205200195e-02 -2.603473961353302002e-01 -2.001731395721435547e-01 -2.631626427173614502e-01 4.580910503864288330e-01 2.546700537204742432e-01 2.678342536091804504e-02 -3.545837700366973877e-01 3.015608191490173340e-01 -2.055268585681915283e-01 2.498256713151931763e-01 1.228274032473564148e-01 2.098998278379440308e-01 -6.101382151246070862e-02 3.094401657581329346e-01 3.582505285739898682e-01 -1.953201554715633392e-02 -2.164065986871719360e-01 -3.056064248085021973e-01 1.543842405080795288e-01 -2.688621282577514648e-01 1.223063990473747253e-01 -3.345548510551452637e-01 1.587932556867599487e-01 -2.643370926380157471e-01 1.125528290867805481e-01 -3.171030879020690918e-01
1.422536969184875488e-01 -5.306679382920265198e-02 2.769708633422851562e-01 2.841620147228240967e-01 1.078909710049629211e-01 -1.111958473920822144e-01 1.125321835279464722e-01 -2.003004699945449829e-01 2.217867970466613770e-01 -1.394434124231338501e-01 1.993375569581985474e-01 1.520993709564208984e-01 -2.437169700860977173e-01 -2.417933195829391479e-01 -3.414945602416992188e-01 -2.108257114887237549e-01 -3.477902710437774658e-01 1.778198927640914917e-01 -9.028679877519607544e-02 2.751332223415374756e-01 -3.276936709880828857e-01 -5.910970643162727356e-02 -3.222102224826812744e-01 -2.817654311656951904e-01 -3.321706056594848633e-01 2.406946569681167603e-01 -2.820040881633758545e-01 2.360487580299377441e-01 2.616348303854465485e-02 -3.419251143932342529e-01 2.625385485589504242e-02 -1.059013158082962036e-01 -1.198157966136932373e-01 2.383514195680618286e-01 2.970405220985412598e-01 -1.144888922572135925e-01 -2.142587602138519287e-01 4.955338686704635620e-02 -2.730261981487274170e-01 8.737192302942276001e-02 -2.721892893314361572e-01 1.677111387252807617e-01 2.811850607395172119e-01 -9.267161786556243896e-02 6.633455306291580200e-02 -2.302198261022567749e-01 -3.917162716388702393e-01 2.054196447134017944e-01 1.970787346363067627e-01 -1.834453195333480835e-01 1.477492749691009521e-01 2.846511006355285645e-01 -2.568055093288421631e-01 3.439317345619201660e-01 1.829192042350769043e-01 3.525877594947814941e-01 1.546358019113540649e-01 2.516039013862609863e-01 1.593926735222339630e-02 -2.048068791627883911e-01 2.627547383308410645e-01 -3.673653602600097656e-01 2.949534058570861816e-01 -4.211706295609474182e-02 -2.140511572360992432e-01 -2.640506327152252197e-01 -3.296051025390625000e-01 2.442139238119125366e-01 -3.229370117187500000e-01 3.301557004451751709e-01 -3.487449884414672852e-01 1.909926235675811768e-01 1.918930262327194214e-01 1.296042054891586304e-01 1.392560154199600220e-01 -8.074726164340972900e-02 3.460717201232910156e-01 1.225604787468910217e-01 -2.962306439876556396e-01 1.930713504552841187e-01 3.128094673156738281e-01 1.234739050269126892e-01 -2.400806397199630737e-01 -3.212064802646636963e-01
-3.190483152866363525e-01 3.514237701892852783e-01 -1.281320750713348389e-01 1.322050541639328003e-01 1.116649359464645386e-01 3.961792588233947754e-01 2.749212980270385742e-01 -2.092817574739456177e-01 1.443366557359695435e-01 6.190899293869733810e-03 -3.136140406131744385e-01 2.441391348838806152e-01 3.153326213359832764e-01 1.675561815500259399e-01 -3.985905647277832031e-02 2.286277264356613159e-01 2.246751934289932251e-01 -4.106890857219696045e-01 2.808383107185363770e-01 -1.658035665750503540e-01 6.924394518136978149e-02 -3.669470846652984619e-01 1.091554835438728333e-01 2.538535296916961670e-01 1.698744446039199829e-01 -1.350197046995162964e-01 2.949094474315643311e-01 -1.800073832273483276e-01 1.325209438800811768e-01 2.295549064874649048e-01 -2.970922291278839111e-01 1.238982658833265305e-02 -8.938615769147872925e-02 -2.331960201263427734e-01 -3.033370971679687500e-01 -1.120674759149551392e-01 2.118443846702575684e-01 -2.968277931213378906e-01 -4.710862413048744202e-02 2.785167396068572998e-01 2.375486046075820923e-01 -1.041644811630249023e-01 -2.221379280090332031e-01 -1.577405631542205811e-01 9.201353043317794800e-02 2.279123663902282715e-01 -1.834492534399032593e-01 6.461841613054275513e-02 3.871490955352783203e-01 2.385944575071334839e-01 -2.195303887128829956e-02 1.919568330049514771e-01 -3.335356712341308594e-01 -3.437320291996002197e-01 1.744250953197479248e-01 1.287459880113601685e-01 -2.081771492958068848e-01 3.293823450803756714e-02 -3.801238536834716797e-01 -3.115759789943695068e-01 1.279140859842300415e-01 9.477955102920532227e-02 2.956572771072387695e-01 1.946813613176345825e-01 2.399944514036178589e-01 2.568728625774383545e-01 6.633345037698745728e-02 -9.711364656686782837e-02 -3.568837642669677734e-01 6.860490143299102783e-02 1.600915379822254181e-02 1.706303656101226807e-01 1.352228224277496338e-01 -2.608515322208404541e-01 -5.053022503852844238e-01 -1.625328510999679565e-01 -6.929746270179748535e-02 1.178332418203353882e-01 6.345991790294647217e-02 1.157718002796173096e-01 -3.094599843025207520e-01 1.833138912916183472e-01 -1.467813700437545776e-01 2.372045665979385376e-01
-2.643525004386901855e-01 -1.368730068206787109e-01 3.949678540229797363e-01 -2.160545252263545990e-02 1.339436322450637817e-02 -3.392779082059860229e-02 -5.321542546153068542e-02 2.730843722820281982e-01 -6.155469454824924469e-03 -4.396798908710479736e-01 4.656547680497169495e-02 1.834597140550613403e-01 -3.892250955104827881e-01 1.212355718016624451e-01 -2.107207924127578735e-01 2.796005606651306152e-01 1.049752812832593918e-02 -2.920174896717071533e-01 -2.258550673723220825e-01 8.727917075157165527e-02 2.367726117372512817e-01 -2.901421487331390381e-01 -2.087313979864120483e-01 -3.015459775924682617e-01 3.565487563610076904e-01 4.078404009342193604e-01 -3.248224258422851562e-01 6.363864988088607788e-02 7.186772674322128296e-02 -4.045730531215667725e-01 1.207530796527862549e-01 -3.425647616386413574e-01 3.691483438014984131e-01 1.486048847436904907e-01 1.756841689348220825e-01 1.807275861501693726e-01 -2.401879876852035522e-01 2.616712749004364014e-01 -1.204697787761688232e-01 -1.461490988731384277e-01 -1.796839833259582520e-01 7.093542814254760742e-02 -9.752138704061508179e-02 -9.292775392532348633e-02 -1.776173710823059082e-01 -4.033809900283813477e-02 1.946225315332412720e-01 -1.160062998533248901e-01 3.065790534019470215e-01 5.394940078258514404e-02 -1.890837997198104858e-01 2.998978197574615479e-01 2.738442420959472656e-01 -2.506894171237945557e-01 -3.205294609069824219e-01 2.999149560928344727e-01 3.194240629673004150e-01 -4.467315077781677246e-01 2.142278999090194702e-01 1.956948041915893555e-01 1.913507133722305298e-01 2.535596191883087158e-01 -2.883101999759674072e-01 -7.536261528730392456e-02 8.986973762512207031e-02 -2.317733168601989746e-01 2.845613360404968262e-01 2.913305461406707764e-01 -2.876991033554077148e-01 -2.807855010032653809e-01 3.504132032394409180e-01 -5.254574418067932129e-01 -3.888394534587860107e-01 2.618936002254486084e-01 1.352720558643341064e-01 4.145348668098449707e-01 -3.213764429092407227e-01 -2.570474743843078613e-01 2.520140409469604492e-01 1.978390961885452271e-01 2.344054281711578369e-01 -6.511018425226211548e-02 -4.080030024051666260e-01 -2.939107716083526611e-01
-1.484025716781616211e-01 2.290779799222946167e-01 -5.613454431295394897e-02 -1.217683479189872742e-01 -1.703559011220932007e-01 2.131173759698867798e-01 -1.593883782625198364e-01 2.708363831043243408e-01 -4.161422327160835266e-02 -1.063431948423385620e-01 4.357481896877288818e-01 1.624676436185836792e-01 3.334499895572662354e-01 -3.712853491306304932e-01 -3.714947998523712158e-01 4.003921151161193848e-01 -3.741811588406562805e-02 -2.432897984981536865e-01 3.042731285095214844e-01 8.689448982477188110e-02 1.057770624756813049e-01 -2.422445863485336304e-01 7.825355976819992065e-02 4.221234470605850220e-02 2.523722052574157715e-01 -8.399405330419540405e-02 2.529369890689849854e-01 -1.715900599956512451e-01 -4.547531902790069580e-01 -2.278131246566772461e-01 -5.072872042655944824e-01 3.128131926059722900e-01 2.531071007251739502e-02 1.954159140586853027e-02 3.083467781543731689e-01 -1.168346852064132690e-01 2.737444341182708740e-01 2.254019081592559814e-01 -2.983893081545829773e-02 -4.253626987338066101e-02 1.342857927083969116e-01 -2.905327081680297852e-01 3.189395368099212646e-01 8.442589640617370605e-02 -4.654277861118316650e-01 -3.494665324687957764e-01 2.757817506790161133e-01 -1.316311955451965332e-01 -2.015183418989181519e-01 1.417614072561264038e-01 2.649437189102172852e-01 -8.698835223913192749e-02 3.266979753971099854e-01 -1.053196638822555542e-01 -5.356653332710266113e-01 -3.545503020286560059e-01 -3.893569707870483398e-01 -1.169008314609527588e-01 -2.671512961387634277e-01 -9.916175901889801025e-02 7.003629952669143677e-02 2.048972100019454956e-01 -3.382766544818878174e-01 4.023050069808959961e-01 2.085630446672439575e-01 -8.103469759225845337e-02 4.115677177906036377e-01 -2.889372110366821289e-01 -2.811765531077980995e-03 2.637221813201904297e-01 -1.671699136495590210e-01 -4.638719856739044189e-01 -1.249980702996253967e-01 -2.602215409278869629e-01 -3.184770420193672180e-02 4.566366374492645264e-01 -2.387126386165618896e-01 1.571300625801086426e-01 1.567518264055252075e-01 -1.564767211675643921e-01 3.782530128955841064e-01 1.507527083158493042e-01 3.300935626029968262e-01 8.351757377386093140e-02
1.025173068046569824e-01 -1.904322803020477295e-01 3.620642125606536865e-01 1.214315444231033325e-01 -4.372140467166900635e-01 -7.859265059232711792e-02 3.832012414932250977e-01 -3.006968200206756592e-01 -3.452166020870208740e-01 8.297905325889587402e-02 -1.802746206521987915e-01 -3.195973336696624756e-01 -2.835987210273742676e-01 1.176660656929016113e-01 2.556824982166290283e-01 -1.047606952488422394e-02 1.618440598249435425e-01 1.440844237804412842e-01 -7.883403450250625610e-02 -3.845145404338836670e-01 -3.805574476718902588e-01 1.737388968467712402e-01 -3.214010298252105713e-01 -9.699857234954833984e-02 -9.909871220588684082e-02 2.022076100111007690e-01 -1.461350768804550171e-01 2.766128182411193848e-01 1.522563844919204712e-01 -2.344666123390197754e-01 -2.418093085289001465e-01 3.917504549026489258e-01 -3.936202228069305420e-01 -3.578370511531829834e-01 -4.121224880218505859e-01 -4.078495502471923828e-01 -2.237388193607330322e-01 -1.778215467929840088e-01 2.679317891597747803e-01 2.802531719207763672e-01 5.008589625358581543e-01 2.694571018218994141e-01 -2.230165600776672363e-01 -1.775969713926315308e-01 -3.552207052707672119e-01 3.573485612869262695e-01 3.093615770339965820e-01 1.667069047689437866e-01 2.584064900875091553e-01 -3.615841865539550781e-01 -3.327118754386901855e-01 -1.528549194335937500e-01 3.346510231494903564e-01 3.391372561454772949e-01 1.751911491155624390e-01 8.697923272848129272e-02 -9.082916378974914551e-02 2.680380642414093018e-01 3.550477027893066406e-01 -3.782366812229156494e-01 -2.670515775680541992e-01 -1.898871511220932007e-01 2.168132066726684570e-01 -6.344831734895706177e-02 6.859467178583145142e-02 3.105112016201019287e-01 1.353958845138549805e-01 -9.599521011114120483e-02 3.112549185752868652e-01 -9.445199370384216309e-02 2.416366487741470337e-01 -1.949671804904937744e-01 2.140041142702102661e-01 3.439956158399581909e-02 1.665990203619003296e-01 -1.120239496231079102e-01 2.673825919628143311e-01 -3.338549435138702393e-01 -2.153078764677047729e-01 1.541881561279296875e-01 -1.593783795833587646e-01 4.229513183236122131e-02 -2.823528051376342773e-01 3.562336787581443787e-02
2.801209092140197754e-01 -2.489340156316757202e-01 -2.056099474430084229e-01 -3.645399808883666992e-01 1.986661404371261597e-01 3.331598043441772461e-01 -4.205854833126068115e-01 5.303331464529037476e-02 1.101375073194503784e-01 1.334012392908334732e-02 1.978907585144042969e-01 1.250680834054946899e-01 1.619282960891723633e-01 1.611490249633789062e-01 -2.289880961179733276e-01 9.764300286769866943e-02 3.872661590576171875e-01 2.003678083419799805e-01 -1.452447772026062012e-01 2.338817268610000610e-01 1.748530864715576172e-01 9.651813656091690063e-02 3.122247755527496338e-01 7.315301150083541870e-02 -2.147903144359588623e-01 -2.739003300666809082e-01 3.187081813812255859e-01 1.895564049482345581e-01 5.635651573538780212e-02 1.800054460763931274e-01 1.306263357400894165e-01 -2.939528524875640869e-01 -3.976552188396453857e-01 9.915989637374877930e-02 1.288464516401290894e-01 2.424366921186447144e-01 -1.519564390182495117e-01 2.742643281817436218e-02 -8.572898805141448975e-02 -1.673072129487991333e-01 -7.896884530782699585e-02 3.054127395153045654e-01 1.427818685770034790e-01 -9.061897546052932739e-02 1.853629797697067261e-01 -2.616727948188781738e-01 2.495909929275512695e-01 2.243750244379043579e-01 -2.571796178817749023e-01 1.522680521011352539e-01 -9.727501869201660156e-02 -3.822698593139648438e-01 3.324401676654815674e-01 -3.195939660072326660e-01 5.921409651637077332e-02 1.280137430876493454e-02 9.130732715129852295e-02 3.362068533897399902e-01 2.739003598690032959e-01 1.391667574644088745e-01 1.651948392391204834e-01 -2.915942072868347168e-01 -4.304739534854888916e-01 -1.959062069654464722e-01 -2.473831623792648315e-01 -1.127045080065727234e-01 2.632973492145538330e-01 4.882634058594703674e-02 -1.216202378273010254e-01 -5.967690423130989075e-02 -3.702064752578735352e-01 3.006858825683593750e-01 1.943899542093276978e-01 -3.353172540664672852e-01 1.834247261285781860e-01 -2.228713333606719971e-01 -1.688165664672851562e-01 3.174799084663391113e-01 3.533789813518524170e-01 2.625148296356201172e-01 1.333534810692071915e-02 -3.360014557838439941e-01 3.476396501064300537e-01 8.067674189805984497e-02
2.064733803272247314e-01 -2.760332264006137848e-02 -3.743973970413208008e-01 2.429301440715789795e-01 2.538122236728668213e-01 -3.601103127002716064e-01 2.057587653398513794e-01 4.352346658706665039e-01 1.840322762727737427e-01 2.263251394033432007e-01 -1.011662259697914124e-01 -9.570307284593582153e-02 1.998234987258911133e-01 2.791006863117218018e-01 7.418721169233322144e-02 -3.642587065696716309e-01 -1.435149610042572021e-01 3.305800855159759521e-01 1.805164068937301636e-01 -2.431413829326629639e-01 5.004677176475524902e-02 2.796650528907775879e-01 2.704430222511291504e-01 -1.828740537166595459e-02 1.820877641439437866e-01 9.787447005510330200e-02 -2.727043926715850830e-01 -1.896845102310180664e-01 1.312220245599746704e-01 7.909853756427764893e-02 1.498806476593017578e-01 -2.628483176231384277e-01 3.570410311222076416e-01 3.168077906593680382e-03 -9.623582661151885986e-02 -8.564178831875324249e-03 2.871393561363220215e-01 3.765336871147155762e-01 3.847854137420654297e-01 2.613852918148040771e-01 2.226480543613433838e-01 -3.248725235462188721e-01 -2.974889576435089111e-01 -2.344495952129364014e-01 9.536132216453552246e-02 8.177674375474452972e-03 -2.492587864398956299e-01 1.766076683998107910e-01 -3.493204712867736816e-02 2.752386033535003662e-01 -2.443162165582180023e-02 3.474260270595550537e-01 -2.378145307302474976e-01 1.648115813732147217e-01 8.281645923852920532e-02 7.904928922653198242e-02 1.584981530904769897e-01 1.991611421108245850e-01 -8.594357222318649292e-02 4.724012017250061035e-01 -9.284169226884841919e-02 7.394484430551528931e-02 7.527091354131698608e-02 -1.136774048209190369e-01 4.106515347957611084e-01 -2.262049913406372070e-01 -5.714693665504455566e-02 -2.230881005525588989e-01 1.247904300689697266e-01 -3.689972758293151855e-01 6.784141063690185547e-02 1.008101850748062134e-01 1.245510503649711609e-01 3.964121639728546143e-01 1.882610768079757690e-01 -9.416043758392333984e-02 -1.983737051486968994e-01 2.854550480842590332e-01 5.199009552597999573e-02 1.318505555391311646e-01 -2.769757807254791260e-01 3.932474255561828613e-01 4.577430896461009979e-03 2.545742690563201904e-01
